{"layers":[{"weights":{"rows":20,"cols":784,"data":[[0.15241125276905546,-0.2362024115559036,-0.1448920422359194,-0.2185798286052804,-0.2574738811318312,0.11334217468957186,-0.026038776357320104,0.14106995823702137,-0.47083593161412773,0.3183791002954126,0.2810168766478438,-0.01862955373412295,0.11697369819669257,0.1395322383034933,0.12048267741641386,-0.4113312520746965,-0.35203040940346153,0.23855603049202107,0.4059717807764199,-0.34556450540356737,-0.31103417105918574,0.23676999819868605,0.018842845433085953,-0.2348168946271598,-0.3398446094285156,-0.0873591137751927,-0.38524555363538077,-0.1910623754278192,0.12426014615095665,0.5722290474011132,0.2606882375162282,0.3247348681135336,0.03082498001454828,-0.5702027982110123,0.3909099984713367,-0.31997496162063643,-0.14978492660541162,0.49570909530189006,-0.25637063107085184,0.13100040852407446,0.7703127163515006,-0.03180177276971566,-0.09033091042850963,0.0950459068224925,0.06617733692230099,0.5382496261156318,0.2658164096483536,-0.029627559864317032,-0.1599911135431345,-0.4279414748282029,-0.06992076398788581,-0.23883640263921643,0.014169826241229838,0.33534029680378374,0.13924924623809398,-0.2245418900450223,-0.6110518340073197,-0.13641286459473492,0.3679351116178966,0.04695364916673689,-0.19778891605337118,0.6808363571908562,0.27732039703181405,-0.18713794813951146,0.2569818683259798,-0.2500820714005251,-0.0969052653005274,-0.21748473886800215,-0.09839323430128613,-0.30044668106631356,0.10270283700315233,0.017209180990128137,0.057773711454933055,-0.3261151455458723,0.31728892878498416,-0.2747755838852849,0.478161362880262,0.25191773040752863,-0.25912267690671703,0.122046327185164,-0.2036963110347438,0.10268957997864536,0.1799334394153177,0.34082313055378854,0.20079254153319157,0.1550065375556357,-0.4470057591997906,-0.16206192301137093,-0.3894229179288725,0.0720778836433702,0.043161695611305145,0.40238037056525494,-0.037800159629080676,0.2780544495117324,-0.17091862245161082,-0.07967651362453715,-0.17480447729355966,-0.3147877280492008,0.5723809747000357,-0.5833256410727418,0.4077710053868651,0.0612076933124975,-0.18383483021516311,-0.4579815919494321,-0.07561340604258579,-0.4939380085731155,-0.39351502177379605,-0.0759730603395736,-0.010243276774251547,-0.3096928250971541,-0.35322257552196423,0.13825147280855088,-0.0731911051942826,0.06520012192879887,0.1318360731615061,0.052777400080628284,0.3883218793933574,-0.19512172725483987,0.31803526618161404,-0.3573483562007267,-0.4827795808200166,-0.2742154133352562,0.07281069685020614,-0.10400701588621984,0.3808871039857852,-0.2338344957741556,0.0406905203500775,0.017102429626786257,-0.24073645440371602,-0.35700914005270784,-0.27264396698081483,-0.29619880493893436,-0.323840380221461,-0.5149168305576686,0.33028519855295513,-0.37930101772413083,0.39528266230190023,0.030351336738003803,-0.1702724887415335,-0.22209719657722168,0.5790310189788914,0.2534901513674078,-0.249118921156626,-0.20101314345933363,0.043392308523417134,0.19577455152750056,0.21198768862838213,0.1904187484932251,0.17645882003982297,0.421226447468268,-0.19598246358975563,1.2014211559211423,0.39667348017452325,1.3275293789691254,2.9054135212719503,4.512486847818356,5.064537180574378,0.9118382016238517,-0.5424939495624073,0.6756065383515062,-0.3896500485725239,0.2846732560394821,0.2806961340965658,-0.08664015716135118,0.28367582955190995,-0.013290642005832326,-0.12718323172820303,-0.10269481135756003,-0.06429445694375482,-0.44474834987596884,0.10252141669490125,-0.12393876374371296,0.10153072290248089,0.3245367109489581,-0.25910333740357994,-0.26333674027338383,0.34258392782990316,1.771474766986195,3.960425367105712,4.798421307317952,4.32547658743438,4.1333232398259865,4.114033164615047,4.929842326296221,5.451455129658914,3.510466484660229,-0.16387106747087446,-0.12702353476104677,-0.10790351514730719,0.33162141400193024,0.15526784058179866,-0.41919753933113724,-0.01794182712781449,-0.5705383662273869,-0.1846140877839763,-0.6647916592575533,-0.048725399917371987,0.26386466742520837,-0.394324968322152,0.010887662703361639,0.724364325156499,0.13262093252462745,0.16596231922761764,0.38606683292994776,3.7082395104812234,5.6033180127743565,4.384473337890254,3.945815394617947,3.2861622027827457,1.7589915994437102,1.6359740168040222,1.1041913324514474,-0.014844796962166631,-0.19127418389708678,0.44557025979269005,0.06047274785866756,0.02474441010657281,-0.09997623616015616,-0.7730994529662558,-0.6097062773656663,-0.39373306650766676,-0.30819045600669137,0.13574440322360082,0.2661401514462808,-0.3679355146411457,0.27896841758177904,-0.6811444044287331,0.2116308099039702,0.47404248888384587,-0.26653333303613735,0.02234154947918368,4.346430798542827,5.341703954943419,5.3333821141850155,2.8987050527340177,2.1272327338964523,-0.8664957115116664,-0.7143770424923388,0.16103494285133543,-0.091081662149042,0.02248913584961971,-0.5292943854642524,-0.04483228940579835,-0.2640557522217842,0.3274070071492855,-0.7453635355799517,-0.7319643677395427,-1.6739916834853108,-1.2869699022238348,-0.31435471480084687,-0.10326550581965974,-0.5821519961693772,0.06717747351456288,-0.20317196969387152,0.26061810823168674,-0.049102256133316646,0.2663727485686074,0.04215454995103679,0.4401665720250487,4.923252612731709,4.402040830990704,4.062197283104833,-0.7131982555052204,-1.5877515054825555,-0.8733344905499949,-0.17054609274280835,0.2114513563045931,0.06338476985775963,-0.4281472453988861,-0.10542345245989289,-0.27890646550639886,-0.5068503187408886,-0.07003992236125318,-1.7708762530211295,-1.4779359642905923,-1.4290674176780949,-0.15185332990270675,0.05168955676765419,0.06398357668294416,-0.24603664345248655,-0.1353394910672821,-0.1244811595558512,-0.11763174741279833,-0.24666749348301073,0.0004919303557059662,0.14340414140761734,0.3087080135916059,3.7658063769879746,4.109354232532122,3.9699770321235737,2.751607666509255,0.6593071079219778,-0.5063064348365862,-0.089208853420949,-0.6952355209419123,0.18448240015931794,-0.3372904190558854,-0.0957452012116753,-0.037008704078602815,0.08004072625764319,-0.8031602524393384,-2.029787001971644,-1.5850436929224558,-1.291054566286804,-0.009051436055593415,-0.44776105900319946,0.027540135815134648,0.14168141375205945,-0.3272216554061787,0.09116294254728038,-0.2753794744046076,-0.20688543191866376,-0.26297848560768333,0.331488225467577,0.1934857810796018,-0.6704990912957295,2.5296342578837763,4.347756577702087,3.4986887257849664,4.7352170779379765,4.7505520507670855,1.109537697377353,0.17372039657575922,0.2455444715600035,-0.41768543349145415,-0.21960736197161151,0.5676640858586237,0.8000395865473733,0.1003865042640522,0.2954750707066823,-0.9556059463450539,-0.00951778612511478,-0.1986792952003772,-0.3126925728323895,-0.22130789018289884,-0.42326730103859417,-0.13788429115923043,0.3920989165741747,0.47232830213775956,-0.30225627794745336,-0.31199032644200275,-0.3079814935559746,-1.2921870156086306,-1.719395753267828,-1.295056113528715,0.11149502970694564,4.023502428859522,4.638611638727806,5.630912696052557,4.3211048682001785,3.4607916608534888,1.744168118130253,2.3444222109912833,4.024473622212388,4.733235944705112,4.239104329484569,3.8384365859637084,2.329709856226965,4.749891050020159,4.991174309935253,1.7738464833888838,0.12468649183731143,0.03667227125349706,0.7691486021783835,-0.07850606989752879,0.19761462481082942,0.20420422522021012,-0.22412295974046628,0.4071038396766614,-0.2131223228262275,-1.494663486026847,-1.6750633257713958,-1.686100879089705,-1.301962807597648,-1.0536442653655023,2.0574395819808897,4.119451724364538,5.249122240797089,5.229257292537186,5.2870968921292425,5.636847061147154,5.799639864288624,2.999325939008554,3.724896322652162,3.4266645965552938,3.184350497470949,5.131677177525399,3.6527978089622346,5.208845598335316,0.5840706146884977,0.19592998610011855,0.23735211172971676,-0.007428233752353408,0.06846183977738146,-0.5359868816253294,-0.0214041197438265,-0.2200961063714948,-1.2548330272753019,-1.3167740743036422,-1.5724282215933663,-1.1187557447299397,-1.326825461676236,-0.8207031595929657,-1.750857893040016,-0.4580289240062967,3.864829523210517,6.095932391249759,3.7905145244035134,5.445399885121912,4.5376983410913745,2.869369360010169,0.6416082331865768,-0.21107762756278795,-0.27250168897772997,1.1562007423607588,5.210549047082746,4.028787612393294,0.02315494092672067,0.1685249876484154,-0.30115536998415604,0.38932693495511045,-0.3016628119580114,0.18196848113386702,-0.2194805563020938,0.18490754990268693,-0.0748019180880674,-0.11855204892744503,-0.5088583000356233,0.11493244395603315,0.18160528993401298,-0.25442904257248966,-0.8429624370090543,1.207533622337859,3.3599158844425077,3.849783761000036,4.557600933373592,3.705112132577351,3.8501314886260407,-1.2748478826585101,-1.7868833237333033,-1.250735347312189,-0.1892355661636957,-0.622792147237577,0.1335157795420184,0.803614103717512,0.4469058246980177,-0.5543532970298289,-0.07427543304490083,0.08728257222121077,-0.00830548055321706,0.45340976085671536,-0.3226598352675112,0.1318670498123278,-0.024819325878730862,-0.11600575658806075,-0.18619936557854924,-0.2553859818038331,-0.297616266112414,-0.15805508189286746,0.6077462276787082,4.075021831964718,3.8365572942917243,3.341223522119644,3.436491206054341,4.166157399481886,4.033260090431147,0.41582132652097153,-1.2091897231895694,-1.623901055028501,0.09626115900725461,-0.1546738130333678,0.14773857752874736,0.28631765246140295,0.5058302120675825,0.016330268177438406,-0.46391528811453553,-0.05642508183873099,0.26145903281213956,0.0998362654388946,-0.19669423524705879,-0.35124248757058196,0.3591311781461496,-0.11406444613273417,0.12081266648256421,-0.32770823401222415,-0.6040621432034807,0.4457179928424922,4.863521291373507,5.016627726885218,3.1826870722720897,-0.12204077929567833,0.33437343442323353,3.243654379164879,3.6706323214650367,0.39871467581648357,-1.4798160773066362,-0.928307261771862,-0.2928962747205195,-0.05348873036808775,0.40367176868969945,0.17845901456134972,0.20041295096303688,0.0229171990562666,0.17975488884974253,0.31500990410008956,-0.0291609543991585,0.3436624633085339,0.09653302780064843,-0.35148892894643313,0.3174915734494428,-0.11494623899288688,-0.01604202356218686,-0.7223408659802604,-0.5851857026798213,2.131067982422974,5.189129244216744,5.191527442135598,2.7393678343358046,-1.992727132533098,-0.010344188755807282,3.8330858239427634,3.8045664115632922,1.1574752006415032,-0.2904922525126841,-0.6475504784582394,-0.4481183869455991,-0.26286002733371283,0.13636753541202412,-0.32187266882945037,-0.5017122138375745,-0.2743601694286087,0.16106683910716757,0.17342413927222097,-0.007918051406465648,0.34810132514886005,-0.19838405908835366,0.11320314383095226,0.5070593964136352,-0.1738478482542959,0.1707982219533004,0.3754297270591257,-0.23024647398886622,4.516536790568701,5.240004899264601,4.690796732167183,3.162666276115225,-1.3188335228280925,1.4396889801766957,4.182210434330492,4.250597567578653,1.6754041099515138,0.313526177994086,0.32139710417076905,-0.14706214599505618,0.06133791428608015,0.19382091275576727,0.32608422130282144,0.4138421430683565,-0.10137414078944929,-0.1560421351341807,-0.383995093066963,0.00991333133996089,0.1269004484360323,0.1250984740840116,-0.04197917105161966,0.6044144897409569,-0.19253555412146595,-0.2491793746014406,0.034826524653942814,-0.5374554518221766,4.015341063045262,4.692996207813985,5.225604576586475,2.119963481079477,-0.9450939509555963,2.694163738834078,3.7692679393816877,5.081710554498846,2.3907837805913514,0.17768455308986802,-0.5020843354189738,-0.2765180547613739,-0.7107761479612327,-0.2703664681231178,0.14864250569874354,0.1872777375046302,0.1380114880843778,-0.08303658484033449,-0.43340599080527886,-0.5879261702562235,0.2678013227915597,0.033387485598572963,0.11462820022679009,0.4346092859975944,-0.17097045372423397,-0.20369653383794895,0.26049036184923735,-0.28809206416970123,1.1796688493695509,5.44559366606623,4.65096895807311,2.262273202486543,2.2684857707232857,3.6825074540761307,4.244272455404635,3.188990452590576,0.22326557469937958,-0.06748012737819184,0.19522321364518536,0.03180615320851983,-0.06024525385007601,-0.5009271618807714,0.13344117365734473,0.45570280347766,0.042932105585552965,0.1533468194562515,-0.22673578732676147,-0.022614610520630934,-0.009564893268939889,-0.06491948703457959,-0.1141842636537976,0.5490014806150083,0.2413452538102871,0.2149009586350697,0.6066508686712457,0.5401994213861243,0.592485463333362,4.924404342869005,4.483605703343518,4.003028045259201,3.761487233521647,4.000752390487494,5.133944676962479,1.3306564258530202,0.1312780012063576,0.23381719259830175,-0.053715013420895776,0.560297475343247,-0.011195680098853661,-0.07782592777967087,-0.3445476318587122,-0.1175689631960003,0.1547972596294404,-0.33091722929961453,0.4720822689033745,-0.10668908997222029,-0.19780202291443091,-0.03739302735055605,0.08181938689981269,-0.011445078099520029,-0.6360196775225979,-0.14075655081919586,0.2141281508938388,0.058614502192250215,-0.03457144449318651,4.416589266316658,3.7637641212114916,3.4166854075662285,4.198297797153036,3.4045723576357565,2.5555923483511487,0.3638223824853485,-0.34830409286570974,0.44655046698531775,0.05539325035692276,-0.12258961332579024,-0.40928087720578715,-0.32726787358979337,-0.26370784921670026,0.5697656173810688,-0.0015862204093459176,0.045937316857879995,0.1750567957761926,0.12426163124160766,0.32948041630392555,-0.29758845941588186,-0.3973978075146166,-0.2474533559387978,0.5734600184722465,-0.4522837432191368,-0.19499162886308313,-0.2037629658026277,-0.12337146379413338,0.4992909903350169,2.3810915492291964,4.04579952672316,4.3067316672688385,2.128652410248516,-0.17033519122252933,0.1759049464792784,0.18754479185968673,-0.14089787685443927,-0.4459252536875094,0.659689531873396,-0.37667419239471117,-0.025385053565331217,0.22981886610333302,0.6095975574982375,0.2902530792234791,0.021775181433369317,-0.28830720043634583,0.27743303884649495,-0.28326813661634287,-0.30339355402303736,-0.0797738514886121,-0.3273751720624975,-0.11574777642056738,0.3281658081591877,-0.3505201753935523,0.06599502113284475,0.04984347933183997,-0.5315665401759093,-0.1172907281127886,0.02539718277352162,-0.3559990612253444,-0.06733161447411484,0.27747464991865467,-0.2157721950523357,-0.38945401157204906,-0.40028842621002847,0.6127366245946146,0.3556486119364365,-0.07380214671083227,0.29622832068833693,0.06858054267916802,-0.17766832608229596,0.47393350722396554,-0.3187282545802239,0.014785736153699075,0.13065289564146565,-0.4585669848204841,0.4048592979180545,0.08602753433643828,0.3961889094239914,0.1153821619516621,0.302310624749115,-0.20652367236594257,0.699110929096519,-0.6223553904229655,-0.1523186997979842,-0.12116546874103348,0.027251654468121445,0.3214342607533275,0.05857767933694466,0.03632124603814493,-0.13397353021616243,-0.025456661492092414,-0.4333463960122762,-0.3448295840931284,-0.002955836593607236,-0.08419952268290709,0.42275066245109094,0.07513391739844322,-0.0020085399312163577,-0.0613394615893407,-0.22863597762232035,0.35366661920511766,0.2323017214686325,-0.032646936611948285,-0.49147832197958197,0.3204841918164477,0.04253711320249179,-0.06345971420244095,0.187887472160984,-0.06951872834155878,0.328293058673504,0.4672927759130156,-0.056270193259995605,0.10584530892146574,-0.35398932807264116,-0.16338617977766176,0.6833209493192123,0.2291142515251754,-0.06318603518174981,0.1943723135618075,0.07296782223312259,-0.34349263365839433,-0.043524204709518094,-0.29191979489509523,-0.04775990077680445,-0.3951821633698331,-0.3705943251615155,-0.37877678188083125,0.524853523115737],[0.21306823195382035,-0.28541441666914436,0.01330494851256378,0.25371486646163566,-0.5221900168563028,-0.04246375869665589,0.2597553469528777,-0.026594031853931666,0.34051508952945764,0.127354612607208,-0.1393415522829865,-0.0632905821486569,0.19325672716076936,0.0750776825778206,0.33027348803092565,-0.1843847375707931,-0.20754790120934608,-0.2951646412529882,-0.0692763324787502,-0.16768811669175424,-0.4543395616448631,-0.49562040175845634,-0.006935814613569763,-0.4156260409537377,-0.5246939669756778,-0.08568316107546958,-0.5837088540049397,0.33484511788676596,0.35445575362529136,0.1077356073467631,-0.0891553938351641,-0.11738519043932225,0.13870291415376593,0.030187069416832746,-0.45181412321247694,-0.4649735497682138,-0.12434829421220389,-0.1921203696334495,-0.2732567779832308,-0.10090746899748052,0.05699937461632737,-0.5488915670693401,-0.2907121556275902,-0.16773309287235452,-0.22763256183032776,-0.14131549179976008,-0.2499654720812176,0.35878637163881744,-0.2208482647448931,-0.00279028153321062,-0.017403483949161302,-0.2684976326719599,-0.20980051592930077,0.10615119632532918,0.34378771690706844,-0.4201154086939262,-0.12176861732600006,0.5933345033288555,-0.009783352984782029,0.5174218832098443,-0.6683861481355926,0.13501518450365654,0.0702746521442669,-0.46411270784988856,-0.025585969843330586,0.1240084190572738,0.038262240925807045,-0.39087062633048875,0.20434459483227574,-0.03879054761823292,-0.19995256151556698,0.1373895969531078,-0.005655802478876509,0.3824193917212537,-0.1281877806263125,0.2621385514883926,0.1339256485692705,0.20926849950424764,0.10396918190092672,-0.12905727795972238,-0.13891927654620603,0.06525256209870023,-0.18668687549975424,-0.27840353488770825,-0.4821296945656282,0.04290359156991955,0.025490125537964287,0.428766360252968,-0.3014512947541967,0.032214767304047376,-0.18926830202336334,-0.20414197361691963,0.2274184324324306,-0.14035398744350466,-0.4031167350649375,0.3026851107785838,0.018603959769817935,0.06952025834584055,-0.004820076295750042,0.043042454957881365,0.3539398729557126,-0.007872070651184365,0.11343765938646752,-0.5524564694602401,-0.06058550444558816,0.08589562877681187,-0.18944971137338157,-0.698867521901929,0.08378063341318387,-0.27129989974512303,-0.6657286835962621,0.4943291419488236,-0.1614890562456717,-0.3594363557735839,0.5963045615570294,-0.5452966625391491,0.4519611333275202,0.1861089887233175,-0.4144155417683168,0.14840149958430843,-0.3822736049955727,0.1722923614755523,-0.1143993194640773,-0.5177602483651182,0.402354113948883,-0.015562793626894791,0.30350937555171587,-0.14243366482473785,0.5424458129730558,-0.02652301060764381,0.08626119845557509,-0.13213381057646412,-0.46650229082446626,0.018422659941967345,-0.0656352434770599,-0.364936121905268,0.05201567194777748,-0.23319474084739072,-0.553017571050784,-0.0528567314015132,0.1807144280363768,0.2851493992727244,-0.42331886089042836,-0.41004958828041893,0.3106109615621116,0.6925714152823057,-0.05110917420803504,-0.008744324627324912,-0.40497183938154113,-0.0907916483138467,-0.108648850243526,-0.1899808083804101,0.382386935699769,0.7859442230644536,0.7928752242816048,0.4354359678743058,-0.20977101927441552,-0.5904887823991141,0.3496440862877246,0.29079857889935223,-0.09523848040467825,0.4107948390023525,-0.2140617391445562,-0.3546961848000627,0.43679184660636017,-0.2943671716490611,-0.42102290771421425,-0.2760403665148877,-0.04462245226570674,-0.42158671987178087,0.024974446055873067,0.4181018541548739,-0.7093232165219328,-0.15908233117260923,0.35118850771637633,0.82015645005476,0.9522383637864839,1.3021150917309532,1.667466591534457,2.3653778937482457,2.83704405174589,2.934169864803983,2.2240483693785347,2.5690122583365484,1.0952006214088827,0.18190051980946598,-0.7489298571494598,-0.37951019180400347,-0.19732744095066262,-0.14502321177280694,0.004405515285974951,0.06671044547676055,-0.10690846542138228,-0.3381846950121139,-0.30234908324140297,0.1858198752573616,-0.6065695349484457,-0.14575171134588172,-0.1271672644553743,-0.466954640275559,0.08796223119633303,1.3993511465935158,1.7342968109552355,2.4820382514783805,3.147707352820796,2.895858848086304,2.4680652828907155,2.7023141398286716,3.180621991883048,2.113306313923458,2.1821168611165245,2.4839898246197922,2.9091474977463454,1.1096081868301146,-0.2521532652629124,-0.6333915822462364,-0.04990985854580951,0.16824253689713176,0.18508708919828448,0.18199857053301793,-0.11231286136922636,0.15313745783189087,-0.1256765107683354,0.01892399398275965,-0.16822539273840964,0.27184093123290554,-0.3428949301939811,0.24117548632929725,2.810290915234746,4.196864574847503,4.951988231585336,3.9008414793742796,4.059349572267779,3.988667338982574,3.3024448471811434,2.427699847751807,1.0641189489425136,-0.08817755784174106,0.09386818291732918,2.1518869063334787,2.5457276444202286,2.667473284751411,0.40955544071801364,0.32797674484287265,0.05362673939372746,-0.26988829754948096,0.4153551808870601,0.05625904540184827,0.331714774888869,0.4362745220316063,-0.10814603504954196,0.31447552168998627,-0.13431054445743867,-0.10468125697752206,-0.2998734326602138,2.397026231715868,5.044830696321882,7.089287984550184,5.299702247805744,3.7876515807344813,4.092279446616941,3.6657143857817496,3.0083393347253553,3.6927216305346713,3.5577442805187145,3.6331039459030743,2.8118517051699996,3.906081340552791,4.268892242431765,3.6111578760467875,0.43679719704110537,0.023890411015065144,-0.18739091211494108,0.15494038562341234,0.30834606522705543,0.1829739202974227,-0.16384045885467025,-0.2626290155155907,-0.022995337602242788,0.06698716618925982,0.2620131210911862,-0.25127624220313927,-0.15815383803956595,4.0050475941334325,3.632813216584217,2.163267244292668,2.039848141276221,1.8598107913372393,1.4634391146542707,2.0207489117266833,2.3327494597511276,3.4269136628655597,3.5956039217422715,4.259711518391366,4.014924969538712,4.825274493126493,7.496347275021284,5.958275645273496,1.6883284074934775,-0.20935805164791582,-0.17239397371124363,0.007110855235464092,-0.6676654366557894,0.03170740053042059,0.13015589666331773,-0.6369812301400821,0.14678731059423725,0.20108776507139714,-0.04456375237323468,0.2459368835380966,-0.2395614987060737,1.6319590367899584,1.1056908586189662,-0.0004389662785908577,-0.006024620987767395,0.19248647942532954,0.378158781771045,-0.19442506585613703,-0.16833872023686036,-0.04729073445938023,0.5944018307452807,1.3051433000250015,1.7114246923857397,4.6919601507020525,7.087312935984894,6.514796668255374,4.495541296684291,3.3367791034806578,-0.2607069456715403,-0.3755463011065256,-0.003367375630214643,-0.0312132321283837,-0.3053262447247149,0.11062951454197723,-0.40367083434551354,0.08703039372492383,-0.03626608495737402,-0.28143329888263074,-0.38663107581218076,0.6123197409536824,-0.2900430485700072,-0.1370047411321941,0.08961348537502595,-0.8310675620926999,-0.1567097625904746,-0.32177855262683064,0.054637465872383016,-0.1587798957883803,0.15715428785394733,-0.00974338690896423,0.19027980168133735,1.385736595625303,3.3891929299570673,6.614512890907268,3.6460836112983284,3.5422642520073357,0.7424527364485152,-0.049858149231687236,-0.14502973753701465,0.04270575664523216,0.132843425555225,0.8985276216559734,-0.0012832132482350211,-0.35615123225732037,0.6157103147721614,0.6412152466772065,0.06675226221922906,-0.10880263326614684,0.08053204785062623,-0.2473021903753687,-0.10177791139859717,-0.7525150472525799,-0.6208779197373893,-0.45667530021650693,0.03675280485788905,0.6853374761856774,1.6205739487849957,0.5544622144059392,1.916070483101929,5.770981708730531,3.6963557817159898,4.930280487701729,4.191898424814418,4.494499399310985,0.44712117996075335,-0.43689502661098323,-0.030737625782622034,0.2268476625848327,-0.4192589796304078,0.20613062360616938,0.13648793158503453,-0.43563437107683023,-0.29982065240510786,-0.030576407449186604,-0.30574591751137303,0.4649812159591443,0.24555648763499538,0.3897758663363784,0.23065301853736664,-0.20720952015177982,-0.3352535469697884,-0.5334992700361689,0.8506390737897473,4.162649567134175,4.156126040465423,4.923422901047026,6.642570281398653,7.053419041488563,6.153155676753724,3.761364372127465,3.8550422986707753,2.282611421811585,-0.06486851218976691,-0.6137272838205914,-0.6073418847024803,-0.12647348819544235,0.24568096026012307,-0.5152507377533004,0.3339940776641734,-0.1826057092559415,-0.41059377993837254,-0.11835078617224898,0.13424413319076908,0.34707758695415425,-0.000844949174868076,0.45595742400027484,-0.045893581156061805,0.4713023402427221,-0.2822125331452977,-0.8228097473426588,1.2664282586583637,3.765891071887176,3.9858728639918244,5.505400242693616,7.03488411826056,6.7523317666819,4.772237077595625,4.4212343577862185,4.352868997654236,3.7062681646913873,0.6127253262489603,-0.49577229864805794,0.05075273956443069,-0.36930211409266245,0.21841587298959514,0.40069396883250785,-0.6007663197768263,-0.1528471405617707,-0.2622659455962697,0.00802224651351724,0.24154731199066254,0.2560926760582538,-0.08164252742325645,0.23750204017112875,0.24814191506310818,-0.5473801293374214,-0.7077344308773044,-0.29732200293511,0.28909926730491076,0.4066436533391104,0.28799487374969135,2.494359858670445,2.57182796479131,2.0798845459833037,-0.1949764401822864,2.518100942069588,4.075353102821735,3.772615703180241,3.8882181521024073,1.5395805692291409,0.011166255358514413,0.17819749240450883,0.5255522849116333,0.13585647900893094,0.11483755992825004,0.19642736044694772,0.25560863644606846,-0.054414299032601504,-0.0675024368423735,-0.3233935107292768,-0.05140523008699119,0.4332861829390529,0.11193826392501503,-0.3114423277064903,-0.1952743398909823,-0.11330553180647177,-0.35676739079311504,0.6119559235700576,1.4563516064747417,2.525724471948828,2.8878352207323177,0.7339817597610047,-0.24114457682190174,-0.04522480530212411,1.2074378673438826,3.6824878822369733,3.8224472122722246,4.5119035648154675,3.33233526097767,2.4623569465991095,0.01950581977570051,0.3902870160355885,-0.005474336611386299,0.1674539982805569,-0.06395178395034126,0.10148531716627207,0.31498164065435924,0.4879323437840381,-0.07274021591820826,0.1488691989820516,0.20323892820856101,-0.30817129536110577,-0.44732130008323284,-0.03139625111833644,2.0217883765362847,1.8650685897063872,2.79296948545851,3.0075851674438994,2.158350437184083,0.1649298868605129,-0.3184484240388418,0.4725117771021874,0.4510970480142836,1.5025537006745098,5.366404296638654,6.866879215740704,6.4552559834788115,1.807224609266609,-0.009537955505545176,0.23589861346355967,-0.47254046389733256,0.1675987899446685,0.3792214066831697,0.37868878112419363,-0.31844718421245943,-0.28958825093481,0.09770406194630016,-0.38480929259601215,0.13673327569107888,-0.45497507813812144,-0.19846107939672739,-0.48991520538185546,3.520223429716752,4.454663475539375,4.011532843309626,3.0078408382805275,2.877401085043413,1.6375253617454053,2.3276561820243042,2.866527455041441,5.213353913825449,5.0721213625183905,5.950459747983235,6.109003797784706,4.7657794916814,0.07412402438682626,-0.17828903791767797,0.38515388524263366,-0.09758040483964964,0.05347907137572605,-0.2608764537011995,-0.2811449731817297,-0.30591156725130275,0.1404759675679815,0.06582470338596644,-0.7593125750458396,-0.10730221818453153,0.0852858639556065,0.28121181853283067,0.05554332636384626,2.5200954083757754,5.488162578493934,7.009477546759327,6.966472390806825,6.7091210852512155,7.224268305336619,6.823306281907042,7.016742023450748,6.765122075265953,5.992812116217165,5.075499625496092,3.3671904175261282,0.8006002405054664,-0.03383707139729208,0.0068608172367948805,-0.248754944199688,0.0030969560887480485,-0.09016196546805574,0.19805362823089395,-0.13942116579314892,-0.14439112020017503,0.03647998084786247,0.2222634310277183,0.18349012462851721,-0.36289397640607324,0.15462199431660661,0.3477056868431624,-0.24691681532192772,-0.03313837328064922,3.2688524934609093,5.180412051484888,5.812220220892037,6.128269684444385,6.094284880409914,5.357067531069392,4.986138897892539,3.6716076256777246,3.2889313254393118,1.4304509714137859,1.6156111446245218,-0.5956782637931539,0.23428721914985562,0.18193925929199686,0.14345336212140103,-0.4234406914870653,0.6200518113527403,-0.24998642982765665,-0.04137294306116221,0.1750991647924648,0.44419990400607157,-0.3458828609379897,-0.37511767733809265,0.03298132556856925,0.21877073500913036,0.20214362382734546,0.416819142617185,-0.11187367875011339,0.15788087367742715,2.051347967570666,1.0925514063319648,0.9265673259177822,0.26577283141910324,0.09012206478193029,-0.5252522941991633,0.07946748764562048,-0.6245090593465836,-0.030804074767974005,-0.45594971222748426,0.4584392095743677,0.00245875568994898,0.2530608333930735,-0.4437113546872581,0.3044369385483686,-0.1424632116273501,-0.38324941005268837,-0.25630124694344464,-0.4441418141340635,0.34838104632716027,-0.26450503090372607,0.11021365069714317,-0.4529571698656196,0.16531302069455495,0.21116722547907502,-0.04899893361168552,-0.2738093465864019,0.1635836353599014,-0.41563425143599864,-0.25920401737365817,-0.019292196463919872,-0.07276495322035642,0.1436952082592593,-0.0002745179722080243,0.3847782997595963,-0.032119136753801764,0.06608790682072024,0.44262181822706864,0.12865624748200127,0.3675573305024448,-0.1093923976644586,-0.08787463553395111,-0.022582666064156848,-0.23733019947311262,0.6143189919512,-0.34119889043822427,-0.07091383392794243,-0.00751906578201908,0.24154887509810755,-0.04091502191522284,-0.05150223777352006,-0.4155688805035288,-0.0421744120947449,-0.1584749004951059,-0.25178663242800886,0.2274857708642375,0.7134300957369165,-0.03301695163629484,0.02660636578656178,0.07787889050906271,-0.010998281699941596,0.319152632181928,-0.010656809922804794,0.27263761495689853,0.22251630093777816,-0.18217773770010867,-0.22263365761913823,-0.21000334177331487,-0.5748282132056908,0.188108745230301,-0.652424389470682,-0.010369938142288232,-0.1417420496477943,-0.3049067480011943,-0.36248888127115064,0.1272020172585779,-0.22027040707376455,-0.1850469760542719,0.82729174075497,0.21989299146342203,0.4120600170676326,0.39522623352309927,0.06851918359588854,-0.12018362102827845,0.5233741691590409,-0.31042039229665513,0.26322805464734034,-0.1559978786246678,0.2915204962813279,0.26494186003933695,-0.2516048986549435,0.1966508823581344,-0.3232070007206946,-0.37007182930049637,-0.11302783563148636,-0.06252655050628564,0.05499902193612424,-0.10740770487501597,-0.07108837468617668,0.047464866984334275,-0.04065146652133539,-0.6708194042603395,0.020703753895026766,0.12107162427654464,0.13884428413040856,0.37838208130715223,0.24552111930006465,0.7102957931970804,-0.11623188985626665,0.11573179817155307,-0.3411369195037278,-0.5970549925557885,0.03755251192371201,0.533556410751189,0.228934913347643,-0.26730401780204704,-0.7341886231601874,0.48570722004430794,0.335822125456262,0.3278890651942985,0.1731711194983588,-0.05523579676620602,0.2135384451605239,0.7367389402975479,-0.19343202105322668,-0.5136699523254032,0.28364727391032063,-0.04552847886548217,-0.2841728014892394,-0.019606752108624365,0.021166851368354944,0.26089705129610724,-0.15264051001564233,-0.2318649827099389,0.4571432681120796,0.4899650070949224,-0.275251008317289,-0.3708677555014414,-0.035247088689855544,0.03205271308428881,-0.5012707399191477,-0.4343269000957054,-0.1414253389497333,0.021342536199845885,0.09470299445452254,0.44688893696941523,0.2641708422675312,0.19726826991073454,0.3077604287376249,0.2539032540205035,0.09762539719637345,0.3537460415903627,-0.1155637696776845,-0.6126048231180208,-0.6129856230932342,0.20908115734816873],[0.2753589852402195,0.234703557349171,0.4222766591186798,0.2757451765124758,-0.26867907461421636,0.10839887554242761,0.1448942198466483,-0.044444757669400065,-0.08350438810700445,0.3499062638080696,0.009163035837693095,0.5463971159545906,-0.16584538768055943,0.26062936551264093,-0.007839973446174542,0.4264895940741731,0.3666643018330078,0.13007874516047582,0.3968618915100913,-0.34321507377464333,0.0996797145035958,0.17929590017400965,-0.070452048835415,-0.24670416833203718,-0.05115228327602617,0.2788318300640191,-0.3412080773785614,0.20491134270545464,0.11714302124058082,0.09689372545097724,-0.4425388421360421,-0.5578865970920404,0.27944338843328737,-0.13182568588050017,-0.15243277611634196,0.12466263030765051,-0.6225724412199525,-0.201247795819262,-0.1816024443056847,0.09544658258759114,-0.6694082425958585,-0.37916190964477187,0.46759417616725396,0.5237032314083125,0.23189870893377582,0.4493163265676327,0.4788532626452243,0.5293568819357382,0.12523624458994964,-0.018030890172533925,-0.2784487740320941,0.17783624694725877,0.16044453266373965,0.07510521706755999,0.04184771813883603,0.15816994597770245,-0.2274343160270515,-0.05116588715641013,0.18726484493073978,0.20482551976685145,-0.08720660230757449,-0.20184478008647258,0.287251889746998,-0.22759923851547414,0.33551645588889467,0.006312233918575105,-0.44269219010953026,-0.30415617627600255,-0.3753463366592011,-0.029374907141787476,0.210795066974508,-0.10247617915293855,-0.2243013990104883,-0.8569882554845683,0.49435177773837313,0.33403501856226714,-0.006542117097226657,0.41717776773485915,-0.2015343017774676,0.237882772877698,0.2613466644983625,-0.05272064721405259,0.34094619176843943,-0.4105176181112419,0.16931241732635596,-0.12106271662260845,0.08836605763766403,-0.04789388553686966,-0.044257303863143416,-0.19107012230180984,-0.5416302338993062,-0.17502020331230056,0.4224967771346635,0.4304469258165182,-0.163406984072874,-0.34077994549725077,0.3093506543931274,-0.47552680736116476,1.6380280707480495,4.183770556304326,4.1972645663048285,3.480918578757426,0.7248908704319781,0.2983614674524595,-0.06547746726503717,0.04016791831787145,-0.18463820196757516,0.44351318893540015,-0.1640571047961913,-0.21233090194541895,-0.5927971719901477,-0.15727543609857914,-0.08438597919644292,0.20706332533208924,0.31938779658003086,-0.39632657696378715,-0.1386125941055936,0.2996824589791922,-0.2948883084868157,-0.014417883386381197,-0.10763921645801391,0.2794824893479266,-0.33159334033917237,0.2946500437830255,0.6036559633202384,3.012541310195796,4.180754670357416,3.42834842200468,4.595502631427425,4.6369013999498305,3.6376325714710287,0.1380750904186759,-0.22216340736118645,0.16110596258251664,-0.22769228140562758,-0.21378982334386998,0.14076799495648828,0.13550904629307156,-0.39488553030771933,-0.12817164162422545,0.11878815390751338,0.12163439210589605,0.02470837833553971,0.288689941209349,-0.27137650106535804,0.012602791433811461,0.6547494685136872,0.3197717063165968,-0.32562259135698957,0.1805780659089737,-0.04301085221592865,0.40621433822530734,4.015284295377507,2.5994993284167047,-5.563412929499419,-9.543743726442932,-10.768869132856448,-5.918139197604978,-0.8366293330534373,-0.17630198033763728,0.3408275828482285,-0.49098496406376396,-0.03913916031888883,0.2450077106484693,-0.20175726260102703,0.23819480967049253,0.24572129162313863,0.1691472985435838,0.08766136863783558,-0.22396943520122897,-0.1302358603471168,-0.018835002526806893,0.06874480842922617,-0.2606264615405237,0.5224829244522973,0.2148999489138977,0.20649942097553378,-0.2620483070579402,-1.8933924530558506,0.19709936601832823,0.7184524744766743,-2.7012293555124565,-10.857318858340424,-11.54739995209422,-12.084010468882298,-5.871427915503659,-10.330957107747416,-10.439278221927985,-2.122377134688321,-0.0026252986725501283,-0.5337660469900798,0.09255470939919291,-0.12183927191675016,-0.16271163736952962,-0.013148746811947054,0.023513231945279156,-0.08558412176520092,-0.2794996947104452,0.20098616312308445,0.07971307103521388,0.1251752750319554,-0.3809255184382517,-0.2971795592987406,0.07192392788618097,-0.5103201593983295,-0.11814701286021766,-3.787028114041605,-7.955184833803695,-9.680410729269521,-11.650419072458824,-11.52625051290431,-11.277300215424095,-7.540204022555207,-7.873760724687938,-11.760051974026055,-11.402541328731578,-9.81913175306169,-2.0026070149072477,0.12716059791003517,0.38678635565238334,-0.3207721302088278,0.29213105001706163,0.027662663952755656,0.04229179705947306,-0.05591905508112219,-0.30626342942400575,-0.3241777215510978,0.03069226427124258,-0.27752758332550787,0.17260242797372066,0.013947218442559445,-0.13563096121135737,-0.06822204802819101,2.8409204971726205,-2.7996335948927014,-10.013897973394723,-8.868360105638956,-9.87081145789881,-5.96849058455095,-7.785738610705867,-4.718617595237301,-11.341460719844257,-11.478324790035325,-11.396076629121712,-11.704387206000668,-7.950569485118989,-0.0696855473751273,-0.4062636692516448,0.4552238558446832,-0.3010022444480671,0.04567550435532344,0.0783253198574731,0.2771642622356534,0.21977875985954104,0.3916132659040925,-0.18243185594637149,-0.0428141447773529,-0.08801353101409909,-0.4387613347829312,-0.30883376882697966,2.6761474317552754,4.5915435138680465,-5.450095520683783,-12.036940796877397,-12.082734205384895,-8.777653011204727,-0.2142594350121437,0.10734463263216058,-0.6737326170239888,0.21109966483797313,-1.5353496848780765,-11.798950157409779,-12.194302035936119,-8.409526004138868,0.07582423065686905,0.030052655305874254,0.32133907650571936,0.2296081942901465,-0.05061867856210647,0.00015355897677682417,-0.24077188637067218,0.008518354971691261,-0.20308758168387023,-0.24194095246486957,0.11408008379275963,-0.49691904736332915,0.2495956817771091,-0.3148572188969991,4.173609783039936,4.42991962838263,-4.438142822047805,-11.276077910718339,-11.752707066254217,-9.33802414510556,-0.9028458387507385,-0.42632228466395405,-0.37461071236765386,-0.1696318500731299,-1.1389068649665979,-12.141519116208416,-11.780955932167409,-8.053044716925283,-0.14795804734937923,-0.15652107639204071,0.3842117012793341,0.056627806194794045,-0.06302025559008634,-0.7341905119044674,0.05280100642334806,0.3422600687458334,0.30434437316401264,-0.4951100424917948,-0.1956873670011554,-0.3724431806455677,0.1659736803956529,1.573387233073973,3.9660571958070108,3.5928836064393197,-2.167876077503916,-10.873350356466958,-11.558886601675978,-11.390040754287483,-4.382662841870938,-0.15874300371718406,0.08323346013179242,-0.6054911252148041,-3.6934517794198207,-11.752807247079488,-11.617003490033385,-8.718911293297493,-0.25526374243966327,0.3929406847657847,0.11123362081225091,-0.271243434335606,0.45201414793827654,-0.1225267306829855,0.17357406242578977,0.05495304462447673,-0.384332008423776,-0.31196138279203844,0.1104185975509536,-0.13127463776749937,0.367745640887325,3.4914005365026775,3.0281897039048418,1.0505463287837908,-0.4327585785637077,-3.106611139296067,-11.775071678483542,-11.751831732465885,-10.439330443120763,-3.1271147466130165,-2.7625870557262306,-8.391228507016217,-11.841351356019814,-11.899317947842139,-8.768890477765227,-3.486181819378377,0.5988661978470264,-0.18876002149686563,0.2322563714117277,0.39252032557389505,0.40906644768263967,-0.47968557447884286,0.035451766606904356,-0.5191670512084605,0.011833617722724565,0.5468703564153905,-0.10229856743430593,0.18850846180914757,0.5995371629310057,4.752585618315157,3.6162313469857934,0.501863316420111,0.3832289895167258,-0.03276600779874352,-8.97156213966294,-11.7781617911562,-12.137073444092502,-11.876069451058118,-11.827480547496311,-11.670457485989836,-11.800849302787547,-7.06722541570282,-3.7256365224991526,-0.22814866609945186,-0.3460850622820197,-0.2101128341349801,0.06792290633159567,-0.2236316802780505,-0.17522741718641813,-0.23097951908273093,-0.09198977134085537,-0.33810987565497813,-0.3111906302205476,-0.5458299748484357,-0.16978914019947194,0.41488426265768463,0.5303223616967023,4.653129191080213,2.7657763439350367,0.20875582727680997,-0.6798002189081436,-0.27707463803654325,-5.35713637378616,-11.849542487703669,-11.199245541287787,-11.486213847181546,-11.313180447545223,-7.548773246276579,-4.843457990187731,3.4593371721778317,3.468440455385178,1.9514475397747513,0.03640553607631819,0.4117221486205741,0.34777218449038383,0.061804889503901256,0.19892353600505455,0.04905063475397556,-0.4696258283047421,-0.46177671640171014,-0.15374985025609186,-0.291071321137913,-0.08099002288239651,-0.2895843136392414,1.023230371847642,4.433584312897875,3.8574238525901032,0.4791779602892713,-0.9098878127691912,-5.4157878007419775,-7.104156714962112,-11.453202662134391,-11.987014871328352,-11.488879833355856,-6.644478433221538,3.2462311525806253,3.497587514144495,3.5752556208465194,3.785797877774221,4.197980964663785,1.8593780765060353,-0.19626973195343025,0.1436237327761018,0.10404721565403412,-0.10991489907721844,0.27809744777893297,0.14372939145786495,0.586176248442941,0.004750201806070969,-0.3802124856877682,0.48427689765745413,-0.16539692176230464,0.6950236484046568,4.19930319783726,4.18441801676436,-4.917521512753533,-9.591438666227788,-11.478587637024265,-11.186618523799913,-11.826123459854161,-11.118620893258694,-11.537202634406652,-7.847997521450034,1.5321982020649734,0.8504739437431248,0.15291076956393587,0.7297449059158496,4.0522191914682235,3.000159812654738,-0.12592859004265541,-0.15499354814052801,-0.10895899434622572,0.27729923815387075,-0.0021614575556502535,0.18147316061769955,0.3271540370358489,-0.44706437244311614,0.16321726909215242,0.20355074889609023,0.27933981268334,0.1934270221773896,3.6571536759753123,-1.1613746110287226,-10.830260674412918,-11.356313504921705,-11.890510399145565,-6.19420748547557,-3.190083191284246,-11.371497536869152,-11.731061175783076,-7.639987876091226,1.1167242886928048,-0.19875846604709901,0.18892857370552577,-0.2781512798655995,3.639180996881705,3.3988326522917354,-0.05208526499234353,0.38202086740504104,-0.012022806787808038,0.032813296444978796,-0.44000080844115985,0.39290566834272106,0.3961532832843969,0.25124837756470575,-0.048380193732580484,0.5245790970239146,0.6279599575229802,0.5682500354086302,1.2471055042870844,-6.399312620339211,-5.2022064677953725,-8.11412014372276,-8.106060040251958,-0.7791434389270457,-1.6135364649483512,-9.23583373998392,-11.653738691891155,-8.639227321061128,1.5712779469781315,-0.04393114709761368,0.09248130532372656,0.8114276788362571,4.736613092928303,3.0869538730200707,0.09290719143910375,-0.19409626587904738,0.15451223430071565,-0.3648224316814378,-0.31673796575940844,-0.22020021666127942,0.07870706189486991,-0.47186930471328825,-0.008445794385680772,0.3899442603884482,0.045235138964542,-1.4538228458884088,-9.75637989062815,-7.786941895545706,-4.308653679075469,0.4146010054136793,0.0024008732579341163,-0.0548242471996788,-3.295213677075507,-11.914209384838477,-11.164631521151293,-10.660601449108128,2.3098436699926634,4.13381774221072,2.245692944606771,2.58256130427711,4.124967314530554,2.0019893978209677,1.1659415993430406,0.3424753453659507,-0.285474857185127,-0.5554258604715373,0.35881078116796494,0.1255143619399968,0.22226643641809415,0.25098441540546135,0.184491138941639,0.13489236821643352,-0.08274608118341661,-4.995665742790264,-10.974112188944492,-10.802956167775111,-0.909771186233184,4.679005682336121,3.0140764165966143,1.1143830287296395,-3.2208259366934273,-11.267584122987103,-11.951623488946355,-11.430330842580549,0.40964468103819957,3.428847010342073,4.421322312423722,4.603987897417976,4.5537671644621485,4.0299939561180835,3.8675596485241632,1.270913999910351,0.35650634416093174,-0.23568071407363356,-0.8315954716480721,-0.4274327164786492,0.24394082478610887,-0.01612750448641259,0.140232159821383,-0.18797330858248232,-0.02956414807687955,-8.419291670479303,-10.94534354350794,-11.884904958719478,-1.1619271973647816,3.0654153811522176,4.343532957936203,4.34492387571814,1.1170859996516398,-9.27998724511733,-8.958993353839423,-6.726385616590006,3.254968044192073,4.32612991860716,3.575458142947922,1.248202626997383,0.4007913834131007,0.07595164284812961,-0.6721221829300201,-0.03091128535400628,0.059058175118203216,0.40254685532204426,-0.4527935677940004,0.401784198615886,-0.7044708450330919,0.21393762716881942,-0.12139153117164181,0.09365027664658028,-0.13314360597397312,-8.532693178940432,-11.035210340885076,-11.786979012891802,-7.96536350614148,-4.507571857155797,-8.406552705217239,-2.912563459331224,-5.700211160506273,-6.813558099222735,-7.146482955048519,-0.8416975691799207,2.6174830050058864,2.289276251502337,-0.050877778962659506,-0.3527463911054155,0.007864314797413674,0.17500026193037502,0.5124841891273699,-0.03183733131330377,-0.0373296822830497,-0.3363043340731624,0.1519942712591182,0.29138780343271053,0.06625072789875996,0.16878299949184736,0.38427379964343483,0.5448816746414229,-0.2464331726933255,-3.1679470900950624,-9.960972382351038,-11.669143417230835,-11.797775032720994,-11.476884214851669,-11.557745119483663,-11.594559747270589,-11.768930041068558,-12.150331192268386,-6.699432459003399,-0.1641218870804242,0.5196233271397283,0.37266619926461075,0.0728762870321854,-0.03944650087511142,-0.09751282876229056,0.6848570373934955,-0.12676286236643472,0.11805449226080937,-0.11639983512670224,-0.05596026199019813,0.2890466480952736,-0.0829986540421638,-0.019738521534492404,0.4125127239634929,0.4290406107649734,-0.3298102027082902,-0.2933175771239375,0.2495938466936911,-2.9227191846842713,-7.888217980746015,-11.20104031168719,-11.642490925294585,-11.531844854478239,-11.699862467507204,-9.494568183076147,-5.085143449271056,-1.8538078979150143,-0.35012189301241176,0.04494754793797884,0.06303601561194247,-0.41208022398241073,-0.01762035196418532,-0.4551506303741396,0.2820231504976073,-0.012658384166364556,0.24335425616438042,0.3814524422133765,-0.2995188247434344,-0.18204289043585203,0.2884865481677469,-0.2826751294916492,-0.10255629627036328,-0.12358088502288861,0.25603501326843603,0.0969167143484885,0.31215734038453513,-0.5612481457164575,0.11549199501891441,0.09182929509943182,0.016018896130988752,-0.04845274078283124,-0.29179895870043104,-0.1217059682194564,-0.34323750203023407,0.07275840080571583,-0.18431804831846157,-0.3903889503246204,0.19568227884134198,-0.29260664212932835,-0.36506289474095255,-0.162145627385759,-0.1860183064295526,-0.27925784831759637,-0.32377412765025415,0.43166979042446196,-0.0018001566665965252,-0.12917741179388928,-0.09801305178716394,0.30358523931046655,0.7719238741750064,-0.16990655708133914,0.5012766393618594,0.1923712043064617,-0.4613075202919435,-0.16605980367544215,0.748521123837713,-0.25445156467218644,-0.2729184036319807,0.5083482062190077,0.23883044947575885,-0.01952681615208962,0.12547654139920159,-0.09650375238078782,-0.28045752566308313,0.22579143295903426,0.12190787900289968,-0.06010940537551135,0.15057175567832942,-0.38025909432354643,-0.20524878368184982,-0.36732748717012087,0.027976898927726118,0.10916928255983313,-0.1778062404394675,-0.28604282455080277,-0.022420046719402426,0.25710850447855704,-0.45128146684103265,0.008232858447555974,-0.4845623989138195,-0.045150962388854854,0.03378936060085899,0.03120836139860561,-0.02279172314909042,-0.2346994272855264,-0.23611549000970775,-0.4468192746131158,-0.041862030674845785,0.2412845722929625,0.0747234319209831,-0.4807582913293781,0.15112868508867552,0.19071050346016852,-0.5524368004254625,-0.19709736368915837,0.5237084340386869,0.008855221026911025,0.28283203640041177,-0.15434344263301517,0.1961141027299776,-0.21005689926407817,0.4143441508077349,0.2779518173913271],[0.08403120901356295,-0.16561844550715263,0.360174642250909,0.010544625187529133,-0.22697974557163533,-0.32448586556134523,-0.2256524074896305,-0.5227214000675899,0.02874748091151,0.008609517272059108,-0.06123611866237891,-0.13933690271410287,-0.17111697508395113,0.5159999321527647,0.09128876825673882,0.2861352850709399,0.4412841333075932,-0.12006417334723812,0.25378621127450296,0.16416336849834837,-0.3368330072137497,0.028687996593400544,0.09172537193410887,-0.10018331528132676,-0.02523966695990673,0.39671913035143835,0.07074916297094319,-0.039235672483623835,-0.11225001892231959,0.2086767923924057,-0.015787821069073893,-0.08820727413025559,-0.44368164206416894,0.5464380247853182,-0.1775053107577149,-0.11418866947406506,-0.0595648932142292,-0.24270785798888997,0.03467737903303285,0.5714528097668838,0.2508912845990058,-0.4339652890749266,0.388754169176382,0.34925779218455805,0.5172112833760352,0.15803005481393445,-0.04733165701286399,-0.6472197968601143,0.3209469950274546,-0.33204874477966373,-0.11734670610355386,-0.21654753192513443,0.2896713769839285,-0.35352568312175614,-0.28533608112464365,-0.16294797763874436,0.19861631721820477,-0.19991686570973777,-0.13329570277509795,0.2619324675951277,-0.04020627457788195,0.4992009421445025,0.3198459647156324,-0.2542843402109399,-0.403376811095743,0.20423375838917493,-0.13428345569424943,0.14462420720723113,0.06904041777109898,0.534634855477801,-0.15385765991383704,-0.00854650671245033,0.03622170087437882,-0.21830957360761813,0.2989313174439039,-0.4041492899956288,0.25941150603538987,-0.13187476537429105,-0.20478845061977155,-0.16001581554610272,-0.20977993350954227,0.1461397658695895,0.4095943763779526,0.10086023747842593,0.4096411035666083,-0.007591783265112895,-0.1849282006940987,-0.2341247143017371,-0.506120234424044,0.07371917973450567,-0.3825231539282795,-2.069477434695595,0.10207125438193777,0.21565766556518123,-0.5027496251335899,0.4764572284974857,-0.06723311196092646,0.6994311229501697,0.024642659587758374,0.20754562858527129,0.14082046316818142,-0.1461798897831228,0.13457584983438614,-0.13840320454577276,0.03163422174931508,0.6032942051282388,-0.3576096968558409,0.3877233416750261,0.4865030916301209,0.2355957415250477,-0.39733733147369965,-0.2747631926286121,-0.06138980807733396,0.14863960044600422,0.0849699210213011,-0.1438837653628924,-0.2879864645255299,0.0781880570123035,-2.3838135701661587,-5.800614144370087,0.12553697943500447,-0.49015769820375593,0.32530320898058973,0.10574515195168563,-0.049936401842557446,-0.27864216437065553,-0.17346096183372683,0.22650014084639997,-0.1943273771592539,-0.43540811527685547,0.5155945289781514,-0.05930278664912913,-0.5550153663795873,-0.29854844446069606,0.21065279885857646,-0.26951753337017004,-0.3399016291575492,-0.2869950990681325,-0.04483961326988764,0.016279993541706478,-0.037547181329906476,-0.049934008732969604,-0.06508149982893935,0.27883518166007576,0.1851668858108523,-0.10664361346283133,-5.813262198839246,-4.486265605041075,0.5319667701906545,-0.35357412210847916,-0.011167715392390337,0.07775871256604822,-0.17347180058063072,0.3982116423008083,-0.42470024099267434,-0.5759784825210499,-0.023875530172856527,0.15759171878155134,0.14762669728082728,0.14255210599665563,-0.47546825425767153,-0.43147791813884245,0.017772493976442667,0.05022747599719023,-0.3125008173320293,0.021156761970718994,-0.019994256664906368,0.6263112617014623,-0.015005144031091017,-0.08392947807489201,0.5933786814814352,-0.021417362499414505,0.2140109455046714,-0.2581552876089641,-6.646165353092475,-1.0708777888932217,-0.06124221968209002,0.013636574898869639,-0.017654834668995322,-0.431743131541158,-0.6002136196558112,-0.3379711177127012,-1.2179402528656946,-0.6092823381212817,-0.7221012774603928,-0.5142303330646624,0.16116909764509077,0.3695307530328851,0.601693986465929,0.13325719403960867,0.003568673729823703,-0.401834520392644,0.38936939649594526,0.3423083466709895,-0.1358334716776234,0.2751081078071743,0.05824518485056046,0.038070659248208516,-0.0386554214093561,-0.43877395578135236,-0.13245686421764155,-3.1950670271572106,-8.350681408285151,-1.3798807498140668,0.3707181193083321,-0.4992244659045877,-0.11710359869037348,-0.44626927905711805,-0.1003129644211918,-0.4700898171501444,-1.3943976837456389,-1.1758086125237712,-1.188052080161596,-1.191164507442875,-0.6990905566649503,0.4466007582183287,0.6000672032795719,0.6579801399029177,0.037803568957492775,-0.09080644977525452,-0.25686971065124353,0.3625123237877023,-0.25338014274180504,0.3432016179571991,0.5153943584200862,-0.08556449334085339,-0.16016592675114077,0.2536270465724464,0.2811561691200495,-5.3224383666519,-7.3462718654441,0.35109173347282524,-0.8945420991888631,-0.4683352637806293,-1.240224579333466,-1.3230014554579301,-0.9525635232910143,-0.3377803331169482,-0.4752975554989291,-1.1472296725734203,-1.197831153437716,-1.0205123905648423,-1.4925433776539503,-0.6509072134474327,-0.7598238190975938,0.1083451673180828,-2.395255376091382,-1.6284664701910634,0.5029936814648492,-0.5247729577446751,-0.034519594636634204,0.292907253477342,-0.5634369647522282,0.148748067165565,-0.04539327780015656,0.5112728816734338,-0.09577992180916,-6.1793536701983935,-6.3337410518502155,-1.1079112459484828,-1.0429212809382356,-1.0591930781502628,-1.30672530756333,-0.6939101425325823,-0.5148959733516412,0.012591908711085106,-0.5173131896056128,-0.34558462550867863,-0.3715397330777237,-0.717418234588229,-1.0795912849988558,-0.7801098423391282,-4.582180353247452,-7.815154678581765,-8.517449550874677,-7.4208429430873535,-4.014198574687777,0.46963135933118483,0.7152271406687758,0.4248650686153174,0.4910622045016046,-0.201314946088167,0.48809958840278317,0.1608475387476983,-0.11633035906491351,-5.885356804486104,-3.1139168575845195,-1.0812689030837603,-1.2582560371831537,-0.017820149340706436,-0.23650765663649714,0.2227463729375066,0.030938301670519117,-0.280892281916886,-0.41826422778212013,-0.04776919406532347,0.14895033253785514,-0.34810163534555316,-0.8571960315556213,-6.732704591420985,-7.576484670684122,-3.75915630694427,-1.5975360153358538,-0.1106037169218646,-8.45783928411359,-0.02913090636900717,-0.2810146017894021,-0.009328441242462376,0.2433604693345108,-0.41042606185777714,-0.13193025654694207,0.2577525892715344,0.5652794414778448,-7.049454448292122,-1.8098414075616358,-0.050219739581025796,0.1871996408320744,-0.22543569228627733,-0.006397586072458515,0.5314607388484088,0.46203797894251186,-0.2368829080490658,-0.20608113042950557,-0.16864633905011023,0.16551850104235605,-0.25143195044672817,-7.503816146142373,-8.041050502596539,-1.3282040983233343,-0.47755463665883535,-0.13895644567102536,0.27364769524201815,-7.866804155071387,-0.4601558901409503,0.18195482015301448,0.6401458507956398,0.09216868827657113,0.5491125114464119,-0.11743681876814324,-0.12043312906507486,-0.06950927222533423,-9.034391124429199,-1.7635364640840618,0.054965916400153386,0.4143823382206967,0.8473634527305427,-0.14065247722678728,0.19720393459784508,0.22718102544605795,0.061052556807820124,-0.7079449091410448,-0.4575650544105516,-0.31872858231459344,-3.578198846569748,-7.506504015868437,-1.2804023132672127,-1.0365039678315715,-0.6156276315833045,-0.17279957509876376,-2.8580974952255955,-7.274478501536533,0.17478662056884725,-0.30514739710510874,0.4040559810992667,0.404634076385475,-0.07361357053569562,-0.33478248069772787,0.29287016274749467,-0.3314478701556164,-8.572324752923846,-1.2008926173843708,0.13433270756421462,-0.4398823790966449,-0.11060015653572984,0.08777151738627834,-0.11340255771387106,-0.21473185365554454,-0.558723313815423,-0.45503458736785596,-0.4867999241111679,-0.7845307949467049,-8.979013300998103,-2.1710147976861536,-0.2121500286478129,-0.3094801269959788,0.3545769591163499,-0.25948102963951863,-4.9267459152558075,-4.018694431049392,0.24878467101270146,-0.3101840468389421,-0.07665209510317089,0.27382245781209025,-0.02976168773751714,0.6333219355191313,0.09627707996069693,-0.2161221151965083,-9.224577417487751,-1.7741962948433945,-0.654531923912328,0.05767944148962005,-0.6799514851917784,-0.21110998890459026,-0.28074106202449234,-0.17975021527025895,-0.5099731360924843,-0.41815172710477067,-0.8179459313801524,-4.6134343658901065,-6.829682662052701,-0.5791699297598556,-0.3375185518731778,-0.2785463678523591,-0.03655968186653518,-2.2241795674983313,-8.386160893863819,-1.6894827485215276,0.05428388517518229,-0.21172528183068356,-0.006520814016178572,-0.3744690118494209,-0.47185472273450835,-0.3374634803641615,-0.07223243634257245,0.19149407840734517,-6.548194607006803,-3.3649419238465956,0.2239452261744349,-0.6338060867912388,-0.2899620177567902,-0.1155644882512519,0.04692034754136132,-0.9257317335357464,0.00849488417908342,-0.28030790120067384,-0.5124553857298043,-8.065080337418141,-3.537547891959384,-0.05852498958964016,-0.13050561785628362,0.46508125959006086,-1.1066352331775429,-5.8882895946420515,-4.471581218849479,0.11294492359043704,0.35421587180511405,-0.6814202987619227,-0.2539735875948127,-0.5181341295849825,0.43587306186219593,0.015619863402522693,0.18069074472544794,-0.13173091909427906,-5.02007087133031,-7.693171689792319,-1.174792287112146,-0.06302932671796305,0.018265165244949623,-0.2068309918721315,-0.00011914317729502105,0.015683629388022452,0.11057193774926069,-0.5608389673044996,-1.2010231410733194,-8.591744017220185,-1.858700876121476,-0.12959976596360012,-0.3019097681401484,-0.877425191386993,-6.233676671428119,-4.6795231453515935,-0.5631527293236467,-0.27632568123967854,-0.2714751556675138,0.4034193652524563,-0.12114793552976941,-0.1231480916216344,0.7820665948780852,0.4047956245890133,0.13689881250628494,-0.1857309451473774,-0.8760639837170945,-8.001349322192777,-4.247964088150237,-1.8053036493669647,0.041745781020997186,0.3660751715634052,-0.24789484795106276,0.04216176948286447,-0.3821804482888994,-0.004301534559746363,-2.1082867494002144,-9.974244790473264,-1.9840914827851222,0.22144163070558834,-1.3174761869100147,-4.774925850251729,-3.2590644135326237,0.22139536553159977,-0.2588827662058467,-0.05864964467383817,-0.42951375003441195,-0.5362403419006445,-0.13020826908437128,-0.39012798052617614,-0.2842816533612724,-0.29243409851904745,0.4633600222213328,0.20272150350938678,-0.2778714317164733,-1.861941348321893,-4.773155151447599,-9.071184983830872,-6.548748218709909,-1.1508854920305267,-0.5170600233776317,-0.5061450425805994,-0.43232825487927257,-1.2101484414127968,-1.1094387448159826,-7.673747092272086,-6.768635990713577,-6.210155708531842,-5.41507570146949,-1.6887903572531946,-0.4748325772913989,-0.0746316504327495,-0.27684994543066127,-0.10404480215927375,-0.4954695648686142,-0.5845823113460393,0.02705257410341652,0.13495894234964897,0.13202209109575766,0.11936590849397372,-0.045217307062815605,0.26151436864204736,0.38977068776800233,-0.41651058262014384,-0.1054868100356904,-0.3883969084099522,-3.932773076622183,-8.543176123951588,-7.537858766003839,-7.8756671633922695,-9.21695754840299,-9.171962121600949,-5.9982388074047925,-5.904968923483587,-4.718775573418696,-1.8333440728079915,0.061449034563016584,-0.4746856902861814,0.3878866379534197,0.08949677184922171,-0.33378760115334016,-0.3279974107111623,0.0833222707302296,0.11271416803063394,0.5518381452543123,0.43452283745370046,0.08903794630056047,-0.2250187765694002,0.013724345275073279,-0.1389248100240005,-0.07447205165315439,-0.18798942058307286,-0.23586054733760553,0.2800839614328541,0.26606682096141615,-1.094341453155029,-1.3016763789004955,-1.2328553814230796,-3.177154820656974,-1.6465045540632652,-1.3895322063022424,-0.2730887036170824,0.21476353293156014,-0.22959270145179903,0.08917646715805348,0.1956881701827996,-0.03832772019691394,-0.36900228814395397,0.4052288788400378,0.015328700794947608,0.1340828824485682,0.2998374752972608,0.19627578865850293,0.02646366935286773,-0.013180870295156799,0.030144590116216258,0.36645229681865255,0.17518571232044267,-0.1304774340602889,-0.3892471646938457,-0.2657355871682221,0.49617287372451313,-0.6174726948539195,0.32429615721184746,-0.8554020840944272,-0.6045465053372254,-0.7556219968415225,-0.5096976049601392,-0.3917691054273177,-0.32272634385974763,-0.5314888846836694,-0.6783166417111965,-0.10539813144013045,-0.4442258340074059,0.29472886420047795,-0.11371878524262792,0.2731637314790597,-0.30288126031252594,0.3558036233711801,0.0229656374854372,0.07337571062327167,0.06043099459491752,0.18720257855273126,-0.09434132936233328,-0.32141125158396583,-0.06264288470917581,-0.5966150528727631,-0.28353284892540076,0.16142186058076052,-0.07352212218219295,-0.05497256960791394,-0.4161441346810737,-0.916383843351845,-1.0533940001251105,-0.7250011671444223,-0.5269728153050002,-0.49051866827366586,0.020084458904201775,-0.2792527929908164,-0.1950153272239786,-0.015781103705015884,0.3678759243283659,-0.227320301904046,0.2853466227851249,0.05422675224095086,-0.08422907888415868,-0.07320290758351805,0.017599638179324473,0.0701320039258489,0.013162091053070507,0.029831408414311866,0.006852950508770356,-0.20884642076912435,0.052789992779594265,0.07667571575912036,0.012559428850751925,0.18044153996195939,-0.18665961235733836,-0.042309297725836144,-0.6652905892265679,-0.9900491326211287,-1.07370241104694,-0.9129045098150899,0.33471334447652445,-0.2693348902800262,0.07963116390664589,0.5808942792925114,-0.11331608524026361,0.009726935523879685,0.17820994575060523,-0.567084503212798,-0.026274573177330535,0.24230280948799773,0.5027694420882176,-0.24090153727267602,0.17750760283682948,-0.22383968042844915,-0.06540166150988574,0.13346089431186908,-0.15831613726796062,-0.1843097971130946,0.099534307001193,0.44666724384129786,0.36858952468538614,0.41102589281116275,-0.3594856715846909,-0.15111233825430448,-1.3114838034901926,-0.77852538118764,-1.0130196223837822,-0.7341881011191669,-0.45637513601183155,-0.09923553677271507,0.3240739749405719,0.144179093828519,0.17054569666159697,-0.2596726719354271,-0.03260081840107604,0.07095274555882654,0.07515364160549029,0.02080479456175563,-0.1403642023754897,-0.5280908014973582,0.28829638020691883,0.2814987705789334,0.41134713436921955,0.2429577378948923,0.02546289983988878,-0.21179980792380462,-0.04996781318045157,-0.2407000519948112,-0.467882902374663,0.295034990954979,0.12960416708089356,-0.8783367890139581,-1.5146676954732596,-1.1461402126788212,-0.9665397078779208,-0.9458557753188563,-0.18506162567225515,-0.5406632748178228,0.029941977786539002,-0.42657034566394825,0.011138181117720587,0.022466507345297593,0.37264594023449127,0.12118465135545252,0.129087170491326,0.41952526779284166,0.3285543494300422,0.2753847630658579,-0.4085869555441013,0.08582870419621413,0.3645504134682278,-0.0559323896785619,-0.3236048443606304,-0.17279475620072152,0.2001142450488723,0.1869530828474444,0.2842935684505712,-0.2879471187679373,-0.042663243805116345,0.049251833773632216,-0.513504705305891,-0.4387361853269004,-0.43537765606974466,0.13108910301850102,0.17640070488082346,-0.5585416321406265,0.2315329118491702,0.32823657199574796,-0.03126451010597306,-0.026863808340522044,-0.16934252629665505,0.26216102508589456,0.11887451105815341,0.36277021245378205,-0.14701454131784195,0.12632316077926084,0.5349062006071954,-0.2910514840418531,-0.05073502110485781,0.14143428043639303,-0.1656353202864992,0.5120818266623764,-0.42275101911888513,-0.21369828778169672,0.5922314295428586,0.47267679414921937,0.14423435493557396,0.048022450929992105,0.38082596930329865,-0.6567827513338059,-0.0895483908500623,0.5637541274430591,-0.028187221865662943,0.2186616033527938,-0.008739962688938258,0.1616497995213825,-0.200618890123442,-0.07293429066006818,-0.18564638350972756,0.3821986419586375,0.35101397972157933,-0.2531540148712548,-0.4069285743244801,-0.2785546048182025,0.04088429141225916,0.03706953709374439],[0.04507700705115519,-0.20878985479262852,0.3847183454879871,-0.11401721509589496,-0.3726910628656005,-0.13732865510064796,0.2879370451834581,0.23568083526038178,0.02033979152032367,-0.017723240160317982,-0.15810394056797367,-0.33864337396122657,0.4852606785381155,-0.23091848048162758,-0.056783975907494844,0.8239986672276367,0.2764670891774289,-0.1219760436627918,-0.7631623621194488,-0.2112841398848275,0.2544316581616791,0.36380618586367086,0.4507380347701663,-0.15340746266314484,0.10504157806643778,0.029842744805239158,0.03771867825376132,0.16676125833882618,-0.3530595487983711,0.1667298261321412,-0.2213020629246209,0.1576730612152585,-0.20620733244521686,0.0006081086449146456,-0.06590003935161831,0.08197123214214244,-0.25425274267366527,-0.5512435797408299,0.17089544251656455,0.10681602091240638,-0.13167287468695787,0.13193655944900387,0.053930498070769634,0.2509791690138374,0.40431822358307445,0.18675642620262473,-0.3221929730547264,0.5901240286035836,0.30926385327191863,0.062008057831197505,-0.05018737679073046,-0.1402078545889616,-0.20711928282207578,-0.20054731942246126,-0.005992346693600575,0.04956444129501253,-0.37560442902233904,0.15144225940577974,-0.08917589609942514,-0.5053063588242018,0.07858674155457385,0.1352880398700963,0.04422776753744151,-0.1962266493874711,0.3292317583140895,0.38977288273410904,-0.1696091312926635,-0.004915925798039539,-0.5441242315209294,0.07042717021558872,-0.2716276211310391,-0.05527201165377935,-0.7122287383938778,0.15134399181132524,0.4791158086050866,-0.47161555015932993,-0.5243979379663983,0.052480171619661925,-0.4617730481160237,-0.11118684913487786,0.1824249225600538,0.37949409969269,-0.06223195428572978,0.13515490542379094,-0.06436338579621623,0.014759694061343365,0.1066519471225196,0.454975688827781,-0.1927976627895235,0.16535395231902197,0.06480677659186676,-0.20929905806425836,-0.005445966032572202,-0.30637413418535275,0.16002753170436224,0.2810336918624238,0.2180672074645631,0.06599053559611731,0.07947256820213332,0.8229963205170682,0.03513445219536987,0.20808561245088775,-0.09750140096917945,-0.01850659288177045,0.0015135405327277862,-0.3697415864201757,0.2934729417250982,0.1985394186063429,0.18694465102478885,-0.33342332628977883,-0.40235372740383596,-0.5020906948374773,-0.07611252507746255,0.23449220620191188,-0.04343849988857962,-0.08667859710232523,0.25033872689757225,0.14151019486520072,-0.3567321544898401,0.1629403068056488,-0.23140553335894798,0.09656704854540478,0.5104073980431716,-0.10764583508231652,0.0066908907113341146,-0.029499890606546297,-0.15250127781569578,0.7326753648055664,1.9428860736954139,2.940847176988116,1.1797647161497133,-0.6105233843063491,-8.966516138917479,-5.6807160100312455,0.40815944529200515,0.06892079989849802,0.07910922992491597,-0.3085133426206066,0.22592251177986084,0.4860778655695033,0.04384623064586443,0.26185768197001624,-0.20944659105737776,0.10385569999951583,0.4052350735480458,-0.4613160020042647,-0.1160833069761364,0.09207891331360063,-0.046323080207510525,-0.4073530928103244,-0.07557666975279137,0.18467203531371051,-0.26321178075391116,-0.253342776818707,0.24801068908713952,0.5088166992044635,3.307608494702296,3.3367225012881843,1.8111018281780376,-2.1730618086898845,-9.341353057485014,-3.917012249835284,0.5795317300787235,-0.18688768950075346,-0.0002650081433247034,-0.5627460350691977,-0.4821243191412986,-0.4914843915545635,-0.38486641582140135,-0.07946807353037202,-0.12146191609395524,-0.21831590648815932,-0.450288705600159,0.06801764453319521,-0.3732560344431175,0.2958820879462646,-0.020566168423367052,0.08812037189405622,0.31990095672665947,-0.4581212243632765,0.7907744790555771,5.423701675612598,8.438131368558853,13.866754439169828,15.768958331751591,11.094126120834055,0.7304262508504252,-7.643583550986558,-9.091370973942468,-2.6940166626525097,0.14820178378941573,-0.23513955453252258,-0.16612860204062152,0.11791173621322171,0.44483371360847423,0.13104966542395222,-0.04231529412945326,-0.03230435447897556,0.11614089770422392,-0.2516237976379302,0.10394774785462002,-0.2667158565230738,-0.23768201446442747,-0.08206770385912372,0.13057143494475917,0.11956644702264321,-0.5561911833192583,0.7888748890487166,7.708413218157645,12.26299667005335,9.105741978026133,7.807885756465753,9.161917779799428,14.37581125220239,4.254344286098229,-9.280422416693796,-8.798031426239735,-0.17072011100666235,-0.2771757396230309,-0.3075625401746024,0.4200253171021977,-0.03270093314393424,-0.6026660281560758,0.11863693246978274,-0.16304538812181188,0.10349388378177177,-0.3766337075889822,-0.07828085029015758,0.32775729326422715,-0.701635618593617,0.03377110782144551,0.21784967840155256,-0.10174468058641184,-0.08213048060414185,1.6288873335881466,10.247062903789159,11.142645398687563,5.334191293174159,0.6479592651173374,3.242117936407691,3.04727955495499,11.059877826870501,7.0091718146280275,-8.95710669254337,-2.9156350261536987,-0.45840820171357055,0.31877633344324485,0.4686434183374766,0.23903850893888562,0.04371892601567223,-0.14573726955166558,0.23345933058714705,0.05401870557111185,-0.47495064109744134,0.013175772367867683,0.024131947692544453,0.46453770002855793,-0.20248069310459835,0.3428681451532263,-0.24692297360767027,-0.21096569954804117,-0.06396861142591412,9.365865796454703,10.24861984421048,3.166128405530971,0.43201865806881534,1.4998863793389896,3.0983786604078416,3.4025321586608186,5.0427521794651495,4.306666486357488,-7.8592237901157675,-0.13926089546949486,0.2562860877264401,-0.05182613617323433,-0.22314888400345045,0.21901416348634353,0.07249508676580743,0.2854128519503793,0.32340382210761454,-0.3150935338555911,-0.04795159097145299,0.3059304140034821,0.12935864554657614,-0.10246395157913922,-0.14950498115161573,0.09694030410755854,0.015944649472594007,0.4050744754516983,2.867752394268363,12.771242414562021,6.387482442899094,-0.4099887049371961,0.06527773622456197,3.009391510671004,2.965265722007548,2.656619679081244,-0.18106439123982906,-2.158194341426547,-5.685630418022971,0.3242617926298567,0.4513483892577317,0.17489403578389834,-0.10230088801067101,-0.26149873184282024,0.5051902199220168,-0.11152328121578414,-0.019552826962911052,-0.2519968198438694,-0.14649342942742777,-0.1500934092696211,0.14485435049955211,-0.14048345229284503,0.4992128769854195,-0.20093109486550204,0.4249664534870184,0.40153749382619375,8.39783683005157,10.300927379265678,-2.0394445814187003,-6.3866415280450894,0.19814330535751934,2.921568808250836,2.4369387247471983,1.029491544215302,3.0407635535854514,1.7654449834818455,-0.5540848948743589,0.20414116451859463,-0.03468366623725916,-0.28519033165333846,-0.4291787283880295,-0.3812497399754202,0.1687408668645027,-0.24790785354524966,0.032484603065695394,-0.13039080055622793,0.3462363581177188,0.4506842083974702,-0.09889884344481217,-0.08773007266878326,-0.011546298507727952,0.223849413595105,-0.7394954670506743,0.2547223166865318,8.695441628793635,1.6715548068491035,-10.029232578530104,-3.229999100930846,2.421972607889208,2.7630947156946646,2.7883490862064977,3.2091682148560956,1.572010273234836,-0.2985817924310745,-0.06457542844990415,0.7665270288292871,-0.046011750640030935,-0.456136200857641,-0.07317927841583075,0.59977202452533,0.15523235191244605,0.25022331135239195,-0.2662025196096087,-0.1745675450144788,0.05757292333676284,-0.17675786473064461,-0.12145933865831654,-0.36685990619858966,0.39341785354345826,-0.002959423190242389,-0.7939018122668554,1.3232819421057038,5.275784152310269,-4.606160568901316,-6.469233204950573,-0.9915087689618148,3.2192325046039345,2.13306888368239,-1.9787502699806447,2.6681649795188815,4.149866099522994,2.4743937473134667,0.0005338388898745587,0.38677695049244853,0.5792835181642673,-0.21510668649746462,-0.17293997617464202,-0.06234016882885496,-0.16712526338147204,-0.26313655763304966,0.049355391268536525,0.25461777611071745,0.5504477489537474,0.2702368368003262,-0.21841975731513977,0.07436554576692575,-0.21018475480226786,-0.4557463336258425,-0.2968041585435235,0.637695853945367,4.445666898023756,-3.6022664214290367,-7.356593709159576,-3.0389424527849105,2.1043830085621296,2.6326015550657353,-3.2517447418748686,2.7371308402953414,4.585842257429057,1.1763402602664417,-0.04569798750022139,0.18155649964725956,-0.20508674869479282,0.3211000900613266,-0.3862825279135759,0.0384041120651015,0.28540744971440457,0.4857693880580483,-0.32538287493391405,-0.17864294332521774,-0.021797522716249546,-0.7296186410047936,-0.1342266434255143,0.377484344248869,0.2959987925193658,-0.3604222815817948,-0.8290906501665096,-6.872167699488742,2.9126298155512025,-2.9943816593962427,-10.08045806762016,-8.52187022968764,-4.979731627298865,-2.090355509722581,2.632619295286932,3.1750170607860033,0.18768034192866198,-0.049323002026330214,0.5453615116992708,0.44749457432672546,-0.0671899764916827,-0.2064784465007267,-0.000698174721816304,0.1256852495840758,-0.2842527618141893,-0.3046689521418465,-0.1403302966629862,0.09902261985018154,-0.2733640816436681,-0.01579546905117099,0.5516253430596707,0.35533971903256145,-0.06593093947026185,-0.448862567371427,-1.390745835932578,-9.440193600944497,0.1619262055721313,4.363497217496874,-4.104821569548101,-4.408297573824957,-5.416832613084818,3.743274154894258,3.8990037678412595,1.3371640611440734,-3.53779898989159,-3.1326307949448506,-0.3133794237579497,0.08339530713167127,0.24435010473639154,-0.516005149533304,-0.2609786584597504,0.11182473367842359,-0.028959489261450116,0.0470189997110341,-0.05281819877727262,0.10911393372222111,0.14204852279381147,0.17616716719751507,-0.1783393331738786,0.28219702135099645,-0.33990246052572626,-0.3261827716459802,-0.10596898977471238,-4.1924974025802,5.454852523432887,13.37781549863157,10.354856098255121,12.421885600932953,10.876162061698562,4.860264975379313,4.050943510219975,-2.6232250295699306,-8.655069637563145,-5.509572602241462,0.31703528655604274,0.9189358009888802,0.47898694053913915,-0.4004423743484436,0.010195949908348503,0.20869808032680182,0.3666503452770423,-0.006362307698500436,-0.4972506461785892,0.19427747952381613,-0.3903266745706523,-0.2163248507667617,0.2496782339999257,-0.46622232650343437,0.48217792971104145,-0.14873362031482268,0.6514494339929435,0.8710869550491069,0.5191522760289594,8.753758683006382,14.95161871134228,12.602640457509473,1.164121480430652,-1.5039550786734683,9.195981406172827,1.1276808340456566,0.40580100959956,0.0335674381589555,0.5455687529860788,0.3346292955315767,-0.010287977682385197,-0.31636817961862684,-0.16157872110560445,-0.5733305304167361,-0.1387820841468128,-0.45300335680845777,-0.4331223240554398,-0.39347134022349844,-0.5359014021455202,-0.48458007182759044,0.3033899232332994,-0.8349179448999844,0.18881794685755537,-0.016974393379968394,0.1173002897844809,0.7164998776377269,0.5822665641676391,0.5183567334225369,3.5508718224864992,-2.173349744436735,-5.8746442433638375,3.887508758653742,12.20621202488116,1.1854614889497521,0.6002774361490733,-0.17434155941416737,-0.025428943412460922,-0.8681533654783293,-0.6309850282142702,-0.12205441468930887,0.16670279751575479,-0.25298910060852653,0.3171965144742419,0.0522866276396724,0.3492955459554422,0.04826047852633544,0.20490554637326916,0.4314906449447611,-0.3203370657338775,0.5536700936206147,-0.5391138852369964,-0.2080766080676409,-0.6508936633547151,0.4866394265461861,0.0307624795048045,0.4864124354252018,2.209646484655589,-3.9626962374429207,-4.177266388508258,6.393423039992968,10.446750130703812,0.4118984836939392,0.8726009844664577,0.8113895622789544,-0.3668184116178064,-0.028326209758460168,-0.26368226831630864,-0.33933182079744195,-0.4006223292212937,-0.42669957995461294,0.14834102925662626,0.09625642850954758,0.3873198864402282,-0.05256246007168139,-0.2633073049331507,-0.23495407838219218,0.40189546178977076,-0.35777329858508056,-0.2125918782297041,-0.24066976224483436,-0.45072703235885814,-0.646045087422454,0.22940097187360736,-0.17438162466256596,-1.6451450715073443,-6.348635663664465,-3.5492920973497633,10.504513118898094,6.349488808314213,0.3192278531623355,0.35757577795056006,-0.3501803160314838,-0.4459497304343075,-0.5337978276294626,-0.23459711054078541,0.15876324372932166,0.19579902765764487,0.24320120560053213,0.6619778829430414,0.09722319168842378,0.08582911073754398,0.06848534337417633,-0.20557067094766404,-0.25713933370380254,0.03702840381389483,0.03408974091319333,0.04799461447605033,0.2267109715291022,-0.4257678915933996,-0.4496105864132069,-0.43951376732256797,0.29584362070518383,-3.911073274085563,-7.336776772434883,4.648801004116286,10.234759814137876,2.8145614199289613,0.060191607190624226,0.029089632049730745,0.19537112968503442,-0.42723979206962887,0.3386930396310915,0.013978495598823661,0.3298223877497377,-0.13782681089754603,0.21002943133126378,0.12862035727322296,-0.6801028531482112,-0.31357310168484664,-0.4024307035356136,0.32606478998839433,0.16470343831330272,-0.19355336020358618,0.273794542674787,-0.4537917034238171,0.014236075664584947,0.09929602255949044,0.5329730419865575,0.346562210491547,-0.011440088816994574,-4.1643395578228,-5.3053321144580075,12.844471477695539,12.13254976136579,-0.25089729500312974,0.04825198223497998,-0.31688163869884667,0.22836114732232357,0.4770384776241922,-0.4474856694111464,-0.16122697801299662,-0.18859276133044264,-0.04182424899189069,0.21738026717757833,-0.23196384435719158,-0.030403959853774754,0.469543378949818,-0.3332423896788192,0.31077101743415936,0.033629562295370785,0.012530766883595001,-0.019043288764014052,0.22455276731153637,-0.24437967540539296,0.278285225506934,-0.1744005471656987,-0.16124508093678294,0.21906882405060796,-0.0862687077271905,0.07145282581886635,12.331802110580433,9.454964976919992,0.14501411990314894,0.0092430919273219,-0.03878577018062124,-0.250951790550984,0.039995571378494674,0.2123228647775148,-0.42283642044259795,0.20741305490838924,0.08398263521310412,-0.3301921853409383,-0.11201708652252151,-0.20789291784811365,-0.4100391246892862,-0.24579307084781596,-0.4093518134593389,-0.1779232227647896,0.06221710415216841,0.021925450715044814,0.2658800951309268,0.18399092319445998,0.3505942765326555,-0.0002498754180216556,0.146388399261534,0.05572166173607107,-0.4076311932839102,0.47025642291912473,9.48820945602051,2.0802236366031632,0.16489221334625273,0.4458246179368587,-0.012537166425167334,-0.23443682558740297,-0.22546061279560503,-0.1560876882717456,0.20393367103283372,-0.23505883794410062,0.5545625589458589,-0.09970727358961795,-0.013462688609453016,0.06740797199079476,-0.49312046520938674,0.07331432173410468,0.2407750374210592,-0.3671895495335208,0.11865951397290359,-0.10360727892579835,0.0726515044682555,0.2019161390714243,-0.5050556121366151,0.4621701595865666,0.19166287825104425,0.5134807430369379,0.04193120725142244,-0.03689894684909588,-0.286520625903933,0.20343716360334996,-0.2123202448908415,0.49236571970504023,-0.03210729234935425,-0.5033147267041129,0.21825404742991764,0.09822907107920148,-0.10604431323727037,-0.5493019594460276,0.17624254337024067,-0.282470661270527,0.03318035767059077,-0.3722432092871184,-0.23608482753776872,-0.019218517846999628,-0.8296678565874682,0.20449841127223725,0.07450558955606401,-0.14192241348764417,-0.3421590312417701,0.2360107645809544,-0.0749664563607376,0.27542214109178154,-0.2076552356343097,-0.5279331988799683,-0.2289063116492905,-0.044375106635172246,0.24416238246297567,-0.2928727203054131,-0.3087180881693291,-0.029056400102534158,0.2575465469422872,-0.505440798150914,0.17929709290437723,-0.001976220856592048,-0.1758821690210881,0.23661034563838235,0.010500102154192975,0.23117338277512378,0.14152873017942819,0.18173839307717424,-0.24995255024296847],[-0.02137184814480647,-0.10847221955156983,0.14312971298867858,-0.16779640687367767,-0.2823842376353596,0.40667053666244046,-0.03545382290093657,-0.027917172965573278,0.3789312181071885,0.3365389863733329,0.08806860332850347,0.16506262794087206,0.006350090458884405,-0.33190230678338084,-0.19578431009451605,-0.07780279901536408,0.1641899648118106,0.07134972804466277,0.4134431034359023,0.02354902670812606,-0.3005080374841307,-0.1621655697093747,-0.20053324079903412,0.10518469710860637,0.06086079596405544,0.21390264202628667,0.5293405943300783,-0.40175118474179666,-0.079230411148099,-0.4355165081499621,0.028348134184462415,0.4557101282677515,-0.4963424248505567,0.012967510643888652,0.1717920040025496,0.1353437487462356,0.2111660077722635,-0.10255811903631076,-0.05593883208984263,-0.32653120195696494,-0.0091232394986408,-0.1535251748981237,0.016402108978152308,0.24802837027847882,-0.02780772596412945,0.6138690316129358,-0.04593367285693592,0.012579510705430147,-0.02136286535812948,0.006914843738742821,0.4039901878819463,0.2625106584838869,-0.3025499355900913,0.6807633270424265,0.053860063523084006,-0.5678422087909216,-0.11675638225302554,0.1251051870472891,0.058789215955967006,-0.42341892406471715,-0.427375436289379,-0.14532096412350298,0.4716516445747951,0.4991175976649743,-0.414077632645375,-0.28656919163190275,-0.3169964712556567,0.011080671188766794,-0.06329633923411174,0.4703503968098147,-0.10980088366289825,0.05304324220026155,-0.023830415048461118,0.4621706019349935,0.31040921204436067,0.2635017534452444,0.3526193743384871,-0.5623713388318129,0.5126077387273402,-0.2484975015313599,-0.059680460974126964,-0.7553910107539146,0.2341201129703078,-0.07484389522476662,0.071108505941752,0.01913337370064136,0.1859807463898184,-0.4301622845092641,-0.017189008727526073,-0.21570624273119104,0.06463522947343259,-0.20829386281222176,0.37760488422822935,-0.08954327825858865,0.32930476931102837,0.10494684829117107,0.46024301020619557,-0.13245111273521729,0.20322349693402877,0.31821104004129996,-0.20237621387060792,-0.39145118299945103,0.44268368224691657,0.5417076756800374,0.015077371076303497,0.17759570740534486,-0.22356686849597188,0.6929976993023822,-0.18714035634859516,0.3654606340473704,0.5232466137043406,-0.6556540166577585,-0.14056409153823776,0.4486915321663434,-0.20056786054968434,0.250993970871306,-0.1598849340309367,-0.1263135937836661,0.1348759090327011,0.41721663963680794,-0.37000780485489926,-0.7872200673436698,0.290735831830746,0.4759560722771625,0.027010373698843317,0.4211663057137362,-0.11995516853511576,0.41784217708023796,0.10506217728305853,-0.25705292989008377,-0.462141413248093,0.10473446145286092,0.21592273872324294,0.33193206714661405,0.008430231351806261,0.5259361242202455,0.009097942453457297,-0.41501972355438416,-0.0720407926691764,-0.21213937184926634,-0.11664481812903116,0.21755407930945272,-0.43465161166811905,-0.5127747717906347,-0.3485137875586258,-0.2042790064036072,0.48326435272651636,-0.5679946312372735,0.07499097419178284,-0.7964524612931934,-0.17533513841393802,-0.3031464601852404,-0.28785039027074866,-0.32441307202916286,-0.10672897761080892,0.3193562453496661,-0.26758552475465014,-0.5504772373759178,-0.39262744869128474,-0.7167460734771129,-0.3015388209238461,-0.3396986399843963,-0.8085654218873032,0.10491187499021853,0.3796766289200265,0.659072481567089,0.23418004420759111,0.0735671731020516,-0.4476157082732111,-0.28396529024910355,-0.018203361530076678,0.1392321811802169,0.2818172340036625,-0.30884088459312387,0.06389098415219807,-0.07202028810935059,-0.2463695329714051,0.3575572211151018,0.17633197188371838,-0.025220633661998025,0.1425506825594302,-0.17329518881830627,0.06420050975649973,-0.05940718056334621,-0.07492281797155623,-0.6598106583743684,-1.0727984334427911,-0.997488084331974,-0.35994131867240453,-0.7782676271528737,-0.615227361509147,-0.34540245560802607,0.17460792941310882,0.08735342552112813,0.27288905191953483,0.04921043892687463,0.2873365283945106,-0.31280315929140035,-0.18796602893881867,-0.18733207619644537,0.2649806154185659,-0.3336238139184671,-0.4512859526474816,-0.46506172729174106,-1.2466747177498436,-1.6161299646439065,-1.7616560366510199,-2.1589600083633234,-1.7673171587234555,-1.6314570569701687,-1.38397518119992,-1.218406983678685,-0.3910521672147088,0.13078286970144312,-0.3752124220006411,-1.0642186492468206,-1.1219258636958946,-0.7692923818153323,-0.1353078019536078,0.08037935469627822,-0.264402816474192,0.2031492759073627,-0.23459178554269602,0.47755128183629525,0.25811984256087717,-0.29805002453384816,-0.22593398759791664,-0.25598613412220195,-0.2721693019933875,-2.1390538608467025,-2.6530065837716554,-3.808448926093847,-2.894767754905195,-3.223737252590407,-2.7514566322482557,-2.893733013862672,-3.88059246221014,-2.914641633661602,-3.2214655020459366,-3.394006079987877,-3.9549783188610155,-2.3462214630368314,-0.21809449576866569,-0.8351905110212436,-0.8813240536144599,-0.1487963470706703,0.01269662214132181,-0.18583361580321237,0.1805606585140649,-0.6837660131027675,-0.4825343608195617,-0.006310663665805155,0.07947970885226993,-0.6368600921943173,-0.16779390107355432,0.4247707686220495,0.07393088125907137,-2.079860545670792,-2.81837404376111,-2.3786358166050943,-2.7810531081173426,-2.389627482119295,-2.4831377771492162,-2.7727736173510555,-3.345327696094599,-2.936052542241164,-1.881126935435055,-2.229357323227746,-3.825206104032245,-3.436809866662976,-0.9631942368347473,-0.7535440626156755,-0.8454260221217871,-0.17631638495412535,-0.06686853569450485,-0.398179022855848,0.3423101208527034,-0.11060124018264395,0.02764271176399949,0.004551138709950331,-0.046883743595595134,0.17248235332462902,0.00019554967729512596,0.06421364413940131,-0.28027675421293313,-0.40656471417803985,-0.36851356691154774,0.08669265517989795,0.173885579506922,0.10793448936186956,-0.1585652936782077,-1.1677974661945059,-1.2365406966984738,-0.061203859707803086,-0.1643767691620176,0.059254817013510756,-3.1147334123854344,-3.8344980400480715,-2.1443416832907642,-0.6549862273855527,-0.5751520061501221,0.05960093798703725,-0.07694398660591881,0.23032007877781813,0.10566739084742913,-0.04530436395735302,-0.22884689342095452,0.10015119075469844,-0.504017752539992,-0.6448174352162312,-0.5317573982012809,0.14426819676381317,-0.08942225562951162,-0.6099268768197773,-0.11536213392025911,0.009895983179747835,0.2419562637569801,-0.39498846282143696,-0.6770188205146999,-0.9099896975974826,-0.566964399613868,0.42917476995902554,0.15305724131710324,-0.4003508065262209,-3.716149754859393,-3.6766008569948543,-1.4704112410201908,-0.23384124231785902,-0.3947676630372723,0.512426357067323,-0.4232277009245544,-0.6101161738172072,-0.04334683319691854,-0.1967357880587484,-0.2646197768848674,-0.1553472529436436,-0.026770279485296367,-0.2253057500077925,0.3937565607904402,0.44245597566733874,0.1016707485294625,-0.23615890428958927,0.20948954421020777,-0.1508954684995289,-0.2702449026229963,-0.20683476737545792,-0.5260328199559909,-0.9964110942467299,-0.5786870712452176,-0.03041017054825074,-0.5722964126037517,-0.6469496830029342,-3.612484284635888,-3.91837576704799,-1.3874731772356503,-0.4125926697026726,0.26300773754243945,-0.12655531793613745,0.24312052624769237,0.18385257269844657,-0.02387476012831303,-0.3467241040358043,-0.5742690404603226,-0.07771279700157446,-0.14398575618846282,-0.04464973258014321,-0.05227171587345611,0.32654234620962497,-0.44793294802568834,0.20631355884106423,-0.3561534750490561,-0.8307758354586305,-0.6078141171744758,-1.0408895518720955,-0.6044813908013176,-0.04449786551249936,-0.32815957758644587,0.27069377979759396,-0.2759815263987966,-1.6006225717178446,-2.630880189808,-3.6058246885789913,-1.940448742608952,-0.36568367762584253,-0.11928560983884857,0.47132972553974745,-0.24186865597446972,-0.21432323949828458,-0.11208051698077919,0.3271321662553158,-0.11711586309724425,-0.17014103973134312,-0.2489907013542739,0.15168506652609737,-0.4344560856413476,-0.21350964291923918,-0.15926306536314905,0.1362513731852315,-0.3534761569483824,-0.5885048911218804,-0.45550031964381243,-1.0357726624842405,-0.3869200601489427,-0.278674586594647,-1.1057570761166986,-0.6781296185934884,-1.5831108918822618,-2.5660734864801147,-4.172502827736568,-3.4055122941281484,-0.9780426594258009,-0.7685403008708834,-1.154557161063492,-1.0857812680328744,-1.2363407586788249,-0.31274064944629143,-0.937970501363188,0.3942230702120454,0.244769204524988,0.1063535226458221,-0.40682665702623816,0.11283733559491865,-0.22452413533816062,0.31188900008287657,0.28135559589738424,0.1768221950202333,-0.32049646038961327,-0.5913628110430514,-0.25215023156779837,-1.1401239110806394,-0.45090251329247066,-0.8039370494087672,-1.2772208296781906,-1.658119121653704,-1.879034168807907,-4.103898821580868,-3.284542699121192,-3.6435303203790883,-3.723890094650676,-2.825103930863264,-3.2362594754275538,-3.1243194686910716,-2.9761802778034125,-2.2160081967355203,-1.172140604859606,-0.006181573314026023,0.16552295583477664,0.24105416117165718,0.17839055688075914,-0.4188172390364538,-0.19506588680443748,-0.322459245306146,0.048084419845948974,-0.14304806435713774,0.08359811877929404,0.061694333933661014,-0.9445748245669693,-1.5623248741742741,-2.290285263757948,-2.614937981493156,-3.8465198579127353,-2.503011672494792,-3.2633152744883858,-3.669362697891639,-3.882674757344562,-4.071430303628402,-2.810702397951255,-2.504746191750373,-1.9547029453733011,-0.9639705974607721,-0.4482261955147763,-0.2628586211616098,0.10907639357350496,0.11633135801122849,0.06524209330689376,-0.033204206559344335,0.25851226428038876,0.44865533631114,0.14560623816680798,0.1943368825588816,0.19141030770189738,0.19459070895992026,-0.37438281033329723,-3.682206101192366,-3.286986617490144,-3.147335418430177,-3.649003884669227,-3.695582708861031,-3.861669384287626,-3.797395408418635,-3.908530770804272,-3.974895176348527,-4.243291152266531,-1.218646943340977,0.17856905758440633,-0.15382502901656214,-0.16175091324787755,0.43119164547842787,-0.09934681035251257,-0.13646738191830426,-0.32363157212371385,0.2370484500249702,-0.24209813882914286,0.4545732573900092,0.18814206583686663,-0.196666372094453,-0.14795549219090517,-0.6326353908217999,0.03573621182511989,0.26673509395414796,0.3328748349866709,-2.4821850542428647,-3.1961141695034554,-1.7318018242676012,-1.7084879932876142,-0.8527551972178029,-0.20412836755360847,-1.2822170388536938,-1.5204755154524214,-3.644290794263174,-3.3467931161558835,0.07779824744481895,-0.6231429688947252,0.06819837168107318,-0.3856537273264824,-0.7725954270482248,-0.256226691659059,0.02561965833605167,0.019215935038038756,-0.4929095943716757,0.49706671998433516,-0.3688348103762872,0.5732038358249825,0.10540098251324981,0.060166622566879185,-0.050498310220621595,0.3247124048912961,0.39742972816340716,-0.4631938726104517,-0.6077692693639204,-1.2033995631222636,-0.4853009254050271,-0.1412550861729196,-0.6961687266936462,-0.7935860167297133,-0.562978979499378,-0.967468364615506,-3.079094410383995,-3.2284519300478207,-0.16846641567878368,0.19159981598416564,-0.01498578291703314,0.21676963554026227,0.06566835802124786,0.06648494989274283,0.10502843141883689,0.0016964317334751122,0.47178534335333777,0.5003996876955448,0.1711496088671766,0.04386165860652072,0.07876114381362956,0.1307151480936529,-0.4733426259198566,0.1915510151258946,0.3668359603953105,0.18913226755785206,0.07896381119405305,-0.4595646106230868,0.020767343040332446,-0.17474097036592262,-0.6744931147753503,-0.5571015843839695,-1.3130428402336412,-0.6853291334135916,-3.0349727532956887,-2.9982018690288346,0.19117426949449565,0.05782487555004644,0.4833773818621116,0.14987174251499896,0.11395428955242343,-0.4826596343247332,-0.10617085917145344,-0.008027794968455765,0.08223199937654083,0.21264403137309262,0.2170723196843818,0.23328131248692038,0.25580201836928473,0.2391877297931593,-0.03370896656683636,0.24453237656088575,-0.49373529687728235,0.1293257625041502,0.09725794410453363,0.27460994105094383,-0.001628524144512311,-0.5345902351908055,-0.3661389596008562,-0.7879088744688745,-0.8041278701423344,-0.4079139460915165,-2.9804969691310568,-3.1900087042201077,-0.6371566038213032,-0.04216515228022235,-0.019209152684122204,-0.24597287751176397,-0.21340191913478218,-0.25342336833159473,0.097335960818131,0.07665325902442205,0.1638848148031134,0.1452060732001837,-0.2682221432435611,-0.2977576527926289,0.37785884894926336,0.3095428627373595,0.0022004068628895396,-0.2767385083137716,-0.45337031905285613,-0.11294868565696445,-0.3071525377742192,-0.1639573306991306,0.0004743810769606317,-0.465863386439806,-1.1216667977237162,-0.8124024463760094,-0.2553781027803668,-0.16715423492215586,-1.7728909982068777,-3.0043151075372823,-0.029056769238266125,0.46614896459909216,0.062063528637188434,0.018917621379009944,0.3771736307854586,-0.11166872588996588,-0.08748703142130787,-0.3566958987769461,-0.31888301861338936,-0.29903954219665163,-0.08139210453284093,-0.5400754912115653,0.4083785303602793,0.013481265768658907,-0.1566835056016379,0.272988568143529,-0.26192620226230034,0.2589040312796219,0.5277846321477961,0.18350526613318924,-0.8434460633221166,-0.6147238001462085,-0.5220136324019805,-0.4500083240385844,-0.06046109227173577,-0.3518452072445766,-1.9452593321110476,-3.432428481532059,-0.6990763877901365,-0.15770738804750922,-0.0684280917215508,-0.09631433491160121,0.3140502326296609,-0.43865862991030474,0.010383936196858748,0.3138370342944876,-0.011096919360125218,-0.18296192295172445,0.04500901908053587,-0.1439798046268705,0.28193313354658844,-0.3422271327605805,0.12167896543956752,0.5073276351693984,-0.431588390393305,-0.050617004856713874,-0.173136089531501,-0.07359047565365093,0.3842281992794842,-0.8186401687311595,-0.641501904869851,-0.4097345725903915,-0.4090148653626692,-0.06113372441789382,-0.7425626209614988,-0.9322319813700506,-0.05959330451948726,0.2064451830221832,0.3356776127950374,0.03672540573427785,0.5992868549411461,0.06932449796132348,-0.10062943048411571,0.19572569299449658,-0.15818904730137753,0.2547771232920343,0.27023580904043953,0.31151082156171306,0.38905883224124566,-0.5124646675142432,-0.1850035817960194,0.36443227432948433,-0.3477711893045642,0.05585825075962997,0.40404008782182776,0.08126525367990632,0.049410876431193435,-0.1768695832303706,0.3537184698263559,0.5047678539797624,-0.31032831901878316,-0.2600937153156161,0.5898407732317301,0.26661913872070675,0.13967273177299686,0.03416631773323729,0.42314470003450133,0.20095737029033456,-0.1715160869049023,-0.08807639880515628,0.7858716589778225,0.4503376355174392,0.2688803504888528,-0.4041302577981093,-0.16041372633905676,-0.4579263593943572,-0.27941545394802064,-0.2253872660813878,0.3265810993741335,0.0823061771369486,-0.759455720814019,-0.3438004592758206,-0.3467589301955877,-0.4831391112906213,0.3981982736300068,0.05346751448269048,0.18873413151748922,-0.22945679209766776,0.13952300462513245,-0.45044625813623235,0.7534053056721104,0.5767964732465882,-0.3711583099616193,-0.29808876938488843,0.03538357041664775,0.09146529837508025,0.22068941577456302,-0.07594885271004989,-0.30217626883315946,0.3125205918770191,-0.09229692273618895,0.020590357163199485,-0.37237589469861376,-0.10059637584409692,0.014532893449096695,0.5219008774574663,-0.22525241858837386,-0.41448156024135663,0.07899314627473208,-0.027156231921479895,0.27221848503494883,-0.19403196019823157,0.1069928091772338,-0.3167859493114142,-0.3084204089157407,0.17251272313206997,0.264362789240968,0.38338861592991014,0.4491305949502392,0.3751286234781094,-0.291769112943313,-0.10525068280247779,-0.16020984842598412,-0.22104425133596234,-0.2342358847231931,-0.35090584215792886,0.3255656357854136,-0.09910208250633576,0.02215231546928559,0.39020106785497677,-0.11745344250636927],[-0.00573045881795875,0.056132161807149195,0.2607292511030157,-0.3668531224156307,0.06790239109100438,-0.06446969582281495,0.005578405542400688,0.053167859432185355,0.6476016404142915,0.0923725455571551,0.20166056269239366,0.21260856272713655,0.2902789692859694,0.05201104609584756,0.47374801336004413,-0.341924354852605,0.26304438061787466,0.5159917893301729,0.0827371060014083,0.21496585131234494,-0.1704416874097224,-0.187866393743347,0.24368015335748563,-0.07304304004521271,-0.45882114442421473,0.12674152084076695,-0.5176193127719799,0.5170588171932611,-0.08587812917353468,0.5000527987529905,-0.38462211635260857,0.07961897556352629,-0.10207233230909041,0.22938197254808082,0.14548396610343972,0.45060245808086863,0.030251487678362,-0.06272439806559335,0.15902621169258901,-0.17991521084986092,-0.2903283374311566,0.12163932961976046,0.37636168553150817,-0.2126334308697625,-0.49232166418866397,0.5791863843457877,-0.36013961735296685,0.06781294224995155,-0.1652099743799957,-0.07111799722808171,-0.27179039240927855,-0.15380887228207019,0.5521101194499867,-0.2805623732500758,0.2783476539697959,0.32292464757529615,0.28477079939473227,-0.159410412952455,-0.0628253839178311,0.2899006846761476,0.0726468648113898,0.09778871728707497,0.3184463415708667,0.0191307201857199,0.5395914571809255,-0.17779915988967207,0.19778004225590115,0.13553062024461446,-0.17959514678453517,0.0742727963466844,0.3539987942412366,-0.042421987477695156,-0.08273709477921501,0.507497988238981,-0.3285640750436814,0.2642314741441133,0.14427415611579095,-0.4903377488467605,0.10107868450816487,0.24405103893663996,-0.0519260669257646,-0.16009801172940424,0.08687666250684087,-0.27174665228477557,-0.35432448058043664,0.2579777554086292,-0.099353019532814,-0.28101553784077826,0.026959764383066798,-0.38623125835335115,0.20237858707151263,0.14146747037663443,-0.22440929366799445,0.24038729695404112,0.10945771101231522,-0.297045064150674,-0.09277600386511492,0.1835887021484136,0.07778547898219333,-0.05472259144980206,-0.1383455315828334,-0.34220648255455277,0.2858485341764767,-0.06420942044176661,-0.3433474766412645,-0.4609743413274925,-0.3702398834899714,-0.24929374739408675,0.37973751991513965,-0.5229413441920183,0.3643347734058143,-0.5079706440034795,0.15993313552568206,0.6363856286182168,0.27491870267668106,0.5495763573663155,-0.028470943151302802,0.2881691545186805,0.18521138818989027,0.055042499909054354,-0.28987035988438237,0.07660809360526336,0.4465857465219121,-0.2760231106581871,-1.3995862829820669,-0.5809361537045086,-1.3065917791097048,-0.15905519730637613,0.10990122739012337,-0.13461573387198353,0.15391395639250868,-0.7817621418360534,-1.1558670272508746,-2.167820064290815,-2.6021681934962135,-0.9591905013050014,-0.4059628193182112,0.41048912783158975,0.46081849967291416,-0.09971203286598651,0.11188923679547044,0.14162020911364123,-0.09659672522715321,-0.22535236787758237,0.10075855913835058,0.10949856129206587,-0.12491831791401589,0.43340326829726405,0.34351158152271877,-0.9137436534800849,-2.438590215110592,-2.3959002259837803,-2.5588147951356173,-2.8802849015423124,-2.432087465672682,-2.7719052906142974,-1.8361292302035142,-1.128311075090912,-2.3279200956079924,-2.492966324720796,-1.8021498990914595,-2.5356431554697805,-1.4799449700849625,-0.26094615984027036,-0.15286945292630724,0.04272033714912429,-0.44175794109215477,-0.45241494606741733,-0.004370425776454218,0.4781406130832042,-0.23992363650526974,0.2130737061295287,0.6357787643263708,-0.38578095045693284,-0.2827345555833063,-0.18689176619824402,-0.7087510807011723,-2.200334660071128,-2.2526247824170307,-1.6573261832997797,-1.9734528486598186,-1.513150064233805,-0.9788976896082271,-2.678118153726966,-2.473181915915234,-2.5110474889917107,-2.2499109209686936,-1.744125146796073,-0.017621251717965372,-0.3775470765499154,-0.5689319320922325,0.18087173936367484,0.047899134894376624,-0.12031485919452684,-0.46986497246311987,-0.008600396763174662,-0.23624828063739714,0.03043144792614505,0.16325884559550582,-0.0052825982510344704,0.2719304888846701,0.4340271404736443,-0.21619645801733073,-1.196066201182839,-1.8350676186622217,-2.1771072899511905,-1.0640117907801292,-0.8079080845732836,-0.40862737237883817,-0.4591825694312265,-0.5413536510900931,-2.003125399477811,-2.2479177816646185,-2.5962098316101274,-3.376484305392961,-4.446571555511971,-6.211764164497258,-7.451816689586767,-4.554879952118563,-2.3574524468365494,0.24213794138081726,-0.014674061545301806,-0.06908206228898006,-0.5108299160859208,-0.2313271231889821,-0.014870194011979726,0.011883294256032184,-0.1407581243026303,0.13276194640229394,0.37111635552134087,-0.23121429340693672,-1.150652068390333,-2.4460532399386192,-2.6221120842493146,-1.521788586890843,-0.23213095048335927,-0.3702552823459722,-0.6392437012989569,-1.5368796028379363,-5.195276212695433,-7.16089048575936,-8.387580480084825,-8.470881023978706,-7.764547028863021,-8.580104485414543,-7.251605042578172,-6.026276721630218,-7.776410493282407,-0.1009729665652909,0.12252877500363038,-0.2983929124816739,0.14350419628977518,0.1712339349704091,0.07576672820347657,-0.04252116643209933,0.3915493762485328,0.15478112744564346,0.5418149500367228,-0.7579931739222272,0.04017942770136278,-1.942757673191875,-2.5728032660944145,-2.5087453849339147,-1.3683056775741793,-1.3779864758131275,-3.988962857757942,-7.267974423829822,-8.825350557768296,-8.546147369335046,-8.010844667873226,-5.113282672721271,-2.698176156520937,-1.0950231761345481,-1.3441749761447674,-1.0087738636314458,-1.3250857908982634,-0.5284397643862377,-0.7727418534019085,-0.37008092339949394,-0.09795146193237617,-0.1457026603315609,-0.1454594934483176,0.3106588586834069,-0.059968846837319595,-0.5472309826576747,-0.5056921593326689,-0.10774706443987407,-0.7775822890047688,-0.7674679959776196,-2.0050657185766814,-2.6258460404915818,-2.639832249825215,-6.154150258794872,-8.015281816256767,-8.64339111801479,-8.078325767044934,-6.250481658561166,-3.6608667718987435,-0.9736464562547138,-0.5610382798901706,-0.8189526637554878,-0.5944634839664513,-0.13246675378444583,-0.20055210681100208,-0.6755959562500354,-0.29139389490685996,0.2990982690519495,-0.0717491180132607,0.17604126876599974,0.1693566004258549,-0.7513601935922529,-0.00773553657661534,-0.5002442801406695,0.278414627898503,-0.3650682052056648,0.13194490452741942,-0.46419394117023044,