{"layers":[{"weights":{"rows":24,"cols":784,"data":[[-0.42414815911274495,-0.6975989064834915,-0.10690627948056486,0.23569856164884495,0.29606640982521215,0.49634574927166675,0.290941939445136,0.33190673640314117,-0.7429277551347875,0.9388853352734436,-0.8028381427971358,-0.46378093212924254,0.7716480968521555,-0.705958064089685,0.0916497770650051,0.3721249889702585,-0.712805268664717,0.6756194542855813,-0.07115869786946893,-0.6838322812535256,0.03462105049148834,0.25219458985882737,-0.8676063754579562,-0.23420834803731028,-0.542207225415027,-0.48826585962165225,0.9197687923269102,-0.9085992387278381,-0.9457337962393657,0.36589466051962516,-0.10344222954942373,0.8442248625952962,0.23418513299605603,-0.10324937213778362,-0.00958503024677082,-0.27241069847899935,0.7249293328460178,-0.49412626387553304,-0.4597065169404835,-0.7935904470193487,-0.22594200229156503,0.6631182379013736,0.0030565971592251273,0.22378374370827459,0.17295444872670762,0.483337826430271,0.4493643976052559,0.49276560260930147,-0.16841909692903867,-0.6667624648116033,-0.663080714921279,-0.7915627440187345,0.2576076293557672,0.5496296297692838,-0.14299481597010555,-0.9751992509755518,0.0921466317448485,-0.33773390871750264,-0.08740215209028257,-0.7931747461733685,0.03333565770739755,0.5238710907919817,-0.5151038911956665,0.42807983176822484,-0.3622691552699875,-0.8634556685805657,-0.2897179916271897,0.03602165075652142,-0.9410824544253638,0.740209740473801,18.230793318658097,57.76407381268217,41.17594605474346,16.552310497659754,-0.7863482720127156,0.32747642303880253,0.17133929767965927,-0.8287290751405272,-0.772904001842496,0.37634339296795893,-0.34377483120432606,0.5884629860271628,-0.31577327864044547,0.8175126066974632,0.9523037471315741,0.6586199399869401,0.8094999964021197,-0.03535880245744227,-0.5460621440993116,-0.5241667027531376,-0.6300765753326147,0.4141633144380341,-0.5155117863650016,-0.0978145394467731,-0.37501600915378974,0.7099516345802601,0.7758666064033788,5.795072784561665,46.309751942855094,57.801206116914386,58.050846682856445,41.30138817898371,-0.6323711898755122,-0.00949459829918009,-0.8646370769802116,-0.2889737606786311,0.5897608998714823,-0.7003899055995775,0.7704449795351511,0.1290373647030858,-0.05204085648745593,-0.5997691704162786,-0.15007753583009675,-0.229621161741834,0.8477069944975826,0.664933987422279,-0.7249869631176002,0.07860644019438734,0.33679873391425197,-0.7456691239370543,-0.11380051862247154,-0.09874508014277206,-0.9471559661531441,-0.9802740776721972,4.988988048052613,46.47149131198667,58.05036501944933,56.762798315158626,56.43897182375366,21.962914214161938,0.17505285584988883,0.11757360458205753,0.23664291865625062,0.4645830596505225,-0.7419578931614299,0.7255786742192898,0.6132343221387151,0.7423457905806048,0.4262875527089922,0.8102793822063035,0.18334016741252412,0.6650019094690385,0.15642627530250008,-0.7092144734079384,0.27764229938990814,-0.8445625959703196,-0.18583786572696637,-0.776284267191846,-0.35344806450573696,0.7781549543481212,0.9331577695677056,0.7187378756767071,20.905045200838213,56.407393020774606,56.5036139266639,56.927785546706545,28.97899575107679,0.27285395803551865,0.057210193482411804,0.06794179502131174,0.18536295371459766,-0.12103112610276723,-0.29814255889731056,-0.2165447935294531,0.2886606774734424,-0.27983114170505585,-0.3356660285664348,-0.6126257501901442,-0.7451328356193212,0.3462588190214362,-0.899578691286226,0.026323313679774696,0.91744673496548,-0.12168550207284445,-0.8372634837206339,-0.3091345304401316,0.2883311218447022,0.8653978359583863,-0.3966779474689406,19.990168138558666,54.53963672125942,56.72272226024061,56.56345409021266,48.79216213549539,6.895302804307636,-0.019548675206522082,0.8797435766326385,-0.5124051179221797,-0.7469862228205849,-0.8758090558621143,-0.9811153867620028,0.9136080727144074,-0.9495489399014398,-0.26220757936796124,0.7241665093779357,0.342781320398275,0.41949199536962256,0.9731489584877888,-0.888729051795444,0.6158390658669672,-0.8145510431033296,-0.798003840837425,0.18605627517793488,0.01714659017026765,0.6743481379533192,0.24584991513272847,-0.7282088034552535,53.70859102061323,57.615854754964104,56.91211206319152,47.505881252144945,7.935258016928366,0.427651539339231,0.6184016160983755,0.46876448053563147,0.8313882412429597,-0.5298373551573928,0.5503174003437543,-0.6287221007331949,-0.6984655224608725,0.5841694706185057,-0.2499922110633208,-0.6709049536623919,-0.7351363084210614,0.45314103645864856,0.3033113339151581,0.9196953857517927,0.23562877061856335,0.9900942793259784,-0.41825697379505256,-0.6106569391042349,0.4815826143358546,0.702073864882157,9.255430009724046,54.088688790063,57.32584886645104,57.92019047649545,46.7390780622787,4.744390339857497,-0.3082762342994587,-0.30191149780384724,0.4651187064794868,-0.9768393362729151,0.2938665458190913,-0.6091331347811333,-0.592663142578902,0.244410663493841,-0.6199179318809174,-0.41278400633236156,-0.17553282878114107,0.5867983536760297,-0.5413696462135835,-0.8586793337193832,-0.5261117411982439,0.6195506697746929,-0.9799205244832176,0.6646350302615449,-0.18608989541693566,-0.24038773175336248,-0.20106927804630637,15.622508479563248,44.93210259051182,56.44126082119991,58.06145964881177,48.75119373656982,7.696517629868658,0.39910163318592007,-0.9672151619866254,-0.6312796776211735,-0.5890754192349285,-0.5938694923189827,-0.17721389142083077,-0.44109962873109554,-0.056826024666140285,0.11087695350862914,0.9594475975300174,-0.9618309825402291,-0.4995356129887383,0.482314945793481,-0.030215024884600705,0.6515850825538827,0.2917435028865376,-0.5976992478382388,0.07698583704427797,-0.5343268007995001,-0.38877013804274174,-0.3530488655453521,-0.9661717407652279,39.96390465871026,58.12949762130035,57.056044344639005,58.05090743714266,15.406357085665062,0.7443188601363286,-0.2037045487760068,-0.2820688880278434,0.24628683636570903,-0.8789726606687671,0.9876839100418471,-0.7446985686076362,-0.39995734440417197,-0.07389835223686925,-0.7182891181415823,-0.750533454234787,0.3714994406226553,0.47672155392445736,-0.3827567672622063,0.973115953609859,-0.02970212205789613,-0.17468638985266338,0.19894837371387375,-0.5271277493286743,-0.8849977047088573,0.2987718299181683,-0.5642412006082567,-0.13768025831331077,35.09886446367267,57.82317250947299,56.52625218498499,57.17509071925467,15.546685998995292,-0.20913761174868156,0.1965904734141601,0.42552983710252784,-0.8124485062126561,16.540929691260214,17.146546903296525,17.092957319067224,17.223351380230277,17.25441398349215,-0.7336025842646099,0.47661001062246244,-0.3012626738866353,0.5023017211264804,0.8550754691662266,-0.5545797206796221,-0.8497904151501787,0.032286180071941395,-0.18511915501450105,0.9261262638269763,-0.5097889141685235,-0.3940107869829008,-0.09448278624235451,22.888060307446775,56.61076362121913,57.1710483337075,56.35200672875838,40.513949279906626,4.228301119699369,-0.15038566641810436,0.42284977082037944,6.55069129118245,39.32527065389801,55.70122855542645,58.14391497135688,56.771382536300216,56.382636629158924,55.96112620837778,4.034364780570948,0.10037249089477607,0.6785940580460674,0.27587377479072694,-0.18237623604800923,-0.9361092461552585,-0.5857392667955028,-0.6350982234905613,-0.46216220297005073,-0.31116002946207333,0.6553019973502447,-0.4585967550243133,0.7480436743450598,33.114320864087404,58.21182336179892,56.468556988454154,57.81371809096008,3.7538040754112316,0.09110819443904343,0.7635367790750535,9.605326725526787,48.58802160245992,57.417777315985454,57.01360058067351,56.08832851478112,42.846616862077994,57.44326942377835,57.777007587557584,32.358567673531084,0.8536445171640445,-0.3976262473425094,0.9601730060455664,-0.5589543500191474,0.08806676649855749,0.49674500677972233,0.00933771568445918,-0.6637636197206453,0.2830657959776315,0.7220464640696846,0.24599989238347275,0.41309333862729014,32.145602309819154,56.66708529302077,58.00657686917589,57.25803229344873,2.5841443059580858,0.16898811425014154,-0.5824365805303309,49.11851727025274,57.55248821604343,57.57184879198967,52.119919536134255,18.166412058641406,3.7128952506278172,50.34491315470676,56.6258787513244,23.137921213319824,-0.5396290858378521,-0.3480781897890126,0.044045331184854764,0.11023303495573966,-0.3072085833881908,-0.8557676576376485,0.1951363996702642,-0.7246606980913874,-0.3223143927377108,-0.23458381030490205,0.6659275957456754,-0.1744577989674938,33.92234584267571,56.4793569439862,57.54080151909168,35.7424522450297,0.21561507839005634,0.5086213210696313,19.579496156030956,56.10511405246445,58.09227888339764,56.097585940399696,17.26000525503921,-0.9172747146116391,-0.1252759713504249,48.895797097054256,56.78988765115471,21.907795642580908,0.8286265457054962,0.27324643129202286,-0.687234502773773,0.9951762527252792,-0.8454115947427798,-0.5834725198399937,-0.7432248589796546,0.48905162097395616,0.6570727339062494,0.6733552830594314,-0.8401014580717971,0.29117552196782537,33.30279042377456,57.93675814798665,58.075685552903245,26.171457334367396,0.2702930718119256,-0.10971615238823483,29.316208130985803,56.66777246273397,57.472302526731426,29.683063142355557,-0.9977268520351578,0.9606291835277672,12.279981226851016,53.435564292282514,56.777486933032954,32.18174948996936,-0.17590702643148726,0.6306027289815006,0.617753672293174,0.2206682838538172,0.4175784196857113,-0.043554633328493964,-0.7102354447220156,-0.8283833115605068,-0.5882748985221853,0.08954346797810908,-0.8829447583134078,2.152272425100199,39.84549373936215,56.374044807233,57.907709836603615,25.1739354129577,-0.5231293749275413,2.0929282539830005,35.94653731263757,56.89879599293011,55.30525209639655,22.314378942940653,11.819229162811226,37.151458727157866,51.93400712645626,58.1884693602212,47.38551899874803,4.279413127275756,0.2745170593594879,0.13612766433126655,-0.5945750875774509,0.5271238958473035,-0.7854884925731125,-0.43850136949864194,-0.9815686466522995,0.19930556639660146,-0.9177795408304301,-0.4020428890381962,0.3918407969970148,11.4503642776258,57.50253216588507,56.49393199271346,56.78633165533487,46.25218178477038,36.83319528615364,39.222638177782436,57.773698684699035,57.6563540289335,55.9866674005554,37.430440740152434,54.460634212702786,57.54008619543669,56.530732669898036,46.89128004156837,7.479855363137853,-0.7058820514241195,-0.4080166755763228,-0.767347122106707,0.09620941194437638,-0.36399268322349076,0.34964754312214774,0.2669904845391171,-0.982207070152862,-0.2845504274437465,-0.5852170241508046,-0.6938027893173819,0.41070050693180615,6.163751023333577,47.08614697751563,56.738790055748744,57.73090127362662,57.85362074348961,57.86258907834127,58.01154542016632,56.98736596756551,57.75095393591197,56.83535900294142,56.43202390541307,58.06020007589623,56.55708373990823,45.22039314661626,4.417896143652795,-0.6469794875194963,-0.3469797088002915,-0.9474498352204423,0.75562613038782,-0.674576948926978,-0.4707143288246436,0.5639318095770411,0.19907794508841237,-0.1954282343613385,-0.9571097324803155,0.13646865820131682,0.38004078678574027,0.07226517072870342,0.5878200638661948,5.794097334922409,44.0785410796748,45.66692216350028,51.17470685394076,57.21368371375443,56.99699719070588,56.46974054855875,56.450787599422185,57.09720292471213,58.263617775492364,53.030075664370514,43.635474315814875,5.98062530618178,0.5988941246724946,-0.19405716008002116,0.8212263430882625,-0.4811283929883574,0.7636944147550704,-0.19402957651209274,-0.8313041451843368,0.340780116436441,0.6719121346435761,0.9868871151400431,0.6235333293490744,-0.8493020034781233,0.5222233521317623,-0.2486258004815003,-0.31588333971601257,-0.7271157391942462,-0.9371909574690139,0.5939407691809768,13.150899132254109,55.90256605523255,56.53181017132252,58.05305020961104,57.04942566015171,57.918610921137315,56.760761055743686,19.689385732603938,-0.0788816939616086,0.9685183625331408,-0.6260761394621035,-0.6642298909405868,-0.5463171592001652,0.1471027178111437,-0.11716936716729931,0.11592988780299773,0.2723883371266851,0.8104098834565412,0.8145591324184518,-0.14395990453476726,0.6634183971476562,0.9188066839793407,-0.6399789350412677,0.61986768840478,-0.5433081286655157,-0.05882469990492195,-0.4121634851357392,0.4899644990208283,-0.8323536231383496,-0.5292096408513026,-0.43186847907554277,0.8843259661962777,-0.7267397492949482,0.29852498166918673,0.16712285540522132,0.49382464416650995,0.7995402201191055,-0.2868685190093814,-0.9504851254408786,-0.2934374343036894,0.5182158511423895,0.29251223664497017,0.5815563258944207,-0.8603201053834488,0.22205519457541323,0.6664278358130846,-0.195249516746832,-0.3214960609102593,-0.3062879630599422,0.970268183365623,-0.12368349588630734,0.5863631546785637,0.46969964865541236,0.6925844013302617,0.10993846079624461,-0.8263774765427061,-0.11361022696419715,-0.8878565611084649,-0.8057130141953375,-0.5605182782958004,-0.9842744137129562,-0.8122633082782698,-0.6797072728408322,-0.8551521227470649,-0.2093893322398035,0.1660128340152962,-0.8956395655956562,0.17685726559377768,-0.24601496060707628,0.6013889324229544,-0.4924834726834093,0.2766845948139478,-0.6895485496090434,-0.35302649051436363,-0.5412926521528911,0.5866686421060243,-0.7035697733585788,0.6055361170179476,-0.27460654971194653,-0.4983835660434206,0.5003139083273718,0.4101521468038176,0.4111767450052093,-0.9957280147728018,-0.4107528188721452,0.6324036049096686,-0.9715679908292474,-0.025632792029178366,0.09089300950964499,0.6587105068582504,-0.2906475189106503,-0.8800496083608231,0.9546450441023207,0.5895417063981205,0.10207087530581926,-0.7610851880315899,-0.48134856299580076,-0.14878232300304717,0.8293688882975534,-0.09403015367007006,0.5677594576279383,0.5688742589360882,0.8418004883576651,0.8008490222651257,0.7037048011934282,-0.24361006757147896,0.27346339827260957,-0.5122087036761038,-0.5838158440740924,0.037875787498868,0.2950436436353576,-0.8417823061531822,0.19807342241046078,-0.3998045268293673,0.339044353227139,0.9513224843841928,0.15438574581402706,0.6034721636880507,0.9617251759607792,0.3964997509758703,0.5804658099417201,0.23530230582805434,-0.9030357554856678,0.861025692945895,-0.8194976348995455,-0.5118253334225353,0.45453355108934757,-0.734448234107155,-0.4682489382015129,0.7468480434220757,-0.5348835917707633,-0.5014391192106507,-0.9514698936505703,-0.04290206174151301,0.586953066087557,0.9196964856700083,0.842572986562137,-0.36336168337151253,-0.5791627630077403,0.02930161771870532,-0.4606339859833044,0.9341333302370445,0.5700184926206657,0.12318355042920048,-0.8152147987472937,0.439353269618032,0.5331439124936672,0.03150469384606058,-0.7637823525121323,0.34459017113342805,0.15298626353899714,0.10758313043438017,0.09667792073631176,-0.3239551348058525,-0.170449105073327,-0.6512034331601235,-0.864414677596506,-0.01677890524159098,0.21301956935313848,0.946864574835272,0.3091565824926965,0.6692120198417597,0.11385658819367928,0.5254168278568283,-0.1862365466390088,-0.6469403399311218,0.12873193386256565,0.20562191170637645,-0.4324758621693836,-0.6519867288249723,-0.8331305599899945,-0.10734043690742867,0.4411875358802213,0.8832573618594255,-0.158201056612294,-0.6804220504532354,-0.7310811460689157,-0.034601325471982136,0.11130328224659447,0.8511450598802366,-0.2678208384922054,-0.7720575192384533,-0.26519354875654866,-0.9967452890780737,-0.24371809317806337,-0.14765740287269002],[0.5899352452779234,0.1619089492287653,0.05175583713964338,-0.8616495449528982,0.9159997593259921,-0.9957313618465884,-0.9937910996955761,-0.7850423142948459,-0.44688329684729533,-0.24469680676986894,0.35595927342327416,-0.23024009362883024,-0.42857572980815783,0.07366754650702845,-0.5991709476121136,0.6640956822892075,-0.8157044753719727,-0.9508017823318982,-0.07364283798587667,0.3151797578332505,0.9962963303392214,-0.121675031195569,-0.5710422642096451,0.6888397924941501,0.37733580053393956,-0.18364058467208633,0.9926928911862669,-0.008463599928184795,0.5087725548684605,0.18146876089191144,-0.4717372925038741,0.5306060032627054,0.1614966181360522,0.811631355434828,0.11618988942730057,0.8548837307378854,-0.20105441508545008,0.7507127197917343,-0.46074575651447747,-0.928286341942071,-0.5548354170662115,-0.4580504689031417,0.27565967363864186,0.0013336204503824334,-0.18785132671321314,-0.019337271409491485,-0.7680382812646265,0.6899753270884941,0.8246485168533626,-0.3046936305217902,0.12342515376541296,-0.5903220223760726,-0.363826120120907,0.6683501420677556,-0.5630532094745937,0.3402390575681533,0.5817203633898678,-0.6080593961408849,-0.4888371022083686,0.6652995823863046,-0.761663481666456,-0.8983157284038628,-0.2062555805789783,-0.9219481426037,-0.572034043562939,0.5153237558126338,-0.9410709102374462,0.7624007072789638,-0.7155731424883123,0.30351003222514317,-0.8536106482171191,-0.1991369782270389,-0.1979544229984831,0.8012330329660551,-0.6482215379938667,0.754620441222198,-0.16918390249807036,0.19084779677781016,-0.2525758330189496,-0.7847126988848063,0.6845097933710682,-0.011070894438866663,-0.6983772458962356,0.06580111783671105,-0.797521337324802,-0.5954589404026676,-0.15470831251914374,0.7142482104223258,0.8465541539425447,-0.03580411308234366,0.13570928898832113,-0.8596041076208034,-0.551064417586832,-0.08176440828987763,-0.6389088456052545,0.15684912634422707,-0.6306025183229009,0.32655216790557096,0.7929065125527253,0.41665112562024326,-0.6315808013808686,0.6488676437034391,0.27515291899466865,0.5460240959974447,-0.8767008652234476,-0.47664930524236926,0.22703541034542152,0.8143604238998456,-0.8920347021204411,-0.3759135647703178,-0.9809676990820648,0.8395194427892649,0.6966080587288035,-0.004075895002986218,-0.818844192697127,0.14555763957933543,0.18916919000275012,-0.7021626744117433,-0.24089715279388635,0.18655934484364245,0.7934677193669835,-0.33949381654318556,-0.5677992509295686,0.20351072035588955,0.036114598498688755,0.25537233486048805,0.587295011640215,-0.5617034280601156,0.48350970132415594,-0.08856438777618236,0.854016475375019,-0.7019719608706252,-0.9030769821465423,-0.3391717808271566,0.8846742265979488,0.6410814845605737,0.9246912033318426,0.4176138140556209,-0.9774932236502574,-0.24392368198820913,0.7503243589695545,-0.005914923857307741,0.9022270940487065,-0.4156829616702069,0.9986645673537797,0.7478253463275615,0.7717271878572389,0.09128629524597498,-0.015144634643668553,-0.8617468224395877,0.8010264698590195,-0.8781684083674914,-0.26675125216324824,-0.4607584380399987,-0.15761792136687286,0.22193201761234047,-0.05397277623784565,-0.6085126876603542,-0.9827975663163462,0.917995894812778,-0.17848528317579637,-0.8923708759188407,0.9007507081026693,-0.007109311552454756,0.47398992610420976,-0.19817343616806893,-0.6037522468298273,-0.42057192299919155,-0.9746532267426007,-0.0712608462851656,-0.4912690359903449,0.32086518331613867,0.40508085811548744,0.07961404503528602,0.03374297689400141,-0.048860191176859136,0.6893561174939289,0.013269455121477591,0.44459484937041616,0.3355627525528271,0.23795107521341102,-0.29472783341157555,0.7770133021859414,-0.1672722093107441,0.9093859957916659,0.8930100082902016,-0.9473104338416596,-0.8760414225089681,0.663334298745148,-0.4722923099362544,-0.39733811519948325,-0.7965037065491969,-0.01701460804947219,-0.16635419003920937,-0.4097200989459515,0.1769090622426588,-0.07748200081895318,0.23358554045867974,0.5484117628486591,0.9931826234151111,-0.49078846833316936,0.6554430563809595,0.9026986075345906,-0.7663509831205104,0.8814374775000076,-0.38898050038715937,0.6645033657583386,0.7012232039226531,0.3388435726562687,0.6036985852144404,0.8413774936855151,-0.9257219272275806,-0.47443994028428793,0.5344240297870938,-0.4515699982960224,0.23218509548629623,-0.7256996116009913,0.08382748900394543,-0.4775852922117547,-0.5406957880933629,-0.4314543503929831,0.5277847796648629,0.35350234775892675,0.16205582484753744,0.9492265136824298,0.7240749501986619,0.29768568308635635,-0.16436990988089395,0.7602750361987738,-0.3110378047355442,0.7442802009113025,0.17672055055144842,0.9352627439997918,-0.39196289497054004,-0.38738308400232463,0.18439800586689967,0.0882842303975096,0.16195331255737888,0.3283166358276062,0.7248246984432155,-0.5923497002690573,0.45657078542828733,0.26624476531514096,0.20910019023692095,0.5042181703733559,-0.5166587347834779,-2.253123735370464,-1.7238531899516303,-0.9025833170419489,-1.87291748557832,0.8706928354166301,-0.5047233982984309,0.8152345209862961,0.12807581357883002,0.8305873234255987,0.18777077974186662,0.1480912883299892,0.8710827614026577,-0.5256249607337522,0.48499025577483224,-0.925358680268765,0.530898188285957,-0.013190291643238707,0.19854363287650942,-0.9411419954750931,-0.28447668386906133,0.2766337634483992,0.3958147410231614,-0.28554584751212564,0.30267422181483733,-2.3277021064277146,-4.259088057876735,-5.61579328662521,-5.284614967322507,-3.5310797707182755,-3.3778776144535767,-2.924903735266117,-3.4894499137670882,0.01680445638627326,-0.5022109016753884,-0.7566617376016564,0.21727603976560372,0.704864353173773,-0.04244023368121974,-0.08125801792912757,0.056844134098894106,-0.05500396243421113,-0.7366897229959122,0.6721255498232793,-0.20818232129852549,0.4937585392687739,-0.6651238037850818,-0.3970245173249575,0.5193032374751895,0.012956848278497232,0.017230589545655456,-3.289907650860422,-5.424878767364395,-4.267704126088163,0.030221957921830245,0.041144729896017786,-0.05387375021442245,0.30166013308163186,-0.7587096215779664,-0.5236618589240866,0.6187610127171106,-0.2474830611309886,-0.5853164550981704,0.507058063657944,0.18548606282405222,0.5113084037887559,-0.3933914018382487,-0.5948849500989395,-0.6913575488369688,-0.9487957501789537,0.6994244703978885,-0.20184541679731477,0.4620935431501545,-0.07685175600524043,-0.09752534135457991,0.4047939212883824,0.8491491635988283,0.061458223320148705,-4.447511096251132,-3.06090913020792,-0.001524148113370205,0.34025901267605824,0.6024547470746718,0.767392233208698,-0.021971082366206374,-0.24729129945650674,-2.3938079477613976,-0.48983090772501553,-0.5010317113296945,0.2941834547583375,0.5054892012083303,0.2864602714297835,-0.8869085855496981,-0.6209344331150413,0.9634078811163973,0.17522073383219672,0.1988780477357287,-0.7005772263026254,0.19715453646821843,-0.7987928372765052,-0.6440496871520913,-0.2535498902529079,0.3598500536029771,-0.3659808520186845,-0.49617322419297505,-0.07890490110285389,-4.627353077563362,-1.1173191395728368,-1.3912816103850176,-2.765997888227826,-5.176219452825466,-2.944057018610486,-3.3464280948575444,-1.5645154618347918,-1.131539665131233,0.023074179554064534,0.8767486821892811,-0.5037914934168928,-0.7112645664347346,-0.3842540841392035,0.7209778275504197,0.062338121734864416,0.3099479709834969,0.607250949522387,0.7340032271826353,0.47351659543408564,0.7386825079998397,0.6331294124259728,-0.37055975068887026,-0.24655123326996622,0.08861926406032504,0.04131918539583583,-0.8419888161974549,-3.220286940879187,-5.514841946093275,-5.476633968232537,-2.525010943759512,-1.887820576320194,0.7694607743374149,0.43559146386500114,0.6459553272137094,0.18194115237234704,-0.23244968069883207,-0.816954310417562,-0.6932010722761657,-0.15801098445436823,-0.23321746873052884,0.2946661809707445,0.398024035489303,-0.2584438296775162,-0.6801689359819303,0.37261456720073083,0.6799121620979574,0.001591374347255666,-0.9345992487591933,0.09406327982271429,-0.7760495180265853,0.1656740952718619,-0.9669751312645459,-3.1360605334287253,-6.004263016912423,-4.358500784049902,-3.8252625694433764,-2.6502837060444744,-0.3027445979508205,0.7801995674714177,-0.432089750763593,0.7039252464877402,-0.4170549542527175,0.978257794298684,-0.9477139301849038,0.0480333571050251,0.6147219654723024,-0.12456727610653573,0.9881623719879933,-0.8165179568897849,-0.07377020153279501,-0.6121897594898544,0.5291931520650524,-0.05330119227545893,-0.07213312759794538,0.5687250631414714,-0.5846560906202736,-0.09303834396681038,-1.8572420461662502,-6.171246880792229,-5.081008482591763,-2.6258925441899854,0.21576581877578555,0.6889152428606331,-0.7132536868420178,-5.704213204303393,0.94209828326788,0.4627853776235902,-0.13434080042523666,0.030573678145524332,0.17727767215905776,0.7622280483503415,-0.5553050325709802,-0.49917016971132266,-0.4863690706247126,0.4166776675127499,0.5654052140758634,-0.5385095074295028,-0.18687988273480416,-0.12122088560415945,-0.2810967416010288,0.7704410741354062,0.07362293993943747,0.3692154653261728,0.4092222617231684,-4.0951533400963065,-4.668052562067619,-1.0490497952567504,0.3852170338278372,-0.9870910888002016,-0.5073597363529434,-0.7400651673718,-2.784853801770332,-5.5391686025244,0.35994465731021896,0.5786503858882064,0.37215598349256895,-0.43305322840121363,-0.6956993229797033,-0.4734400778276394,-0.15658525842829538,0.48624024477663225,0.09100467424928027,-0.6365900908584443,0.38912083147362964,0.9354958378649503,0.4708350755833335,0.354543070283893,0.8605918951404803,-0.8617233485756408,0.5268501286651348,-0.3219159134279276,-3.22684919261871,-4.085253082438037,-0.3769334221738106,-0.10192223148739503,-0.7696333461973051,0.17304228121984425,-0.4310022997137955,-2.1194260834406027,-5.056383964901691,0.08686445221973249,0.3869250409789798,-0.5633470747728325,0.40939071873430444,-0.5703769647411001,-0.49808771291190646,0.32795926655545826,0.41130643813439427,-0.9504387349044192,0.36876025485503927,-0.6114391163498754,-0.37845859725682285,-0.33420340781302116,0.38369409490585094,-0.1435107988267994,0.6054575334851533,0.7364855982313396,-0.4742260491596052,-2.9826690887624387,-5.76377768111046,-0.4641172290030505,-0.2890310322709799,0.5941088584313936,0.3557880560540425,-0.8797973189898398,-2.4385979875758723,-5.2685144337231575,-1.912720107031229,0.04276129852423279,-0.786595179857512,0.6107202084023348,-0.4577873231921464,0.14243517075808695,0.9349178583483946,0.6067740059278401,-0.8462390346999293,-0.4653391834604048,-0.7585477640950251,0.7563900871952982,-0.4900485305732585,0.04014595800068621,-0.04504353215486967,0.40815502420206373,-0.7015079978740055,0.4860697829097247,0.9197615680878203,-6.320694204093289,-1.8980295871445951,-0.07326258211939905,0.6416402628485256,0.15088193466584454,-1.6462210515248308,-5.45266435175504,-4.1457699290196555,-0.956997807139007,-0.08680175619456118,-0.6250169271416044,0.06768603479787381,0.9246357367775665,-0.011561384342443854,-0.9207364391571496,0.7692381350128179,0.789414635287236,-0.4370068907855189,-0.7934329933512099,0.8826399132221336,0.43020537438811113,-0.62358411736041,0.6435321297094032,0.7618358692242957,0.7689866257838132,0.8960332428288904,-0.16404192733245138,0.7217236429756615,-4.073885655376792,-4.068837107063691,-4.403689694550701,-3.0158989944902626,-5.301507909883319,-5.213895379660612,-1.0533085061995413,0.43906432136070167,0.7281911203906618,-0.10002364595290666,-0.04049382899829654,0.0665756424036674,0.31504376794587946,-0.9019239229634245,0.7095387291472628,-0.9731390329381701,0.8740351754011249,-0.7622294587391667,-0.9460902464932244,-0.1576618193566275,0.6543406685575146,0.10564354803538878,-0.8880604110806107,0.5402278543474055,0.04074855290307644,-0.5624886820470034,-0.09842687791352711,-0.6034943991467467,0.5134286831854988,-0.5184844021458179,-3.497649433828185,-0.6512752214688183,0.11013965666249181,-0.18804037200096171,-0.11558059128584931,-0.9015798510424311,0.5733932207721496,-0.6673887611149045,0.6544622280087616,-0.27808626821226917,-0.9841538513802305,-0.019876686732920014,0.9091879141699987,-0.9581464710677787,0.29655947267990035,-0.7104826527982424,-0.0755751204161208,0.7732754799228414,0.6952034365312492,-0.7281832227535214,-0.820507697185842,0.7851967657035686,-0.13395318715616078,-0.4653228738378705,0.6026596917341789,0.48367408663847433,-0.3738690330315708,-0.42083090361244546,-0.7688003545600498,0.510555278681622,0.674384664239081,0.11645231931787786,0.7925068564150167,0.44204005519940004,0.056180323442382045,-0.34031738792277344,0.5736598873589489,-0.01790737616810974,-0.7675803804165686,-0.9562355548971757,0.22033841918274044,0.6625897210606118,0.7897870164043841,0.46749820121771,0.2123071550139417,-0.805775470227005,0.9292369697705585,-0.7281853737781652,-0.027595958636307483,0.713923092923773,-0.8823602665302084,-0.8559264269095368,0.8330879004896863,0.432897122434841,-0.32507025361281094,-0.09051176180243384,-0.2966697785805683,0.8074440949449856,0.9649094779360011,-0.7437993813614086,-0.26209494604378075,-0.6020333755515146,-0.4216988655306539,0.043754401453842746,0.860142301778478,-0.8162884311768046,-0.7748270532759309,0.9272737036226442,0.07438401724003452,0.024295815841688828,-0.25801335061345476,-0.5091050002925499,0.23599284902327966,0.3454447875561977,-0.030887558633684087,0.20511894667113229,-0.6267211830383959,-0.5307734805247928,-0.6036507184495559,-0.869190145471733,0.8812761482068385,-0.34360851173420626,0.619763483002215,-0.5699153441729887,0.9821630667771002,0.42058374036954715,0.08216280844883084,-0.20945022319645248,-0.11034917704552714,-1.0010179182463341,0.029286954625039646,-0.1383245337138582,0.2449248914041502,-0.11871296180157698,-0.5887276013450231,0.6249382627634654,-0.8511668333860549,0.6534875746020106,0.46080658004402153,0.9540761239289131,0.21321978108524986,0.8509391019797872,-0.010163823174174968,0.15954709306961945,-0.7098975356514257,0.5646323456003364,0.2159087563650064,0.586335172161152,-0.4244000107572794,-0.22045746637948493,0.3858441332948348,0.6760019171953933,0.6070606488111854,0.5809645186560983,0.6796223178443732,-0.054343722212434234,-0.8028621958123711,-0.7588286318739136,-0.8042750306436007,0.5669078954120317,-0.753831012263201,0.011804126547934501,0.7810503199415249,-0.1740343703031546,0.3404748727599829,-0.9108206551119493,0.5640346190804237,0.7040304758539508,-0.57108282940374,-0.47842776627634764,0.24287255099205307,0.2213620543134236,0.34227792509731714,-0.6076802926675704,0.9572578528164764,-0.45675930728825875,-0.9384601640976347,0.4264147417465267,-0.7477950587884283,-0.7686554632546385,0.34158840107965505,0.4327888524047774,0.2824245692674334,-0.5958915407697738,-0.04449592449454939,0.5349227849843016,0.3400248116869538,0.06623377890136117,-0.3002659139431665,-0.3070212571125399,0.8014113680951271,-0.30738620686484674,0.17588613094247085,-0.536432981658642,0.7048605222450357,0.447885537590194,0.98905309732312,-0.9839097790974978,-0.42738516013127725,-0.714068447176412,0.7565495929595203,0.8780059245316276,0.9831395011491133,-0.9209396721522318,-0.5364504289622287,-0.9038985143324174,-0.34417426261690887,-0.972154215241781,-0.4313372577261707,0.04331427518458053,0.09357557447263609,0.45378960596458695,-0.2548870588050298,-0.002837102469630093,-0.5300085939173895,-0.9832479338468958,-0.6927882079766046,-0.11554150295242893,-0.9436839119973652,-0.1463169704132894,-0.8330291734051576,0.8559858254090065,0.7203979555582598,-0.48382781323799495,0.6281738455552248,-0.3294335144259395,-0.6941071463645638,-0.4364858622541421],[-0.9935515795231291,-0.21164790324644223,0.3011270126654324,-0.5925523461252609,0.5993658886628865,-0.978509383932582,-0.0635095291777068,0.6927710839633976,0.16349857447528393,0.24711271752080233,0.1588267001041168,-0.8226201814278102,0.04766178188143222,-0.8068222161208283,0.8290127970379233,-0.1659811509223399,-0.6999266940695739,0.7071449996378241,-0.9810831114186178,-0.7734186617953189,-0.6993455424693868,-0.36083477498484884,0.4402972599728323,-0.7411783413000532,0.4608930181340116,0.8375097914989333,-0.6748917199554643,0.00873977019514749,0.3845771914134817,0.5071176465513099,0.9194820153495553,0.3234838152406203,0.9771471550367608,-0.9464384845691289,-0.8625610113729221,-0.3150284751296488,-0.4400832626094946,0.9283303726580301,0.6316167783863054,0.3790659132721328,-0.6628342166488785,-0.6732536460896745,0.41592920633665686,-0.6277531165983321,-0.8846058190661465,0.2934213970691677,0.2627866014154745,-0.6236238463248998,-0.6784466478180473,-0.7403952993602965,-0.6265485195354006,-0.29290885476012596,0.2209128612516289,-0.49271368531247095,0.9782281307955403,-0.6762517466566993,0.9299146977351405,0.7511692174274365,0.06338277688659266,0.3194165214861564,-0.872565289115415,0.32605667816458483,-0.5939743166781568,-0.05945836060548482,0.76509961179107,0.7409344997418339,-0.7173540368690179,0.927335783639331,-0.16815629889619865,0.4003152233076124,0.994804806270353,0.53815568125931,-0.4646436007167454,-0.8334440358022799,-0.5365185035863851,0.2735434763844138,0.6451984829970194,0.7195988257540868,0.8815209704390274,-0.6096528375299313,0.7447241844550283,0.3095178113841679,-0.544601124445085,-0.5485874068372616,-0.6756500886893977,-0.8572704540758012,0.5504805479821604,-0.10617858584760587,0.5814612292979064,0.2993973025102039,0.5308367836388102,-0.31652634633537513,-0.06954791893959955,0.7154026548373622,0.6599522932677133,-0.05013144553406246,-0.0013406095031043286,0.8468473135929608,-0.2555637499673922,-0.9147009481599837,-0.8418954791254749,-0.09529720771313199,-0.025369908804564023,0.6668842318807671,0.9864887389904546,0.7779303219743321,0.21988347707384337,-0.22025184851487278,0.5455548832600146,0.94081174078535,-0.2950443872874624,0.31519967772879864,0.7268723276323685,-0.9163569642610625,-0.6827335170889746,0.09902391260529653,0.9180337049404192,0.6157328740698391,-0.12580715459112346,-0.5597825916242445,-0.5793907543466039,0.550624286304366,-0.8732336733436461,-0.5158886476905256,0.5130083755916979,-0.785813946513187,-0.7658896978379963,0.6905393435487621,-0.004226141038121689,-0.9935660896331526,-0.8364282008845313,0.5917587649056322,0.9465383041726475,0.49379410129074497,-0.9509589019696243,-0.8047141865513758,0.3884496990291688,-0.9885579961987951,0.9221826420060046,0.49788409904086484,-0.5504448270880431,-0.35038760765710597,0.9534846815357199,-0.2990211686718598,0.5378917207947218,-0.7931430827725635,0.9622377448043342,0.6289563058703984,-0.6638709807504916,-0.9713856355321128,-0.4853082795299944,0.061629463439769244,0.6682390110797582,-0.22349961699900167,-0.35313297139217953,0.17338949153969532,-0.7545564260233445,-0.6812420293502286,0.00443846537315746,-33.40666442214102,-138.85712401931704,-613.1730323143607,-1203.1187814753523,-839.1924406125636,0.08409611194050504,-0.9157652445058795,0.8315202366103365,0.5279940066631408,-0.3889172440505262,-0.8013562634062441,0.6783462028287333,-0.07091206852297738,-0.7850581468461811,-0.6373216684213611,0.12398326995356436,-0.40003204966924777,-0.055062710051220376,-0.14471131656821612,0.7777535709771497,0.23144150431456262,0.6101939465060837,0.4169238756031454,0.24033110742877678,-0.7848048120626553,0.0477847181751513,0.9896513910124275,-0.2517314167940221,-392.6082193668612,-1208.68290672424,-1207.603222597914,-599.3271636966108,0.18764349214602394,-0.42205736369675506,-0.13677364137157166,-0.33912999972307034,0.10340108530915737,0.9019756780690815,-0.14516950889322722,-0.23790578139428176,-0.4315485542355688,-0.4823031178202834,-0.2580418364368353,0.1724823228644401,0.4514972009635523,0.9984814796940134,0.05698603615963106,0.26506707616021563,0.01154670045212937,0.6250870380288349,-0.9537087288196542,0.7385452536483912,-0.9068493162559457,-0.5090736935999063,-0.26517602760395215,-287.0814501897368,-1122.4455095379717,-1207.7682112893435,-608.2804354673511,0.5962254745001769,0.047457824117871805,-0.32353171382459456,0.4270837443934381,0.1580572697282343,-0.3869334924615764,-0.3652366671070917,-0.17004460887079675,-0.10558620778628214,0.4880518353629566,-0.49497948764097544,-0.9634891747720222,-0.9346470391991168,-0.6479650833321129,-0.31709451998545024,-0.1859219679234836,0.4515414874617476,-0.9968512472740816,0.1761724190198346,0.24259348815952372,0.9850890146840332,-0.2728393145082036,0.46492661771069604,-244.76431125241442,-1154.4123957096747,-1207.2736191496706,-848.0594442259626,-14.212900463425923,-0.3249774685677699,-0.8704551880116971,0.09513552053097829,0.38838743438939005,-0.4690954323965424,-0.6896215787863582,-0.18375503407346017,0.37743867656756125,0.7968300680777118,-0.057583873194021695,0.4478165296487826,0.9750902175861877,-0.5425276652987658,0.05129535458144719,-0.07233931932400096,-0.19790894566830008,0.723616612671281,-154.14687991250128,-674.9572084819578,-1154.9760094127578,-1159.1575729302194,-225.55242383927754,-48.36219004086493,-857.0292942949891,-1222.9607003951444,-881.4356404311867,0.6431556396002485,0.62471133021841,0.6804103610394819,-0.8461761440585409,-0.7557397007452846,0.7775857194677434,0.004242764680905786,-0.2059671429160259,-0.010871733873732303,0.18170488249039662,0.6863672104296641,0.6937260847013085,0.1728060426376219,-0.045102907298542494,-0.44619214177609035,0.10077208030066398,0.5294519662590416,0.45343360952534795,-215.2886290425525,-895.6108573506451,-1208.8104053684624,-1207.39156474321,-1002.7337301457387,-196.17575349886044,-825.2334239651098,-1208.7556181238358,-1064.0168016128182,-311.4823456019976,0.23297747611388298,0.849132031080464,0.3512336335166699,0.6674531475962047,-0.1519256142783849,0.840321137897833,0.6758657292756354,-0.9728572324943627,-0.7301831158033476,0.8473837294153688,-0.8759780440453366,0.1579600393446432,0.43728045765778,0.558577036299158,0.9838984133317976,-0.023768973682324557,0.3743094937765781,-364.90245170435355,-1096.7553265037016,-1208.6721666774386,-1207.7432831258477,-370.00594120916065,-120.20117408309814,-456.3110107096698,-1208.6870222813986,-1207.2887524681184,-542.2214642136046,-0.9529642226273466,0.9657398914226674,-0.7637687101339821,-0.5835809902934156,-0.3136853665787047,-0.5893828722720071,0.32768375811115646,-0.571579384177161,-0.1903324515029574,0.8756483167063971,0.6490813023671791,0.1231165303634918,-0.5897196446259665,0.6494977875845698,-0.45433865100173687,-0.09481263026321818,-0.3109442811957379,-182.8534175518236,-1135.6235268832886,-1213.186376874133,-1087.5911388741479,-494.1466340655768,-13.578848612495234,-363.43830616358474,-1165.3462844667267,-1208.1155647866526,-968.526238697304,-61.32684194274417,-0.921170402560462,-0.018209825491423793,-0.7753786183417297,0.06706407471394743,-0.4776952575245583,0.7917774507824316,-0.18038827214833963,-0.11095027677577729,-0.220837500048487,0.9991514790001736,0.19784498370050985,0.886973468142684,0.580849991010481,0.19540232065630914,0.910514624169867,0.4329782511393021,-153.0765172747588,-1097.7009475027871,-1213.1688923836582,-1083.1906382386135,-420.9270615863981,-0.4885811600870894,-0.9596915868643355,-976.844635385968,-1212.6550293670452,-1170.0388802900989,-119.52765992239064,0.4370549793498245,-32.6020390055858,-316.5997515205648,-133.90145335834202,-0.9986854144966609,0.4569353150097717,0.475878480842558,0.13206039635471045,-0.008388948097091564,-0.8066127654022974,-0.30120486208329256,-0.23756375741847613,0.7545717155370366,-0.4782170766120468,0.7656634985396549,-0.4045807012594813,0.34834199230295715,-272.2763030113946,-1207.5712099889433,-1208.4563851817359,-929.2019899182874,-272.9638763298114,-273.64565594568995,-392.12829484671107,-1213.085717282885,-1207.0300683279602,-896.3295520020561,-753.2062735647471,-815.1334320907448,-897.005176457189,-1208.3442967283402,-1031.003856153812,-0.6619909049185231,-0.0701245857974313,-0.38760291756572895,-0.8850310412484186,0.10826738075491615,-0.08730217107616678,-0.24265683740387445,0.27088118054589483,-0.5088014594470267,-0.5028829888644388,0.7549174104339684,0.2937486677749117,0.29697540049261395,-272.6300273661411,-1207.1739135823577,-1208.4681858670012,-1212.7087517447492,-1208.6209825162457,-1208.488896573211,-1093.6364666297675,-1213.669609841012,-1207.4619074088332,-1208.3954604335443,-1207.6805980967265,-1213.158480789861,-1207.9680343645075,-1073.5251574477688,-565.225216721073,0.7159006039917033,-0.3811848980938124,-0.9695939859566454,0.43214560146023606,-0.9761322267382346,0.6114767693802099,0.10131532206811444,-0.3459170921506005,0.5052690526554438,0.9124113358789283,-0.23308201436528053,-0.49980887069502833,-0.8791733266547537,-33.086707792876524,-555.7101770966573,-1150.3949528880812,-1211.9426258524675,-1207.3642807534561,-1207.611066023238,-1207.1328317910982,-1212.5070803909923,-1207.6989204431238,-1207.167512911512,-967.968911364807,-670.6699075474129,-311.889227846952,-91.59361215939678,0.1276048059343009,0.037379904687507626,0.14510044312038506,0.6887883463603459,0.9888103560464447,0.598702510941068,-0.5211645544493719,0.3169942603532774,0.22908269220947597,0.2008902841559519,-0.7141777549132233,-0.13246969036817102,-0.9287826066985221,0.1912167090507424,0.033316365364655987,-0.3923698424418265,-0.2926331631476575,-545.6560184731794,-992.4405577905595,-1213.2386391362543,-1211.789586134507,-1082.8816949278948,-542.1435609466497,-365.2389209950994,-0.8136180204635028,0.8035394724869354,0.4910316575976254,0.37210492217411195,0.6930840277674553,-0.21541387246250254,-0.6987716796340635,0.6032059286036415,-0.7901697897885507,0.78402670691273,0.5056565485267925,0.8172972115715456,0.13345015674563987,-0.7279610853026717,-0.6057029639687639,-0.3016550852812565,-0.5381281476108737,0.3050915429168919,-0.9009879480687415,0.4597279588496459,0.6809257671931515,-32.78666256926839,-895.3603738441032,-1208.1149874177597,-1088.5879371507076,-183.00243416028417,0.3771462128975962,-0.24899489277925724,0.12558719363906834,0.3786317161661139,0.438498659476767,-0.04856047294912935,-0.8418396220381452,0.9722515122918343,-0.7684143113829989,-0.1334826453904383,0.05946106425078046,0.5802343912119285,0.3321661160085152,-0.7112716996311814,0.37405426005797615,0.8635651167636067,0.4145330060310064,0.17211140924341928,-0.30077781077102683,-0.6078437772635823,0.9684607711454913,0.25385596803793353,-0.383039374787391,-561.134317748178,-1208.1554304795857,-1072.691374064763,-206.00296830061862,-0.8933237792634584,0.9343279669909935,-0.7888510613921661,-0.5338767396770487,-0.621068965806165,-0.2571267016204386,-0.8631358498988395,0.28198357317365375,-0.38154846393785613,-0.6627057822824032,-0.09347508029575513,0.4378253646160899,0.9278690313154985,0.5708776478701094,0.05310254350500543,-0.03166944145938366,0.07307229977136176,-0.7578211198252855,0.7509680341905445,0.7345642214907082,0.620889381854254,-0.9902287611111782,-0.41854808771798613,0.3035239022691464,-676.7529237967449,-1088.7549706337284,-450.0676405114319,0.28812979608756617,0.7044937057377436,-0.03542202999296463,-0.24268179986514532,-0.7125212497794577,-0.7775327349696046,0.8582651685183604,-0.30136987855231423,0.883045561638288,0.25657727372596506,0.8721408232561392,0.02036790095037233,-0.217563110903094,0.4715419168793731,-0.2542073765706956,0.5619958397296716,0.536967329805691,0.7186788832936686,0.46719095886486883,-0.038923117763036696,0.7985149934156643,0.3770963467442665,0.5510783590260027,0.7651274475226688,-0.45943266482847844,-978.3027983700855,-944.8548983976236,0.3636429841929869,-0.8333440988595388,0.857040334813281,-0.22363639110554212,0.8635021545919471,0.6446457867089455,-0.997251263686634,0.7695921203179992,-0.8806287545849791,-0.7282187006712325,0.504333083282472,0.23525953142939837,-0.08235157627565881,0.07490019348538679,-0.8810603673988582,-0.4123861177720278,-0.0039691249760691605,-0.5990943950284855,0.052031465858824344,0.2908622537264125,0.8055275163038944,0.6433352670702184,0.5867221068782813,0.18567719957176454,-0.6965509991193979,0.7561855494553259,-1183.90142187014,-493.20193156108,0.6191322989337649,0.934049391424944,-0.005729542601193838,0.6442386002729865,-0.3017938186098976,-0.3735516621495121,-0.5562440752992219,-0.5846428198948606,-0.5927116545204707,0.5262271732881909,0.7714112228370499,0.6745139424334159,0.9319999218686226,-0.6960215524228412,-0.18283456868992154,0.4415878413078902,-0.6492597746280135,-0.7341500056344588,-0.9390461639526149,-0.26185953829046893,-0.45770190710231917,0.35083049887123474,0.2446759400935452,0.1349452988225659,-0.09137642338600394,-604.2334586389616,-655.9977849518056,0.45324206747518975,-0.503251984246694,-0.9648965618860812,0.7341413279181852,0.9530504056244102,-0.3535314119057049,0.7810641741274553,-0.01674649928984361,-0.949013810396031,-0.9421259729611531,0.2742142625749467,0.03107257901376501,-0.19527233052655657,-0.2774440062457444,0.8301043123817893,-0.21120790087254449,0.19964972362908373,0.2202769334946857,0.8123271162692616,0.5530713712447244,0.9046996588996343,-0.8585183351523513,0.326636218701164,-0.4613300129564517,-0.832482229834635,-182.61507376372518,-1135.1653276451234,-301.0987278246581,-0.08626378937218125,-0.9579883855163801,-0.8196333607319934,-0.7594751872791539,0.12173383472294964,0.8644026509653981,-0.30620434313131417,-0.17500830162834413,0.8891524930611805,-0.572659214702145,-0.1829597099065712,0.1717464001163,0.6570460110609584,0.2342420499712885,0.5406162761208781,-0.7895953560356648,-0.16311047108397903,0.10512477568791034,-0.9317075979547083,0.45018070954829525,0.7561374458902281,0.9275269959772054,0.46185236656103434,-0.10924651254943418,-0.6790488523632239,0.7456064894329968,0.5527648180357732,-0.8565624576561248,-0.6410997165553507,0.22668946192264894,-0.969298044497013,-0.13893747950001467,0.16849275527616925,0.5225205688590449,0.3883932808206483,0.691605296063174,0.5663377971615811,0.8997085097414415,0.12101140166804081,-0.9821332937357687,0.02500437433397318,0.6439253583307072,0.15198667083096673,0.12551696356067188,0.5135384581775662,-0.6197535973802175,-0.3941838445042869,-0.2560318130920969,-0.9278790922613909,-0.0009064483425320624,-0.33471604453665105,-0.6245301036626634,-0.13589553734633375,-0.8695590382447604,0.9475322408577549,0.6700513116310294,-0.10682594077525476,0.689912000582785,-0.721661272579353,0.4121683455277756,-0.30696255875456746,-0.5801895682769307,0.39334781412540876,-0.4330679666552091,0.9275837198752686,-0.23350255759356386,-0.3067243600246665,-0.1015018310732172,-0.048170120658806326,0.06548535464731753,-0.100703865762096,0.7052078138748468,-0.14858435419243676,0.4861876571497681,-0.01140849313730552,0.12951068779399888,-0.7826974451686746,0.2263782284610003,0.17343859351986657,0.9814970520737836,-0.030786540020137476,-0.5833920800238905,0.4798111965569283,0.694366737161157,-0.17480675791268174,0.8411112969751078,-0.6800797825241385,-0.873357727559354,0.5034451543236749,-0.6390343972595507,0.43312867198499383,-0.062349306395399484,-0.688161007368171,0.7812564886902238,-0.5666331109155047,-0.22604610012536064,-0.2601880390246256,0.018519751603767176,0.9330842646448012,-0.7424430126312003,0.6681985959852339],[0.4878622929561325,-0.12737382603740555,-0.8018251430810657,-0.2559433624490066,-0.4175923859266417,-0.36221532351541486,-0.04749571289553289,0.28440702245793004,-0.824633916315364,0.15830412570871033,0.3651065044899342,0.6124173542419511,-0.4086512503818027,0.03651762986810514,0.10224143906775929,-0.9765427374670308,0.2854096415124512,-0.80797301991349,-0.4280072617641846,0.5074535694924953,0.5654163786639534,0.5819854181097792,0.5989121686256054,0.011087535301171236,0.2263164867089671,0.5978838851557904,-0.1673613245156349,-0.43900863037830495,-0.0022676462472541736,0.5976859127152672,-0.3458788436888529,0.7721608578483399,-0.8108006675233499,-0.6125712405917687,0.49707951260602323,-0.20034416630902507,0.3823838040339562,0.7760013448521685,-0.21793887948234625,-0.17225340107721632,0.9394721871136826,-0.8080088138158592,-0.3643702942695956,-0.6035299268396017,-0.5854960897653076,0.35529789601956363,-0.7609614251627272,-0.7481819830752618,0.13685552782818133,-0.10173535464602868,0.25824481459729265,0.816175168258551,0.4099284161270482,0.9612098215048741,-0.934291297413866,0.6554771202696856,-0.8018664558883684,-0.8676930807128183,0.14157644534949698,0.14954116737904943,-0.5648577891243698,-0.5069836705964903,-0.3522345564152345,0.5528702004072596,0.7958673481987906,-0.4750027272872628,0.6947203319302142,0.5353722383599289,0.5943544203667415,0.19609057937114877,-0.5191791092425428,-0.703459646952298,0.06043913431306347,0.6327087124191264,-0.16927362407678137,-0.9890962939318548,0.3228633589635215,-0.9095863216766182,-0.5132980079207701,0.3870154600685849,0.8459776688816896,0.9819057590969433,0.8661191746041164,-0.005959144198991684,-0.6055947881101984,-0.040686432482267776,0.11362999677023389,0.43521556974697173,0.9582852851578454,-0.5836717911070828,-0.5486454926017834,-0.8898638611071545,-0.9375881706598879,0.327616527941637,-0.3506147030424618,-0.32715305203244993,0.24909081759446172,-0.6851192074042505,-0.3625369764351657,-0.6542537703246527,-0.9260870950962549,-0.3044458317879611,-37.15657965443372,-38.127089264475536,-3.6142932943407073,-0.9847294618442328,0.3770092955907436,0.04020303982954543,0.7426554948322943,-0.9119410941140629,0.23851751237225693,-0.9152706822405285,0.7708746257335091,-0.8378375187844349,-0.8613963457775498,-0.2121158947164017,-0.6451549796734737,0.318326440186981,-0.9191936096078241,-0.7933718434172543,-0.14675846161530193,0.30884427652990637,-0.8411472170006216,0.4064804940420066,-0.26921105183449606,-0.13379884820440055,0.7908099393485051,0.5685843998693934,-15.480854536171528,-143.3814924486722,-205.2517094641909,-206.65462918308356,-119.026734862754,0.1770164230456724,-0.782254108170335,-0.9136143939564518,-0.8085656631625846,0.44051126587981315,-0.26347738986375324,-0.7498322697228068,0.7934105692103999,-0.18423649789635954,0.16109528208745338,0.9180971721286717,-0.7965921874937871,-0.18883361933799492,0.5678733551694153,-0.23939299143359216,0.005012299664656417,-0.4268999478333271,0.1916095711742115,-0.9033346999884583,-0.7624361809164738,0.272723575980552,0.7506329270439838,-44.986166626150904,-198.35820908609287,-205.02116267529286,-206.99239383047436,-198.7485481515969,-60.44272100382947,0.30489852543925117,-0.3936085888271759,-0.9157139110766583,0.2992501207883782,0.44403276153155247,-0.6607777160122921,-0.30631709845028965,0.2893146395748243,0.5508702986333569,-0.05496541693951551,0.29713179449933325,-0.5085956685352171,0.3996249173437838,0.9433735572516171,0.924545097056523,-0.345259763429819,0.13386178147070113,-0.09043632784138719,0.8178453877515246,1.04524000384082,0.6629956176427216,-67.01659819317719,-174.60232819573292,-207.36555826835985,-206.35311152490434,-160.79490892384354,-39.13157063701308,-0.163822234105158,0.04115504462401239,0.8553226710022633,0.5477885657535577,0.15814264894029595,0.18637711761054954,0.6614240033575278,-0.535627842016857,0.3364186845863619,0.6928246449449085,0.5637287149786872,0.4908579679496259,0.15090117154106997,-0.8134039023653883,-0.42423695472702205,-0.500826614467055,-0.4893793532325137,-0.7378939313207503,0.993810955227536,-0.30724243796494105,-0.2572009757502541,-22.843893826307664,-194.55613960392324,-207.0886755045455,-203.86028200103462,-127.37394942373113,-8.860071782981063,-0.1851292811430807,-0.39565790395054956,0.5914803809969559,0.08698915935514906,0.6674524729945437,-0.5860560287875928,-0.23100495228249027,-0.8889268951436056,0.05655528111171826,-0.4361180784464258,0.9462234618530436,0.5205950849458771,-0.14330617814472246,0.204273722286477,0.9168915239424651,0.6931754340302442,0.03322473501639452,0.3788290035086041,-0.992913873659075,0.2614880389540784,-0.5922718858895758,-14.176568304854186,-183.19630748903342,-207.60563890733127,-207.89851550639239,-186.88625035051655,-22.120291027255227,-0.05844214103681205,0.642211368257752,-0.6962686104679408,-0.28847064905384295,-0.478557778982435,-0.5663490909918866,0.14990245769336064,0.4138731180381952,0.013991207190896748,0.7272374466727651,-0.6946371195316452,0.7910555577896239,0.03703265970888925,-0.41285077466822573,-0.5637191711452414,-0.01383199053398787,-0.6325402024159374,0.34767556535912636,0.9345675507916498,0.34686143481273163,-0.4946450309055563,-16.456601950864027,-159.92206185526805,-207.55889674712049,-206.14090691414245,-196.24755687930974,-92.80719908977369,-0.8960531841834508,-0.5666701706154609,0.6407224773251244,0.5337262701012208,0.3557200811863858,0.03876125607358179,-0.5285894911771516,0.1367904438399554,-0.41001605424037907,0.6467908378765679,-0.3095538180769588,0.8519135198441332,0.30651726720273054,-0.8660477788410645,0.7407902022758286,-0.9243817922266251,0.4380599071225224,0.5920412741947629,0.34377013934116074,0.9856981248078056,-0.7131584531771304,-61.2467430275144,-198.41852406483105,-206.34798821013518,-207.88112594933767,-159.29162171381796,-15.171798194067067,-0.9395174046770131,0.7673524615130254,-0.9071749920624506,0.0928214656645043,0.7290508151013614,0.39969323558950476,-0.2137163640412747,-0.6243883433708429,0.24251217984437404,0.2749261466119046,-0.6728815720831127,-0.4705697965576512,-0.9081091764070104,-0.6096013981552155,0.4649874710280937,0.29825409418475557,-0.49316658275633607,0.821389493140003,-0.37057375314458474,-0.5406140874692682,0.7236672432450828,-55.224090298759464,-196.26837506281157,-206.18948080354934,-206.47129571736693,-165.79752137586198,-12.65622602506773,0.9484804031656479,0.09568187053142925,-0.08947717889543666,-4.640432989726648,-4.6267262976751065,-11.767483170797847,-32.358461145159104,-2.250850593512336,0.8231311484440653,0.8273788857569446,0.8903755981259973,0.13938941842689045,0.21362757284915235,-0.96865921493076,-0.053211944406025946,0.5980168145251681,0.21512061477201083,-0.06650980904825587,0.2602778105982475,0.5191467239004082,0.5150583663679064,-15.427821865919952,-162.28328538225006,-207.96485389030596,-206.3658487087244,-196.81195002579537,-27.70516117619649,0.30357063972264986,0.8012488379823497,-7.621974576789761,-106.28815403365998,-203.58895751384605,-207.35390123445168,-207.00767302223613,-207.78526093201796,-171.1521362500203,-73.24919022899203,-8.750198696018359,-0.23724547102394666,0.3901349301917101,-0.5189063601482493,0.8348740661944749,-0.1888119624765019,-0.7928256150706323,0.6319009355850005,0.29044602210776205,-0.6830098219931506,0.7867778205754266,-0.21421955793188324,-101.99102354684025,-207.523534226627,-208.11500958093032,-206.48096075889353,-122.68091366421788,0.42156754744325814,0.1218873841470739,0.9400510831103829,-134.22529090173003,-206.453372938585,-207.03124437859395,-206.4921071908798,-207.3216947420613,-206.69692594943794,-207.9326283213802,-206.685675413548,-139.36520011396416,0.11496046844816155,-0.4793300363130677,-0.01361472812114739,-0.6830796965034658,0.6158434432901743,0.6395675699232641,0.08555066179216553,0.26027610271510104,0.5898284275783694,0.522247202796371,-92.72198411068932,-205.5301703086499,-207.14597212362847,-197.41488508492907,-128.8041096729992,-1.4237976767182001,0.9761304851369826,-39.43464069730778,-186.90147126106228,-206.23385561404794,-207.1156883400918,-176.1256523234345,-147.55490076169562,-87.91968608529095,-134.33047215650421,-207.5967868329468,-207.38139299426453,-145.22823150981768,0.9540418899974372,-0.2514039484580777,-0.23133706914622332,0.6010783435597506,0.19708375597789152,-0.16625198789936269,0.5547027825288904,-0.11349488349062442,-13.432767879300465,-71.87609926118446,-202.69817179169644,-206.6265821857692,-200.33269344534597,-96.10869162403915,0.6716280192209638,-0.05796442181168229,0.3780126219106294,-92.0326624413575,-207.20252300227287,-206.970071859219,-151.79781989190985,-7.4044647346878465,0.532685035955047,-43.11927778843163,-192.4823874722085,-206.18592017760201,-190.49018807176859,-59.34278924066379,0.24966900776650247,-0.9189712997340518,0.2684084577294601,0.4490295709790981,-0.06995675443889393,0.9585377555816121,0.7850726929782814,0.09992590443813858,-58.715611196040925,-187.76202987441079,-207.42634272960885,-207.14282455434622,-141.70289291982948,0.2509738401708185,0.048703544621304655,-0.8498563463946064,-84.49960694010568,-202.8052989739852,-207.52803745536798,-188.5398430881301,-24.357301785202484,-35.01203368506529,-136.77603794307177,-202.0438032479842,-206.01368532397112,-203.16970587566556,-40.67212143646195,0.9157831304115085,0.07949444640295145,-0.975871457539538,-0.7671584150998503,-0.10719720070401095,0.5770581815625437,0.34900613409756875,-0.6081465358753998,0.3490854133639772,-132.80061974946622,-207.07411207279986,-206.73992952152764,-159.1614408670389,-30.06133266215331,-0.7737834893408714,-0.5608084781783793,-36.05676660124412,-172.70432200440325,-206.05469276935554,-207.13013159132524,-198.7136318505324,-147.70743486271533,-204.24965592984168,-207.1623352255442,-206.51359601892278,-167.56306798650814,-57.43861754224111,-0.9843794441303786,-0.9716556639716214,0.0999855258841369,0.8542922655690184,0.7360881560585568,0.8100221211649972,0.7041940511777076,-0.321443947295315,0.5048158664772017,-0.8235975854782427,-157.29628536850979,-207.97107870871352,-208.01453313935178,-173.30074121999138,-23.945611661396967,-42.246203319503344,-31.73476941197896,-162.69345741091942,-206.83674041511932,-206.98507453321704,-206.0699232602533,-207.30823628242914,-206.74070624466515,-207.50004501288817,-134.3931016676752,-98.521401232253,-15.364219175162635,0.9157663331484986,-0.45434185467403276,0.4813276409081819,-0.2584039941470153,-0.6278864289225061,0.19183486080401257,-0.48221752428933495,0.5315566999043195,-0.7933674839411043,-0.7419750808433182,0.9094851170359382,-90.28982692343591,-195.0375085296188,-208.07334522548882,-207.70486303191896,-207.84688296089635,-207.02681658806645,-206.8653029038881,-207.3516549639579,-206.21616920612175,-207.377313006507,-205.97913982904228,-197.57677541304028,-153.01041570716097,-71.79267373680278,-20.247817866238442,-0.6583363422764157,-0.7069134408940334,0.5423770392958452,0.477664204213637,-0.6512002262633043,0.9557157855912322,0.8942262711207536,-0.3034969178465654,-0.42717424729254283,0.25859493582750126,0.13115211996400486,-0.17630392513957577,-0.4466518368740763,0.540285325526679,-88.76738932975738,-159.54931958865407,-198.15699742807703,-203.89521537645774,-205.11989515752254,-198.5372195356797,-204.88945650331112,-207.74744048224642,-206.3920171115281,-174.3431128291235,-64.4642186651899,-0.5692980095795313,-0.04392826492746451,0.13118652763130564,-0.9110375090980322,-0.8426269653709691,0.4961293186200719,0.8216598581093937,-0.2563172136444165,-0.28024342429828764,-0.4168515653628839,-0.7294763785372718,-0.17678613975473345,0.25963779743653737,-0.741364934601137,-0.26330641331817506,0.4096565275663652,-0.04398378802882538,0.41813968996987,0.35953962216035024,0.35959282291300254,-38.74427851829689,-54.13550159042978,-0.7455170594039694,-49.65229619476934,-111.93020007684507,-160.38274388420504,-160.24787545471142,-104.81764865332113,-0.0328541913954064,-0.6601548135332811,0.8221829438849277,-0.7417829960864967,0.277928491568138,0.07164722003270496,-0.3365891106294354,-0.38575732754298375,-0.6075245691919862,0.4127108844523151,0.8541275673056132,0.9364000001109734,0.5549026176782244,-0.7625547213384406,0.19184141829021512,0.6185802737484352,0.93433563585808,0.7245830757309482,-0.6801413061287171,0.4333968005964397,-0.09970164011166793,0.524331431958882,-0.45806207033019675,0.05552678089067262,0.9760787814081767,0.023901123244843957,-0.6559776380896809,0.8809294043022662,0.32454678993757313,-0.8762815502918236,0.8837605855573029,0.8563518692526441,-0.24688354539862223,-0.7456674437157815,-0.5637919215603096,-0.21151296686375698,-0.7418451712404921,-0.8930046077627658,0.8123986759465835,-0.13620982599695752,-0.058985964790904344,0.08885204171855055,0.20555031641271526,-0.44248753318855405,-0.7694234726714781,-0.5395954614509836,-0.927815976481461,0.5455971831102278,-0.7491638571952606,0.3344137500214007,-0.04801345426141053,0.07146174207506455,0.8211232237623595,-0.0264221332177717,-0.03665398486291769,0.42148475351640285,0.9467055105787765,-0.3875415437182984,-0.23488466618500015,0.4937881326104496,0.3883884394761372,0.6168117012955032,0.9060088589891291,-0.2992863829839214,-0.17248415864385258,0.5489279569192895,0.9115906576631048,0.28792678227823343,-0.9455867833672449,0.013699559304734876,0.4218067545780637,1.013527352520966,-0.42562688864150056,-0.5217244821552394,-0.04827454558566723,-0.006324209848377199,0.34691960322965265,0.6334114045982919,0.23277079933791026,0.40496670075132624,-0.20670759322518334,-0.00497630717036919,-0.5267824165619298,0.8339989478538548,-0.23879277184495434,-0.3751452843676089,0.7070507061376743,-0.9936770242652964,0.9970505607510951,0.013929722700729563,0.039445393911722526,-0.7158491263037217,0.9717623306285259,0.834710573548711,0.7642073455642242,0.3925304986709115,0.6223869361088128,-0.8770671006301618,-0.2118836096968102,-0.9910456160507883,0.27048849161544103,0.6792366005194437,-0.11749527208030063,0.3328561948291666,-0.7846952968299208,0.3678054208720254,0.9406881616343206,-0.5893413468410428,-0.970243806241789,0.6819553308653301,0.19240170883930585,-0.871523760342601,0.9238065383432924,-0.055663751393314476,0.835523521361536,0.8149002967244576,-0.08080659103141974,0.26975013326508535,0.4939108256471636,0.4638071988729111,0.030128352825637084,-0.23130241176068678,0.05564276201184226,-0.18223672689232995,0.6062750650042283,0.9753593030624517,-0.3081200470841132,0.7977248466228826,0.9120842418741271,0.39773997464479205,0.1325484613947694,-0.4902872186166283,-0.8018438637588643,0.947035754318255,0.9336970067708634,0.4019295541816228,0.6163659265003849,-0.20940346557557965,0.22234677473874423,0.832707097833738,-0.9955527006343814,0.19822323055418245,0.6098932223669271,0.39076438552121306,0.8182370058089306,-0.6187052707473808,0.4059430219926945,-0.007557639251071446,-0.1368943803721807,-0.01669822689858247,0.9160351917898337,-0.18990634952721175,0.4598457242189977,-0.1746868322234456,0.9661652483738008,-0.21363587792768657,0.021810330289333546,-0.8018140742098545,-0.9082022768599618,-0.6800906125837458,-0.8321061215354684,0.25927312935967173,0.6061860932371732,-0.3699722817952735,-0.7706934755228505,-0.9573131753814641,-0.6513541574194908,-0.16260308464400275,0.09197969401488759,-0.28124361857858293,0.3996665246941973,0.7101477398725322,0.6481550175121944,0.5210168854967514,0.02675984531037301,0.16517476392509156,0.4404591659735977,0.7005705137092084,0.0212305234857757],[0.45334954918458115,-0.130756784953864,-0.10162442994581555,-0.4014154159990091,-0.19970872210545476,0.22938668685757646,0.8984886656177,0.6851824552998727,0.3339859920286927,-0.8050761856624353,-0.12634420192778917,-0.29662916565570585,0.9457149967068497,-0.20514888037324086,0.6040662194482036,0.5283308215904627,-0.9255857644395533,-0.98305434691633,0.9905564707210166,-0.6175787999685123,0.24884156160406468,0.6218441408559272,0.8941880703277381,-0.9676663584593155,0.10517895350728956,0.33412983811362285,0.7367094494221034,0.9605150002446821,0.8767431214806654,0.7443650171149154,0.5949692398699642,-0.6219624901865224,-0.3646752992794351,-0.9745995705583734,0.16586425744502264,0.14772605666433458,-0.793294901627394,0.8622539975995687,0.17971330831983812,0.7119025750518833,0.2443490886148023,0.4675512351708191,-0.11131473401294567,-0.033104588325993056,-0.1806751172966523,0.40623883183504894,-0.575111429445835,-0.606224847653551,0.45821971546122686,-0.9901205121467274,-0.2198450906997631,-0.26855064308354093,-0.39589031592753576,0.846102714532873,0.6507435521951388,0.758524618777709,0.8040165649247917,-0.6358718039911042,0.5908759883050911,0.0481817535945579,-0.16205413799103763,-0.5661605502710194,-0.5545319497307353,0.6220680625925064,-0.6583589146638551,0.23633176093268826,-0.6982725133562888,0.06374645238620058,-0.47413488982974616,0.9096079736304512,0.6724181004389882,0.27217430359226746,0.5652627930295444,0.4508984868296002,-0.1879806368005288,-0.12321933425265152,0.4743365399433226,-0.805859398100008,-0.5588810748143671,0.25901234176545396,-0.5495374350146727,0.4988698777868019,0.21551560150346916,0.6526071973371925,0.6980760994556161,-0.014355343201843063,-0.6210757672331244,0.06398698024357152,0.7912524639976244,0.6751134449002834,-0.29314535642918527,0.42558269300638374,-0.292693140881759,0.5059321295307639,-0.18898237397050188,-0.37322391570854485,0.21795971119897084,-0.4336898376676501,-0.6332634906071997,0.6464805435421219,-0.5854228891523579,-0.7760656449365722,-0.7713839329246239,0.10553299267799154,0.9360636443557011,0.20593814884804162,0.3015644674121285,-0.1665369879436165,0.07393987203379515,-0.7222878846058549,-0.9850651217285442,-0.7658970888835728,0.04657085828175678,-0.2883791975716945,-0.3142744301326843,0.12286677329411466,0.9554908812578349,-0.6747822146571125,-0.04632227144550827,-0.14213040704829227,0.3617251491804714,-0.11184926883966906,-0.7767776003812874,0.5333657527504156,-0.0063845909719808525,0.27674939473973614,-0.7819023101062483,0.33743651204552494,0.8758517851367027,-0.8310193873559144,0.7726492246639838,0.8336927007576773,-0.32942501597976603,-0.28612546123758476,0.4354022058486322,-0.7075214058299748,0.9268056215757619,0.30350854356047297,0.18479463977949795,0.954075791714661,0.20739310523631005,0.7342010151909437,0.47173989666315785,-0.1646464013929223,0.6143078531431407,-0.35784556092469266,-0.6373700684094397,0.1659008903047341,-0.01536471678752882,0.4380369603851455,-0.060118343426752485,-0.40855787891093875,0.7759950043890229,-0.9912084650882549,0.9663639441798577,0.3480952789530929,0.10451575943821423,0.6728350931119356,-0.6210483582073087,-0.46039409916512763,-0.9847721980667177,-0.060503426454606046,-0.5227934620569386,-0.6638588595840491,-0.36397856096532033,0.8255929369860864,0.11096797947667802,-0.18910806906982236,0.004534873069867107,0.10364212224517333,0.36374050953463843,-0.39127288119975834,-0.43926349839094936,0.1463640568601341,0.8676421929646811,0.10230700638213674,0.06254956645788434,-0.24674287833659925,0.9401685290316966,0.9389604013446262,0.08877218134689446,0.4199774045646847,0.31012313672911773,0.681559535607057,-0.5551869147597044,0.9898968703999418,-0.4664205317751522,0.4168623843029988,0.05457068136968157,-0.332281709881292,0.2640935315922306,0.09080594552196652,-0.5566690440729114,-0.0727365864427032,-0.7327596871412281,0.2486493609268492,-0.7217058325279582,-0.924652682541272,0.7925353087215838,0.9331697515548516,-0.7201384102472312,-0.10827201132128694,-0.5754286881643926,0.7875879702435196,0.5448198704063065,0.6658187080472286,0.9005675009676386,-0.148305755918138,-0.7447718608059724,-37.36265429172414,-220.78489742109463,-476.22109469212046,-529.9911715869679,-530.1432411449838,-254.53337903549675,0.02318241649127506,0.0015647445813917749,-0.26159581865029846,-0.3735335323594997,-0.3894692293353339,0.5979890364099498,0.11013676103697412,0.07046800767059658,0.8848638454643694,0.8602336522353209,0.1691292002101843,0.7472388125817124,0.5002788428958604,0.33876077941935856,0.5967904607404453,-0.8902809792841491,-0.4844183923930738,-0.5093622365636641,-0.7493365096698219,-0.6744890861848667,-0.9023918718592885,-119.76869595331198,-416.0257055642991,-530.2711415085467,-528.0361483930784,-526.8532228291913,-527.4449973653216,-527.1178414049791,-332.798535998399,0.8198669229912352,-0.4080967904014847,-0.1866335649901405,0.5336445383018771,0.33102111856032757,0.7250671309159089,-0.5591506974658675,0.6722501778569243,0.19796800963955574,-0.5035110817040991,-0.7855018255540571,0.7232577812162413,0.1900069322413227,0.9253229417935493,0.5224260421169378,0.34915772541212853,0.9823822859161657,0.7278362618742458,0.5291370504751627,-41.799445822258186,-442.8551327534411,-528.1648044545517,-486.3946588225281,-318.51937360593996,-153.51161954786917,-350.10474870526804,-528.3453279142337,-450.36199844504665,-12.816652370997824,-0.48495694050763083,0.5562123005421249,0.4914139983242287,-0.08432638356315758,-0.2424832192251003,-0.7001631188212682,-0.7248497359313042,0.657929039647422,0.7651498733520943,-0.5491356044598441,0.768275152465066,-0.4250493937092439,-0.15389862354947104,-0.3120680112532339,0.8691661330519262,-0.6563658356197513,-0.6029207773050338,-0.6283301752998676,-412.6095061866398,-527.3052126751309,-381.7940789579074,0.5054789346361983,-0.3009143621245749,0.6001401077891693,-77.09315130723478,-492.24582713739085,-509.2211097333895,-98.77251647706487,0.7053789675936892,-0.22232845728218686,0.8593478995820192,0.45271222885411255,-0.29867972539346166,-0.739340903998436,-0.623894785096994,-0.7467632112885316,0.41609781704680104,-0.7508855901842426,0.33220297792480125,-0.36988309767444294,0.5646927590332567,-0.8060139048067243,-0.07028769189392081,-0.3991281915700755,-0.2081840477782433,-0.20304233009386774,-393.69962514757816,-528.5327845317144,-215.4756584689666,-0.28022708625586423,0.4784050015961685,-0.6953897991617319,-77.43107365395588,-492.39741547490274,-478.61712235766566,-55.63011346417148,-0.10320628652798192,0.5130929266564381,0.6582578329053952,-0.6081544507829353,-0.5625575002789303,-0.6891505483414426,-0.3706917004454304,-0.1444715877257674,-0.13558979992748776,0.11924685460532114,-0.30513530580607373,0.008216993406168882,0.30511653012423245,-0.60320004499455,-0.3921213773758896,0.5814619531004022,-0.6145615120366661,0.3089492887882188,-395.14733269503716,-528.9705638774584,-179.70000615875162,-16.52875770568826,-89.51337450503146,-290.1936493585044,-397.610737118886,-440.9646035912733,-93.78870106673203,0.8981411923378371,-0.2533991070258095,-0.5676718383382968,-0.4114279299346739,-0.21655507813202934,-0.30257625000868904,-0.8370182241408961,0.03404388975274708,0.6386544470671596,-0.8953526614629275,-0.4509744906737372,-0.4732730499812403,0.46544569272785985,0.05336760830247167,0.930020262565805,-0.7002508104757426,0.06983097561623808,-0.31953073042597735,-0.6106640387709947,-485.1391363149408,-528.5553256824325,-418.6895340865666,-421.6966239734457,-527.3340785435981,-528.681379484804,-176.75175336950153,-0.7958016221044333,0.8296764891017636,0.08816643709734695,-0.03459639740466747,0.38272171910664365,-0.5877628315992451,0.9997800853436001,0.06093985046255357,0.17679761381408587,-0.41253334603153524,-0.7562258067934828,0.6034254514959771,0.6415331082970015,-0.11117430367275682,-0.0939608168981576,0.4916235713187471,0.372468535037886,-0.5258402470819674,0.7874302024985873,0.2924766538001595,-0.9168450156564991,-445.67298877265205,-512.9489480135362,-527.664726212616,-529.5759292321075,-527.486938432506,-507.5401837998965,-88.95278137129682,0.6558444605503291,-0.43142399604479076,-0.490404770551256,-0.47998602678472846,-0.6388463236802111,0.7007328725378965,-0.49384409657806083,0.41440872599977974,0.9888421332808512,-0.33034564542671907,0.13994711703399076,0.7136270066396033,-0.7885689950459733,0.07303815030792071,0.7680495763717339,-0.1857471580112846,0.380226153113397,0.8933581327993716,0.2080770188893446,0.6696500645232781,-0.848585403261926,-0.38990281943732263,-116.38653005199824,-175.6524325374599,-530.0763747956375,-527.1825238021701,-335.43916882001133,0.9580793262265614,-0.3683842638449719,-0.03156033261398772,0.2601491121761752,-0.6661777494869816,-0.47206545292520463,0.6393742075344586,0.9753116292844792,-0.94362301531998,0.9896121174562955,0.14587678745681476,-0.1685253841059291,-0.7956989425450636,-0.547279742383636,0.41419230506215277,0.509374941594372,-0.4169341942217999,0.19313312860573673,0.25707778898852585,0.37044254794863907,-0.6440360258151521,0.11178801911154235,-0.5336331810963943,0.5848704359341372,-95.19644140715124,-530.690037613747,-526.9204271153957,-80.44406017230622,0.6609822369155811,-0.5637609528119114,0.605924943036507,-0.04801400663121802,-0.16895831189878008,-0.048757665822491525,-0.719976407059221,-0.5438677217727133,-0.22831411557281012,0.3582898426546106,0.13072307633884428,-0.8013313351210418,-0.9035001936472482,-0.280395289425309,0.6716028791619619,-0.7810162064740584,0.8955697028777267,0.05023329088248163,0.0038745533457009707,-0.4422505553293057,0.2348461425460613,-0.30030155796501434,0.9188925662837422,-0.12788004817608423,-186.02521913136593,-533.498384998276,-530.7684938331842,-79.55899402000166,0.7015713474044083,-0.8335954556092728,0.79594077569352,0.055674610983337924,-0.9056435435168968,-0.4260570328347435,0.10202701419888793,0.8306888217250799,-0.955183574280059,-0.8526725222935689,-0.110040256381017,0.9044641606956985,0.4168109459656999,0.6969321581258128,0.5273188629739933,0.022055840406030036,0.5015492387238552,0.11079363149093036,-0.9384704147984464,-0.8349731882626434,-0.4677444012273937,-0.5969111943248517,-0.0647703507858961,0.9458616209490143,-166.7006089981347,-528.8718126984477,-396.35325899126155,-67.2560631598586,-0.39767102367397733,0.2169827640280375,0.7371043888742226,0.6328412196176454,-0.645847500193792,-0.012703868021217701,-0.38742041930775883,0.09397810407841956,-0.44459650822194385,-0.35652266105151575,0.053499573908112996,0.2376321558045582,0.34171478337757044,-0.6642028381946488,0.5222442718232863,-0.6054400426695508,0.6571181927246639,0.7588000854930921,-0.2167397551041237,0.5885647557264404,-0.38253238186200544,0.7740272017604366,0.35596565552661996,-85.2359873769169,-374.4831978793471,-485.9046846547515,-175.07211007538532,-0.8892435182844953,0.37082804327851626,0.9535609819209285,-0.7132272236184063,0.3721152503218992,-0.6358507626719887,0.03424500754719784,0.4736072069056494,0.6272728353450021,0.0410487489971727,-0.7962904894598557,-0.8052312072998005,-0.04273135605668177,-0.06152556395453157,0.4909347924087686,0.8571256164356762,0.2851974340183463,-0.04926031341930459,0.14197772581753787,-0.6270372766766874,-0.5894852833138691,-0.5747360786148414,-0.47190684512861614,-31.730674978136754,-470.71222035534765,-528.5833818038169,-241.18325284156185,-0.45696232594306796,-0.7640611298562043,0.24832541872642455,0.3622288940920422,0.017066106819744853,-0.9738979772004375,-0.13838336745180158,-0.8252247195800462,-0.4734374470714182,0.3729007090877947,-0.0017374526960338699,-0.2769130576610275,0.4683381025043021,-0.45024631099226564,0.10314822778959831,-0.7176563413218187,0.9581080349786268,-0.9917702911306838,-0.5100892068960805,0.581693524794825,0.7799749623340402,-0.5879420936742159,0.7301543988629859,-0.21022122113890385,-319.9127311594967,-528.1747706522677,-342.91659666598815,0.7162037201101641,0.30141462687189513,0.6624548507314416,-0.8656443040703876,-0.3482816127197803,-0.41530752834593443,0.14830049416212487,0.12934916534649865,0.6562133482046821,-0.07433648703308204,0.657825153373103,0.30981080833328356,-0.9411524951903609,-0.6714715427456679,0.8659212068611302,0.989754863331981,0.23086558111965605,-0.517681684604093,0.9081825396870515,-0.5874463352189685,-0.2519522012973212,0.6270026795241019,-0.20757817276988177,-0.21523592980156625,-141.77266164184493,-513.7072617031916,-508.4211391164735,-166.10479951157868,0.0039619599394988825,0.3398792408950104,0.024545763484791205,-0.20751322443956433,0.8850157110428669,0.7101143141900832,0.008595579292151267,-0.6412135396564596,0.0997779121676512,-0.3858789924780264,0.15594573004766055,0.10074107411885169,-0.14783846498426056,-0.4207639944264967,-0.8465353697712277,-0.7254283974006177,0.7744444453926378,-0.8419021616786484,-0.6098496925822747,0.6651701278689233,0.9254461185891865,0.5562120466552369,-0.9126726740501354,-66.3676885818198,-495.8803183433528,-513.4783596603496,-171.746181180582,-0.6278076258129057,0.007223558152118059,-0.11306050569367576,0.7925698519477651,0.1847160123639906,-0.24068554122720265,-0.9213003564000446,0.197997788994988,0.15211891761902985,-0.13394894255913536,-0.008477902456935471,0.09963475823275436,0.008412019998646603,0.07400331956063155,0.3897970633137029,-0.9839990354884462,-0.034322059841299435,-0.7058796165021626,-0.10000925295918162,-0.900119721906274,-0.7196513266436564,0.5444345020055588,0.9866539528382146,-18.45841769011628,-310.0522043466561,-527.787215955951,-353.2807183400462,0.40837344459837777,0.6484084026665498,-0.9466749676895865,0.6522341678232695,-0.44377839083346515,0.6584902119098848,0.24572871811995833,0.18482236761401305,0.4168801883639852,0.9904563129487092,0.16480081801529867,-0.24445239981756917,-0.04946307932590788,-0.9109554134114237,0.3714940876564836,-0.5310082909568958,-0.6983349648874966,0.03877989037444962,0.9831717942155125,0.6155883778775921,0.7844760246257816,0.3712078711351037,0.6505932715763079,0.1415849762921213,-222.08406235258576,-530.7719976201334,-410.66483915253576,-15.346806239162412,0.2084471282751421,0.5977827111819622,-0.9833453725602141,-0.5378687454697593,0.2798544574510209,0.011583843652154702,0.1635540166568452,-0.8884105772557449,0.8083091820844182,-0.8030200588448477,0.7277650372449243,-0.5608576553535678,-0.054286628788164926,0.42042745608361054,0.8784291088794682,0.9066851697904239,0.649554767939553,0.7146413308861566,0.6699523214761638,-0.779000790148157,-0.10993363649291643,0.07060770331004074,0.3387054363583206,-113.62212802142376,-478.20871139304455,-269.9024757349043,-58.95714594302565,-0.9485616201318168,-0.8158508764751691,0.49479521807755855,-0.9776712326845156,0.39385284844759116,0.7494816700491818,0.3479722754736687,0.6633510636959565,0.673330168316757,0.7824505858116684,-0.9836664601192902,-0.506003891381194,0.47961414184551066,0.3585544383467769,-0.6908828850309159,0.17967966274571667,-0.7979388960497422,0.9320088787320446,0.9966053727181667,-0.10251103114964089,-0.4439806164306366,0.6976304124224741,-0.27631597572316524,0.4232092653837709,-0.854926142266732,0.4412451675579403,-0.5313232335773947,-0.815867675008926,0.11403866514910055,0.13973644562094245,-0.7385506238773316,0.15144722997601212,-0.8753311406849651,0.5841661828569626,0.26866960964811737,-0.11384453599244138,-0.6415001426285949,-0.6612049521555026,-0.5392786909614817,-0.5422014483300703,0.34564705412718677,-0.6877255889974654,-0.5226035711913948,0.3149342133865587,0.6618913777306159],[0.715141835758065,0.1000998326594047,0.8506246084488662,-0.3986041756380261,-0.6769819719241568,-0.16851775999238194,0.6677091818311722,0.11107494780749327,-0.47119727427861235,-0.9720785076682477,0.7595967976607083,-0.07288965112586698,-0.42263452904744536,0.21504784786920794,-0.7561558028290589,-0.3811488848093836,0.2646018107732542,-0.7766718388057492,-0.6230486455468434,0.47554578484363175,-0.888710371487111,-0.5039522426146608,0.18305566275330332,0.23569292585725332,0.9712560318487884,0.5347451332112376,-0.2789489189895029,-0.09109446657926634,-0.2675831985087802,-0.5400145825448415,-0.6189705861865771,-0.5787761808623824,0.2512887999750628,0.7045650066731315,-0.7752166050806091,0.4533835735325047,-0.8552335545885827,-0.40083767951135174,-0.9072700012987105,-0.17976719725068557,0.5368873270794996,0.3825039003463018,-0.5591043666060349,-0.439382135587429,0.5119067944332398,0.6704554953122321,0.6226598640561916,-0.20286998287639557,0.8524185498831307,0.1537120787532693,-0.2790219365397473,0.10221570682847236,-0.40946457261557034,-0.3872927210697208,0.8415527299909931,0.5683442834682908,0.8422742028888912,-0.7245678842300931,-0.2211854791487129,-0.9478399828947994,-0.7182732789725739,-0.2754010526842876,0.10488126587956348,0.8028431635052851,0.09350710436350118,0.5302452710644721,-0.6359861016095825,0.9178553985898334,-0.24862444641085713,-0.669838963551928,-0.8006609236624054,0.6648257072507651,0.7649619190320167,-0.43230533061310705,-0.39619192816038495,-0.8972167892333909,-0.9599001976057102,0.9947888813424131,-0.5740368825378837,0.010472842152161821,0.7941018023654123,0.09050056941376505,-0.05638627856104783,0.43505168954819196,0.7527141220464548,0.35626566643199187,-0.7046035733042615,0.6670432945847562,0.21651953842417582,0.10737935126782538,0.1637736237415588,0.9320371629006798,-0.9407122976170701,0.36745938853251214,0.14910869413052108,0.3673483826168904,0.8459858428680271,-0.18997441879992483,-0.4095444203962777,-0.6266078277883729,-0.8657718372744871,-0.055664442045133544,0.018357988692831118,-0.08581886432542474,-0.9115340337967042,0.6070194171832624,0.20507720837041976,-0.05107698488094847,0.9255559320358362,0.49087365360416024,0.7569815304224581,0.8019902648512747,0.8307297582431157,0.664103521758006,-0.15059577649073796,0.36196226757062755,-0.4368119321011066,-0.8362556681079671,-0.800487806255338,0.9793408465847686,0.8342065866956054,-0.7883520983897738,0.06271632450975861,-0.025736347535172843,0.5675659656058505,-0.40675663583606525,0.9192253208179944,0.21436141303880607,0.6373397472648996,-0.32843300550016163,0.0974073538363931,-0.3850722486594478,-0.600447133328482,-0.3955303805133701,0.9568554483793856,-0.9802926040061117,-0.2596839310953971,0.7561200818022824,0.05509900849536464,-0.5506507348939418,-0.33718326775133134,-0.9908315243597579,-0.08294791344600627,0.6415537293756803,-0.7916932647406667,0.4926801432549053,0.885855713747461,0.11077628348581703,-0.6269594277750361,-0.5036350188136764,-0.6565231240561742,-0.14420496965007645,0.125898016973657,0.7781501399096671,-0.5243613642360154,0.10111533151908828,-0.15960638950909764,0.412385829304292,0.5324391697798649,0.5706992046763603,-0.5746140231127592,0.8367615962742434,-0.8634029334632984,-0.8862502662133616,0.11219157092263954,0.12550975113921092,0.21438089808550487,0.34292855962844193,-0.4472028649834865,-0.274208602298168,0.5639442350751089,-0.6638503689083128,0.19499784253853258,0.48931182989870603,0.5580497655010737,39.46429086416913,59.24872567236266,39.24326040170237,32.598584721220845,18.707334685325836,8.489545917437312,-0.3718820766162353,-0.38803229149645835,-0.21519329451691727,-0.0345746752491044,-1.1623616915770527,-0.15355908156312348,0.28318880136861263,0.7934679315704467,0.3454071648523196,-0.8384107808531458,0.708208463802944,0.07259344262429135,-0.8171610916164624,-0.2810045688928864,-0.26561257345523615,-0.5531257877531397,-0.4892896178565289,-0.8126036964507928,0.1123985570503061,-0.0071268642512882785,-0.7260361160010858,0.459810720758421,27.579935520311146,44.556951949809175,54.32323491204636,59.44725164797843,59.63951904935386,58.0304295501383,45.836731015457765,26.2635528011448,8.901978168865739,0.08460173391291104,0.038438159618209955,-1.1084361667412952,-0.36463155887402965,-0.4031494421469606,-0.13884792106303845,-0.2699700085482273,0.6713977670641018,0.8199802456291234,0.4860700460023488,-0.526444656191047,0.33065338574249736,-0.99205658555295,0.12093085832504835,0.7433677418345828,-0.963526184883472,0.43507750369201537,-0.5045243655229745,0.6531050594289955,-0.7584081276800885,0.48337084713892775,5.054209675699668,18.83034292361159,38.770780343090046,56.7457718716711,59.14653004553664,58.84961796936424,55.25294344660401,32.62850665835186,20.362910459335566,1.260994280563061,-0.5354346038026555,0.028815757528976138,0.756295741265121,-0.946468166532155,-0.9645321071271815,-0.9770793837362461,0.7406170694152752,0.02824845411471122,-0.3152014450764469,0.19151469072349592,-0.7438990185006293,-0.981696015308513,0.6621599135630447,0.6310775279280136,-0.32362642951669773,-0.16283561929520607,0.6072731367722115,-0.731417719261553,0.7663651712229931,-0.5068694751139252,-0.48623117057119425,7.064847936693026,26.744698123432034,37.82444418729394,59.75877528541763,59.486707291265716,58.16875043794959,23.202280727933537,-0.1527285893156206,-0.4879488746404649,-0.8068248245292122,-0.7337839143402802,-0.07488170441074704,-0.4438829321322726,-0.5788155521691638,0.9708173026419988,-0.7887645727041774,0.8048236131658038,-0.4489549517000828,-0.5681320798432683,-0.8620289802485792,0.07145552651279541,0.4384323956263261,-0.4362959637419679,0.20835686710021717,0.01475494038017322,-0.8198433725326766,-0.16650131830645487,-0.8052223341300114,-0.8545155667160668,-0.004281410590929818,1.6877697477556175,13.040630681989775,58.201220208391916,59.334041731246245,9.013888135753032,-0.33647488194801733,0.5457897619109263,-0.5899420130418682,0.2604706911205765,-0.12567734220770976,0.48821113823451645,0.24367217272919728,0.6965336742881747,0.2832387826769698,0.8491222561384655,0.532918329843207,0.9743502805622914,0.3017085965357573,0.12342910000914831,0.4365160009050011,-0.677857161751847,-0.05679630290657345,0.5164073540862875,0.16747867192396232,-1.0677143924610024,-0.8102446098401885,0.9217182304398679,-0.8572638409435136,-0.6983566614684844,0.29514745768828377,58.59185604457035,47.865998493460395,0.7640984379103094,0.32625234412769444,0.24315351156075404,-0.9979652351248478,0.6689277873826196,-0.54285468944457,0.4366324386752023,0.34591241130343064,0.3017578667852723,-0.04777895866385684,0.8742153460017534,-0.31058997842581837,0.8578819080829478,-0.4494398357969076,0.3496656655733603,-0.6497176338419641,0.48240477092668677,-0.24476058603701834,0.4725244420688517,-0.5722752644995892,0.799104948745696,0.9854631925933073,-0.5520291075879453,0.18915911912325312,0.5371150127637248,16.133244274801466,59.79421525297463,35.564743178633194,-0.6540244651302732,-1.2978755239652422,0.6154040344892205,-0.7196262602915571,0.6907890458253112,0.6895446371497944,-0.18435251232591865,-0.7507406336874709,0.933155360581555,-0.8898018062963331,-0.9231006610468007,0.10626925981091473,0.5341977463292196,-0.15512244924374308,-0.9060354551892975,-0.9566152991528427,-0.30130252078233566,-0.7796391729775536,-0.7038709183723832,0.7100167154138459,-0.9893420166535094,-0.5681743721008914,0.2802566718327326,0.18484007299925825,-0.5252050316436617,35.19672212678103,58.12616832691758,22.57006230140027,-0.4240789787926619,-0.09664549709952225,0.9343927656820461,-0.1584084245561379,-0.18960596987798572,0.14366343001130444,0.2363525425124986,-0.7713629755871243,-0.4777379641198167,-0.2628354360150267,-0.988391182441879,-0.9850800821232131,-0.721221712468493,-0.8774690467680704,0.8879067924160342,0.9376880915486274,0.9310729691770612,0.9685761902616128,0.15515147355901737,-0.9645694589702245,-0.7016170237200399,0.3543959450599583,-0.5414870290079414,-0.3330971604329429,0.18398261029309682,46.48504531541774,58.29627799216506,3.0937711648788597,-0.7013233967638416,0.34641495959548374,-0.9029906445609579,0.9141208160422947,-0.6600301869828229,-0.16676358440067807,0.47537793936814765,-0.37848639634061065,-0.5691145349727385,0.8255970441422789,0.0908046222530241,-0.8744350756970483,0.9482272718461027,-0.36708702723175923,0.1463455404817755,0.25719914391969434,-0.9797019867905052,0.012134755612471793,0.8900400089505347,0.830494054162449,-0.7997037613467617,-0.6383944699172096,0.23463368349501534,-0.7710426708028434,3.8192745043820118,58.43145963505675,57.532836425155494,1.2760217559294866,0.043413832512882,-0.7120062827679339,0.6705685354352635,0.3293765341912196,0.2399021762632807,0.19742718397742465,-0.7585355830385678,-0.9149740976247656,0.6104870103111728,0.34792520501960444,-0.9651234078871735,-0.24125910767344472,-0.42105535917978854,0.010234431886889883,0.4719611272490716,-0.19254033002786697,-0.32413594442478333,0.6581554153224252,0.18164051662529762,0.49846406335245097,-0.33356967963599715,-0.6842715702330171,0.5125960639053451,0.3884117365157542,4.144662933895165,58.62160323284878,57.53942227388461,2.369675203263189,-0.49082876313516677,0.2995556620930121,-1.0779478462655172,-0.2895107716303812,0.22289625559048476,0.29357320990752234,0.6499955122039482,-0.5565962994522136,-0.8094008567797344,0.5665509838013127,-0.8531703030655291,-0.4801287616019412,0.617158261086665,0.532183446537446,-0.8263935128532176,0.3734637210409102,0.49772404283443916,-0.5884342848797103,-0.43798112132460754,-1.0122126407818874,0.2367758184733907,0.1703609569863982,0.29385068113247215,-0.6206172384637305,3.1163102058336998,59.222320599018644,57.9927413785676,1.0619808389817273,0.6735618065415556,0.32553471382442456,-1.3632412357087014,-0.32474610195186293,-0.017747196040930724,0.3535695650334675,0.7057249321704774,0.8484130509103172,0.998235686237412,0.21121775293812473,0.7789692317179013,0.8391942067996783,0.35653460923878155,0.7706890426684492,-0.3521580387792902,-0.7677473873740004,-0.12440997380726881,-1.2528157310646737,0.32381348711348823,-0.33996971186486297,0.7368448081620264,-0.7998554417475594,-0.5860491307310063,-0.2617915328718048,11.650488032299691,59.43767857512375,39.36986249306816,-0.8010661634239868,-0.10773950635449642,-0.6760384924951699,-0.388770365438007,-0.937166005010546,-0.027017924906162727,0.19627572158501294,-0.9940064015587439,-0.6790890035078356,-0.4961920332007117,0.41634020696939,-0.5075591125327934,-0.19041583237670334,-0.6092004633565953,-0.7520286609784601,0.5250353535719587,-1.065446387973291,-0.6914442133573077,0.32752256737552915,0.6605284030009331,-0.7610786842242849,-0.9510388332683141,0.6757686406480765,0.43700114951977576,0.061924527099585513,25.54158282206138,59.160716007039994,41.17603361153072,-0.8054041538256476,0.5687988160265336,-0.7563327671059934,-0.4189281389541928,-0.8877068261272753,-0.243434750737756,-0.19937618726687567,0.553327180210397,-0.62473870296673,0.23727971468939257,0.552001338181979,0.13836158763967887,0.6301286148601783,0.7569247758958064,-0.4996387189037965,-0.3548099925248911,0.6043693155039388,-1.0989832366842598,-0.7056848439937011,0.21507728269411874,-0.864378082612576,-0.3183616015703189,-0.9541149710927318,-0.4815398600556767,-0.9529579480935585,24.285103381475675,58.02305517347715,41.03089999974536,0.6449065061184003,-0.7632309984223888,0.25269989484564404,-0.3834453317997015,-0.9859176651723582,0.17854979946501093,-0.1437244497360255,-0.15259256875791483,-0.8249905347490043,0.9604514708310083,0.8849077060392081,-0.11949765367920451,0.6389318811431268,-0.2887597066293561,-0.5224271267956508,-0.5327002631669093,-0.9888865438634983,-0.0296833575242742,0.11125549808336144,-1.288760364984796,-0.9324069569218213,0.5148927407795838,0.3264382270237204,-0.2943126100002965,-0.23448254437035254,25.289058760947583,59.14230074510577,40.584257417486306,0.06181777447477543,-0.42497851746321036,0.3342437406292955,-0.9052764980481371,0.9233382830814056,-0.5346076933200554,-0.07508484729020548,0.5121403764939467,0.5685814658072714,-0.014401067368849496,0.4714310093202623,0.6927179951037572,-0.8288884224705444,0.5191079437290966,-0.13880211149244825,-0.3058515653962455,0.3874273166339415,-0.12603866511822967,0.40622606973604547,-1.098666246487626,0.5027767213672624,0.8362479726161056,-0.5317344929827144,-0.3210291953606248,-0.7139298435720383,24.761477895105436,58.83924966258865,40.0633717381225,-0.9784018640178065,0.0743329760598761,-0.3081956406647586,0.22470115005033087,-0.4909119480106665,-0.21902447938121794,0.5732060877485163,-0.6913793642650412,-0.9055691212335741,-0.9236674108699328,0.6566793406631732,-0.4589186915467871,-0.8514631040158536,-0.7470399004778483,0.9238710007953919,0.5060141487617038,-0.9771541931226206,-0.30391315293414767,-0.1750661911308682,-0.5284607524465939,-0.8044208959284123,0.9928196987028386,0.8608159909765094,0.10316261508009639,-0.3654471005811648,9.23543219487929,58.78057940940744,41.57429832575497,0.24486067149350665,-0.8135430260361325,0.582866800689096,0.005980625048366939,0.2535105005998264,-0.8295226492634922,0.5095437913691794,-0.9264748613597487,-0.48725626191861515,0.9868189657645652,-0.9691014839694629,0.1690839347960762,0.2216892256572498,-0.7608811508551585,0.3514428851248761,0.35934814286147576,-0.31154309878241104,0.3837418659330303,0.5957263588145896,-0.3058070512973705,0.9275630782941326,-0.8546305739271634,-0.621108018400736,0.30373950613715817,-0.9879969286661239,3.9770086186517144,56.96616351174976,59.67698798329633,2.782596718035175,-0.8872543274637206,0.3431852829997144,0.7429777145442951,-0.9672980444686408,0.9851536388429563,0.09482631457378421,0.9266146321633233,-0.2935910097102705,-0.6526161099787653,0.04054169090206372,0.2585541551174697,-0.4930901189662382,0.17361404574806238,-0.04268366600654039,0.881318574513061,0.47479933062597146,0.10199302214740147,-0.05356802965423535,-0.3679421857736336,0.28431611380682975,0.3737481497485331,-0.9738445233673962,-0.43998213182487245,-0.625157789846825,-0.49496951542372347,7.682829788575759,51.85710364868736,16.591395589877887,-0.8690864957792988,0.5379927643879117,0.5338364980612642,0.7580096446822093,0.1300021528436197,0.44963952542530095,-0.7865574222355805,0.2815971936193855,-0.44491201080169684,-0.8230541779477805,0.12286764988420007,0.46519965398129504,0.35342775010735794,0.8569952769203506,0.5066398379651953,-0.4549417350814635,0.34363432412730655,0.6112426247515241,-0.48768117749421913,0.3035759437264658,0.024492411852099938,-0.32674991044153945,0.2740967714494138,0.8721086072174611,0.13110324309563692,0.19151545163744954,-0.8387143540959157,-0.6337541871515175,0.6381070060245415,-0.15363233547901567,-0.7399794854965847,-0.2372418542830439,-0.8123573883528064,-0.30946555511177154,-0.8055568115463871,-0.3293515242852414,0.7093169340672612,0.5546705125263527,-0.34959115907611116,-0.31784395776517815,0.2590236983001102,-0.05732743911528182,0.693634023988221,-0.7135177336707459,-0.4243385823077612,0.15688158444835443,0.33603063128593336,-0.8837258873454967,0.7349487612615841,-0.12984690210322158,0.8338465177662666,-0.5473640567434126,0.8889533547449502,-0.561936020229632,-0.8764689473834126,0.6529600658958556,0.18863294058404367,-0.453023317872419,0.08141805943486125,0.21672954352371754,0.3636104114089367,-0.4631861652174831,-0.033145900032975906,0.9811635522833928,-0.010883330511171962,-0.5183765274736589],[0.9802942857626507,-0.5107923745630476,-0.7861719929453703,0.768142886431725,0.4481713280201469,-0.7649130185371584,-0.23942280222057466,0.3084965646446496,0.37257056592192406,0.6029228710929635,-0.5807096900020929,0.10366157340360749,-0.02776537001135715,-0.5332158344125828,0.8033667460298712,0.6555878926686001,-0.5152692979588527,-0.9578643068903685,0.8297783967950987,0.704741707896281,0.2839920722065479,0.6924822215879716,0.2835558490884149,-0.153227777411844,-0.7744443955844531,0.00948403845047574,0.7515023991895822,0.31623511898128154,-0.1719854744263114,-0.3852554698196027,-0.3058260839220859,-0.47664496695308145,0.9580330700917945,0.4497964369193963,0.6382165082205771,-0.8281684744797775,0.7482872902946691,-0.40345156202153376,0.18805268249956963,0.46693097716091625,0.27017534442411684,0.31340831924967905,0.9294435839864215,0.6007372150223378,-0.981967397747058,0.4438341752597652,-0.9822365794287218,-0.23865423305030875,0.5651384375021484,-0.834117368013374,0.44584475427771686,0.4745033649667878,-0.1638639944528002,-0.9998076477594648,-0.5875629555354163,0.23997322698931223,-0.6722396014185263,0.16133379220605848,-0.1636672033851907,-0.632462684399576,0.023789468020514626,-0.08592942482489097,0.34538491431142004,0.40358960586433046,0.556845009118978,-0.8909121594036646,-0.2441203952162483,-0.3677003312478231,-0.7093581659723021,-0.18982693911566548,-0.14932044501435185,-0.27257003984191613,-0.7844885229882707,-0.45683992280418256,-0.7160417965493746,0.7705543049554233,0.7807855927449454,0.4261145070000598,-0.745263272732883,0.1539347377137883,0.49843754038024857,0.32625163365896537,0.7137593421710977,0.5400590155489717,0.743549606671642,-0.8611018709788327,-0.5022280278230369,0.09212009099954876,0.3660739714180128,0.9459940871699488,0.09659546644383443,0.39813300907891946,-0.7644608251580678,-0.48750946802806006,-0.07418365456594334,0.6616967634819595,0.36056115124695937,0.4881264524620383,0.310191930534153,-0.24685968999660776,-0.6504345350639211,-0.9501999434543833,-0.22723734153853403,0.34904847802154926,-0.9080361743874499,0.2571722866703636,0.5402804207479592,0.16316686469425878,0.11802452148132758,-0.9352283932976739,-0.06492495010892041,-0.13345002939161654,-0.2387245644182503,-0.7469287301446279,0.8187099334685013,0.304878077117118,-0.5945988790380077,-0.3895239227521965,-0.5638742370192311,-0.7021483778880375,0.464685944546705,-0.7320158792503264,0.8392040473780655,0.5782834499351407,-0.74534695311227,0.36410163410433677,0.7087234890684831,0.4481759644782325,0.8109816117945426,-0.9135581998247146,-0.249397748610277,-0.20679116455575242,-0.7998460325176682,0.9425298179561757,-0.6040373833944306,-0.7820319485340449,0.3462701483447308,-0.395995114904125,0.9843621535528824,0.17751243597567967,0.9146434611065706,0.904605785199303,-0.9113004006955063,-0.059392307169657155,-0.6816791971431502,0.9436910831874679,0.30787708462413477,0.6923700922476361,-0.4840708220619076,2.1100733594404213,4.072827114131775,2.1564057863592483,-0.4024949651237112,0.2011475884606822,-0.7576714126063689,-0.17214226793173582,0.2918211589013715,0.0007248490026466881,1.0177691686104395,-0.8833066993812773,0.31366733988354956,0.49625497852334444,-0.729078561366217,-0.380507012165712,-0.5962874894167763,0.16811280192154499,0.1324503268085362,-0.01202857381375999,-0.5120049240326172,0.26594725617862025,-0.9955298582720475,0.27283447194177146,-0.5387240462446252,-0.21990397236394887,0.7833302547431237,-0.6270842297770768,2.2195787230012307,5.000065646594064,4.536308275636628,3.4540347207132465,1.6297340598416987,0.14699918638351736,-0.14005000260030112,-0.9778461438858166,3.301415844948245,5.0041269312441505,3.920328753217534,1.3504363060855624,-0.984875671858191,-0.6097409793865004,0.25346943409568967,0.11800215442629271,-0.8008375226821156,0.3538394242292977,0.28992429796359165,-0.8209005885702414,0.8508733458192297,-0.7306569397910301,-0.28745100146504043,0.9945150120419863,-0.9081235209960135,0.19541916622817668,-0.4230014159735523,0.5517256295433023,5.295247096798388,5.134715732001245,1.5344286133741007,0.6295431981146588,0.7244431556923947,0.5001807316497152,-0.6717267908047597,-0.0008090324841476537,5.184788303336461,4.524303267966999,4.104065838191033,1.1420705430805767,0.19510685162277686,-0.6150418598421491,0.802495365025132,-0.9542665350112927,-0.6705403453889858,-0.33236513629129893,-0.734785815745743,0.9341142398530353,-0.9877867915212954,-0.905674220394697,-0.5821566801457192,-0.7570152162940884,0.13513157211737808,0.09304590365547093,0.600284898020967,2.584024154836256,5.376555514645538,3.429577106529056,0.7794625797574771,-0.5735190252822602,0.8860030422536187,-0.16930527909338478,-0.673488473432642,1.3831497070200625,4.971368253051831,4.387303698655027,-0.3606192667076739,-0.664169128213237,-0.5255606096725657,0.678507870450704,-0.6677262898588878,0.9904525378924608,-0.12340465408609447,0.29236869017712497,0.810872380356956,-0.700287552625233,0.7240785031603023,-0.1901994203933377,0.08327722646967528,-0.30821756208356854,0.16617259701936665,0.23040628359801116,-0.25353321544728874,4.649721297478674,3.706753671652182,0.2610123087369191,0.7802487423947877,-0.05195267167190454,0.25638321183096835,0.30519369079398917,0.2889428728931556,2.158587105366378,5.224489944518181,3.023227625266189,-0.5689510927790247,0.4869646229309546,0.8637320412993241,-0.47842940148811114,-0.24385926361049326,-0.21034274810984438,0.04035408953520658,0.48352637973377055,0.48812340658995224,-0.8024627259213912,-0.7214792320433565,-0.2312678338563079,0.636486870150065,-0.11355376618707602,-0.5762405061471345,-0.607131693150482,0.9921284012442373,3.8407195168010313,4.585954902506611,-0.3680559765221668,-0.14957833784781024,-0.9957019682664398,-0.9474688888294489,0.02822654595776056,0.7515410811909852,3.5880686522431082,4.318582981093897,3.234104803198262,-0.9211589698953889,-0.6418144048562517,0.19792333796891529,-0.46356237445845155,-0.4807848634957533,-0.42440949408814355,-0.4810373177361651,-0.8127752849801189,-0.22862731811727688,0.9581294781591065,-0.8592329981258429,0.08632932918237346,0.40519707731303445,0.09676083638323618,-0.7023292028991375,-0.02562926885802757,1.7061908566022292,4.176411901632119,4.090780038929956,0.758842405701786,0.7125257617606667,0.6248520221357459,-0.7139981725325276,0.17749560950996027,-0.012856713181396652,1.7828615647750938,4.358087106671711,4.183591049858702,-0.7172595978573052,0.5697075896452217,0.4331150608722704,-0.30106204429266714,0.2731961993858041,-0.7097194473315738,0.4127209962790812,-0.3772595508222478,0.42011166580158044,0.4096491495582413,-0.45427935455200297,-0.6201794427610112,0.7008726435233794,0.37476683422608215,0.07845802307750649,0.12026436308655408,2.2950831524736905,4.638609622327884,5.110884205132804,-0.4814153403044825,0.8909037981883757,0.6160758113186735,0.625487408870826,0.37652100866684524,-0.7699213562266004,2.0438013681316995,4.4739287363362426,3.3692524221059283,-0.14656205983146603,-0.14036426327865176,0.06137169820859945,0.603723285019646,-0.9033216552081356,0.40910254966965187,-0.9036656937161451,-0.7847849698812674,0.8440212852976541,0.004567252175714742,0.4812497765658761,-0.7727622657945807,0.791598434331449,-0.9028912999307592,0.9434306148511915,-0.9909388376448921,1.3001207932917898,4.668974830445796,4.371449141931526,0.1481952688604795,-0.10495571471138757,0.4385723128213249,0.8909813726061444,-0.11417800299207549,-0.39262091554314693,3.2180859283478678,4.808947527061524,3.141443623842369,-0.526432027827367,0.2346449334130263,-0.6063777961253778,