{"layers":[{"weights":{"rows":20,"cols":784,"data":[[0.22258182095227896,0.7517144576868353,0.6285756676612908,-0.7909979342640701,-0.1325771445522399,-0.5064661044712406,0.965689492827527,-0.5180095427243252,0.6759049675009896,0.4266002475058772,-0.9177436148269451,0.09642117455580257,-0.6556607748620098,-0.4054741522854859,-0.9201281906188661,-0.45571028401038394,-0.6645895947787608,-0.124718761794119,0.526101708401987,-0.0207235042768934,0.1611025726187827,0.12050118353977712,-0.7683765338701032,0.2860241352948121,0.5696497579601654,-0.5911066343193117,0.2491449789034581,-0.6753477433507098,-0.1493516882566599,0.26640000954363874,0.8373759533583507,0.23677836223296733,0.6390946178227019,0.5093504111890952,-0.7106987653221992,0.28991347382859356,-0.18310241131624272,-0.438899873390596,0.8053319571207154,0.4214916750328981,-0.9567804434540776,-0.5336751821217032,-0.24837175911986042,-0.061564052706238215,0.08446250320697724,-0.6452932433160301,0.26961279365536583,-0.5542592371433277,0.4020857787855676,-0.0829045699906854,0.38568852699346046,0.7540866480288622,-0.4253094988592916,-0.33984901097134124,0.18201306811756535,0.5514112676803617,0.5735709380565219,-0.8703974675268777,-0.7441080088126273,-0.5930614182552674,0.7359461320495471,-0.3364541379208452,-0.9599369587988646,-0.9378012885119755,-0.922163476399541,-0.2267036679189829,-0.3256854954722601,-0.9803388563343458,-0.7108486718889804,-0.6110780432786673,0.15408169565673013,-0.8280793597086098,-0.30175420766261674,-0.6093867264429478,-0.6070921158671054,-0.7133158989463682,0.7059078581601863,-0.45417745675007426,0.4541749204322283,0.3517103728835207,0.37433138776217767,-0.16886816109843394,0.2814445585755587,0.27768619989852317,0.02413666252851998,-0.12089980954541657,-0.46836858046651386,-0.8637134503330639,-0.7534855542608971,0.9107114856309906,0.6297299796414455,0.35262388768246966,-0.7743288897344578,-0.392618923991948,0.181162738979876,0.9893527547134613,-0.9476033801472674,-0.6071754327893104,-0.9605413360494448,-0.9987421557610658,0.2012077257672411,0.14640044853085366,-0.6825401120081214,0.15255808654507552,0.6725679438124978,0.6851548082575238,-0.46328919827181414,0.8132959627544829,-0.8858535529134817,-0.3793151495431797,0.2654511217021578,0.5349396264160329,-0.11122696424835654,-0.10311392664590047,0.3123204050526227,0.17821237687313074,0.6540537778768316,0.6222928916052464,0.6654077967951495,-0.6768606020471464,-0.28792595545086286,-0.8243625424493937,-0.4771402803220271,0.5561650765953469,0.43574181558407254,-0.9739887285410884,0.2867413516670691,-0.14146550448423112,1.4562946002194601,0.363563145699415,1.314378311999259,0.9552152681116578,0.8852412150850001,0.9803212519799307,-0.9031984661961787,0.5443034803174731,-0.440050472778863,0.5834663582214987,0.20254870737876374,-0.8692830246631527,0.5715968119916228,-0.03498011961183556,-0.3081916211265918,-0.9002772720312637,0.39479088853190536,0.6774632523262212,0.6335362364533221,-0.0013846519071138985,0.1110709048019265,0.32415059340440383,-0.7468905798201603,-0.733416872145091,0.7234072911440051,-0.8750393675699178,-0.2283353937549063,1.0118071010641287,-0.10672620538330246,0.2951043945684532,1.6961028939155969,0.8580292569156016,1.7054564646037194,-0.2094178350846021,0.38851391641198685,0.11120389585949741,-0.417815583073085,-0.0380793246317106,-0.21965648313282582,0.005206981150253753,-0.4743299826335545,-0.39964737705570563,0.6222948353540261,-0.584807651640356,-0.3392145795991426,0.6914336586236742,-0.22530099285631966,0.2015051696352943,0.8096741593405583,-0.3223758824436904,-0.9932993770160495,0.8562333004691055,0.5191960324529785,-0.24315571187810214,0.5721487115231636,0.5732664586155816,0.3359610921852615,1.3385002950143448,1.1423686319350554,1.258356094460622,0.6397873054783948,0.8661809597077732,0.22151239830010727,0.14337533393499768,0.5306857530220634,-0.7715378615751356,0.8287025544039266,0.9874265668602873,-0.3880675378866201,-0.9496427417891895,0.8696924945561895,-0.21629729083822324,0.5695608067052751,-0.49660429754320434,-0.7765542574392508,-0.16267932865648893,0.3140710222082159,0.16036176393337043,0.6517279838671782,-0.8190468079002954,1.170528165320671,0.04433272283669942,1.2698171060235217,1.506531766580324,0.12378931302417495,0.30752603465138884,0.5613050757478177,1.1525118001219994,0.8507961933995166,1.5378118621304884,-0.1871391167822669,-0.06717645329881347,-0.5463921594395953,0.2586578476169601,-0.3248569846261309,0.6575327160979594,0.44822865530899625,0.08394536403039776,0.5154752587942673,0.93700212398387,-0.7999040797221633,-0.1586909874068132,-0.7444844314997162,-0.6147049589605237,0.5026832677412635,-0.5196762480470855,-0.8820069119403651,0.6787494752500034,0.1516850092472959,0.9992179322604133,0.044562586252883785,0.48892969801133795,0.7545383751349071,-0.6235820703672765,0.710890852587347,-0.13587350224119388,1.4067732367598988,1.6956353972952778,0.9975404469300431,1.2834560732373896,-0.7341473215286056,0.46403592696416673,-0.9051812767064753,0.7002860238529642,0.8974416059808044,-0.577973814007831,-0.45559406529982294,0.4975201321169682,-0.6975746650752637,-0.07076676324422193,0.06665586836307913,0.10433778941401044,-0.8114066274006236,0.9658156151075719,0.2718012904586418,1.5932826167630094,1.274731144718318,1.37905733685641,1.5614628495136964,0.47849573215429153,0.9604018684540255,0.7701943876618408,0.4345188084107956,1.2449584733729924,0.3007209849426667,0.3672540617941178,1.5480108931218592,0.23252823306120174,-0.8572977882084003,-0.7572754625777796,0.6931523615116983,0.02958399689156943,0.15854957237263712,-0.9890000903008391,0.09527466599530454,-0.6481117360869386,-0.966537147747021,0.5774462424912117,-0.8290539244762853,-0.65217879546005,-0.17223016946000724,0.6735431597881111,0.5251079393594422,0.15273465596643887,1.7056917065331247,-0.2620169688200571,0.5328060934967519,-0.41066710519059296,-0.19845937481169784,-0.36832996661723283,-0.55956802952538,0.6052209042300507,0.6490960447546388,0.7963381901775659,-0.044858151660856826,-0.5488405891782584,-0.4956861291462271,-0.08204502086856458,-0.5901059879558881,-0.3261297538705237,-0.3013180947961698,0.7831747237007387,0.747599064181323,-0.3629985468716965,-0.4898230308345859,-0.20576558755478125,0.39203756040630067,-0.4033119652576955,-0.5575661984111535,0.5619450812106612,1.4949093371133721,0.510342999125865,0.029810269234666564,-0.009299305234961919,0.921672693225684,0.3746825500955842,-0.9208180087022863,0.8376747155369096,-0.6940572253757582,-0.4574978675186582,0.4269020239912389,1.2886279247515997,1.7265436892128347,0.842254814130091,0.03919929760364971,-0.46418225116895107,0.656064021923418,-0.7328508324038561,0.13631826874335484,0.6403668807742586,-0.9286096482394557,-0.5753340754005927,0.618296349867971,-0.24047444299304255,0.9933900354107084,-0.8787745134876883,0.011555164391473,0.4425183872090841,0.3730765876184975,0.03598075427158742,0.9674693293893046,-0.2126243527967394,0.6149674440547844,-0.37524376307175134,-0.03919111648267558,-0.931715682487378,-0.6398342127019636,0.906212428539646,0.5068877919507937,0.8585036716142772,0.0020101776905367963,0.42816050014594076,-0.43527522748031533,0.15030022489121198,-0.801550530787682,0.7704136065327778,-0.2814794375216998,-0.02345705205075843,-0.6031603998581834,-0.38293108335724746,0.1571835678297746,0.7281063442443187,0.5769320644139753,-0.35044518162943694,1.5231131478354074,0.12431770193370217,1.1205288847207713,0.015356152774057774,-0.1666824551012992,0.9722772150489625,0.08542931225162403,-0.9187817397924908,-0.10947813578406038,0.24657106714658286,0.005698807816797194,0.41754934398514515,0.7938251705366911,0.5830461598468644,1.108657191953323,1.067228830259614,0.5081190357538388,0.9938775014812995,0.7507301298278932,0.11049642563409234,-0.6590455796814774,0.8204771947291079,0.7807457741846222,0.7426573861880681,0.2996946848872266,-0.3590763435055506,0.5794521121473025,1.3785888575198801,0.6521522635445625,1.3119129483339276,0.2989025635312314,1.5310217720914143,0.6138545676166642,0.09851371945641622,0.06471765384556503,-0.651194723413558,-0.563736989773504,0.37658712194400396,0.758879770133897,0.9905336920232143,0.7189243609387563,0.39921889688699974,1.3552522965084255,0.4516310760373027,0.8338007563960974,0.844206918064232,0.6576695897675044,-0.5266934538725283,0.08222373822814832,-0.7329166433953156,0.6717596658527887,-0.9944792844077739,-0.5868575659997481,0.5245579490302732,0.7387228200235137,0.9864326511843905,1.012735216692477,0.1946519033927906,-0.05196562905486268,1.293611454427246,0.3662799078815784,0.6102204370709842,0.9721199637993423,-0.03653558912916622,-0.4178131357899559,0.2859458158994564,-0.6804232853114691,0.791025250641531,0.6795660122560352,1.594312723496503,1.3856183867191179,0.9705286113274497,0.31178346274744184,-0.3042136647467215,-0.18519120004596354,-0.12575271770279484,-0.17940221185232197,-0.5414241008960703,0.9428244423264718,-0.5349041205308755,0.4138536639525725,0.0651418619455853,0.6572919011615778,1.739501818426719,0.18192687550833497,-0.16179147448555653,1.5584139077709553,-0.21141718777040303,-0.29948457190199435,-0.8660775178763837,0.8237913093882876,0.7482418024818382,0.8530677967754937,-0.5947648755599528,1.40136457086684,1.5797782781617045,-0.10418309762673705,-0.23231851304805395,0.9698511567155899,0.05605070800996437,0.834195351506442,-0.7576058508064092,0.881190605113015,0.4479542339853726,0.7259585791975849,0.20710814725892535,-0.6688478460753684,-0.3175949531496527,0.8950149531963203,0.46844957241728347,0.8128676899477388,-0.20528262462517377,-0.23917154019746178,-0.2541155817191022,1.028706320087739,-0.9874935132380743,-0.7777301755923377,0.4754379149087499,0.8057929728899406,0.4030862667501548,-0.21316170816557706,0.021224820236158126,1.0332749292621393,0.472394300896068,0.09210418624254302,0.9786348561072462,-0.31912707114200567,0.7950914546998483,-0.585582816865645,0.06402378346175475,0.2542057758708265,-0.844894647825964,0.8632742103907503,0.308311654428834,-0.6990783346469152,0.9321263959398607,0.10028201395276337,0.9817607757291605,-0.014749614919088772,0.3746314671743144,0.28391562626845074,0.18113740285740443,-0.8728127440289126,-0.392214405646259,0.18614397615319278,0.10947881844663232,0.6528635163509471,-0.013325617087213693,0.865207210011888,0.8070287321997124,0.7172049748084052,0.45687824919300246,1.3728333849031662,0.9732767603235237,-0.3240403713088709,0.37466985922413953,0.33683939573209054,-0.2343082661444491,0.1498906334215615,-0.14092427236177096,-0.6294017813539132,-0.40310779725937396,-0.1631867103739948,-0.13994989948348202,0.9395678097022168,0.10859534557383164,0.808958597882241,1.5400760703330922,0.15693556910297968,1.0027460045697711,-0.13194674369365306,-0.09370733636699752,-0.13864949871095683,0.2807022315131372,0.07616288505822344,0.09135511567187649,-0.16026811269656493,0.7154897279533942,1.1888592526255906,-0.010575736596330598,0.5586657655019315,-0.8295561673003675,0.5036014690054683,0.005486889198247799,0.800216166328267,0.9389638125506932,-0.405925423995082,0.11003375305780771,0.5840531839983956,-0.9086537799610714,-0.7319562741957313,0.5952708178532307,-0.7910379333715998,0.0499948587567173,0.26784677354267133,0.3151738522440651,0.7451066699770938,0.14750097979853227,0.9050902079032457,-0.16734282687203528,-0.15105272490337784,1.0753729109246841,1.680445149513333,0.037639324674073826,0.9180202345304702,0.631393014980079,-0.30221573736575924,1.0586781095271973,0.599985392554736,0.027984539063773184,0.6358635072923877,0.02346304434594959,0.5835718697928192,0.15982235726708582,-0.15881760954601631,0.9889230680095418,-0.6645273194802557,-0.8284514123881048,0.624409642072548,0.04699595444350013,0.6628248349262664,-0.47987009492046817,0.16521494386143473,1.7407383278258743,1.3628487974261285,0.7055821731401453,1.301624944297349,0.7067915903900158,-0.009178696009578657,0.8432925948608333,0.9272767652720577,1.6592636728257313,0.2576754006546668,-0.09941478656093028,0.09257688505251743,0.04589815410616227,0.8628413790239762,-0.3687183536144909,0.5894628644163888,0.12235666337126361,0.39151070448918945,0.8508254402142192,0.8267567578643296,-0.8094387304508186,0.5718835887075087,0.6825750219377733,-0.8482236924430744,0.5882865307133605,0.6058479440844602,-0.27610642783824063,0.660880413625804,1.0640606479422967,1.2539026885787405,1.224439851992383,-0.21698144882210202,1.2969615336468512,1.1160328321475186,0.4769793870147928,1.3954562060082107,1.2343805602920837,-0.12804130727040483,-0.9901323717231767,-0.5718325572988032,-0.9774974153968081,-0.37795006936118813,-0.6809202116712023,-0.7873333325713534,-0.4976435364112839,0.08793952841801245,0.6359611576029116,0.5527409293591838,0.8899378711231787,-0.16462904207623152,0.3166491830631406,-0.6785128026416412,0.9775904364485801,0.8228685676005942,-0.17315804673579244,0.9036632721080334,-0.5140961774023174,1.0400301992092362,1.1448566781344391,1.6435937460669898,0.893316960670237,0.8811953302313132,0.2547821690558624,-0.8266829673236504,0.8242373716165725,0.7953333980098636,-0.5576917531788519,-0.9882652405584715,-0.9628327394718874,0.6960266010371465,-0.9292285050417246,-0.4706354339838277,0.32400478328249616,0.27433996718944,0.6581001052837263,-0.5309397972322549,0.8587363917101425,0.8268008711887154,0.48899215380787675,-0.4307205547552715,-0.8879398324896512,-0.97934442612936,-0.554903330480498,-0.061244686974032625,-0.37163845003609,0.18124399719829087,0.4988467144975628,-0.017437916857563796,-0.9431081726180621,0.5895814049985004,0.7898207363393638,-0.12082761102040161,0.053287508155426266,-0.36636573843936127,-0.628338136292379,0.16934028807717683,-0.7718660352902136,-0.9445303681874591,-0.3652673570477898,0.459994600768026,0.2974953031814369,-0.0078107321384943695,0.049051367417312974,0.6449742726859031,-0.4447123987229893,-0.7871745473232457,0.14670211060703275,0.6383117756018324,-0.9786243970847623,-0.8340189075858127,0.053267592164314426,0.30699654543519594,-0.734011308842323,-0.9883159410984734,0.8790538173953855,-0.9605548260300152,-0.6612587199415154,-0.725256210919623,-0.15242636033144372,-0.5378899488366127,0.015827130808335976,-0.045793821733406403,-0.023520353506963687,-0.6625896324445648,-0.34993156950425686,-0.6502528189143542,0.5528783655853409,0.823127583574851,-0.8810010013561476,-0.016477492059463472,-0.4954022907486353,-0.7010186650162176,0.04266944446249221,-0.979565287758406,-0.11821173261373552,-0.4429079613227511,0.7594430593035724,0.23546624171805908,-0.8118300761731847,-0.3491510481423843,0.35389194699232007,0.9606521962264849,0.8533006593391379,0.9228434563403174,0.6156274868193674,0.003972636877456637,-0.9660518650631622,0.7616662059239547,-0.7538939194751197,-0.2537552395458862,-0.32238180802284955,0.24982349651617497,0.6162222670012198,0.21244415547761974,-0.37570058419003516,-0.8273927275616533,-0.0015101777950423667,-0.30139278017960835,0.17685097056161503,-0.20484396479620903,0.5700760116117727,-0.10917068607077729,-0.572252138854731,-0.792966906778525,-0.9767000323331088,0.2828441284487613,-0.9508925892402051,0.8222566929820907,-0.9607040530068334,0.711828053987186,0.7611663286797405,0.8552617671209046,0.9726422051653603,0.2831465203108934,-0.47163423047790776,0.053359766620453275,-0.8301195668669079,0.6135734893460811,-0.5090702870777895,-0.8972138437216381,-0.23036738056507078,-0.8520056575679695,-0.5660048352271647,-0.7997214858529142,0.8462822323028778,-0.6420153567312039,0.8856744039584106,-0.2473281345592393,0.5555635463197892],[-0.3658328300071485,0.3433010859609409,-0.8104574085044316,-0.21200133285190903,0.5595619300914936,-0.08417750201693242,0.07707545130227045,-0.9666096756221836,0.7043215273022367,-0.45673076963943116,0.839882971896261,-0.06639136374298715,-0.9458857235690843,-0.06505390170667535,0.2989599043502209,-0.041474510976104995,-0.844693959860753,-0.7535404031704056,-0.5523032920486672,-0.9891071567957326,-0.4359356155819718,0.677208321986484,-0.9509170625263388,0.4415373124449644,0.022371696402740504,0.23967226005082765,-0.5026176307368622,-0.8783808747744053,-0.008507085116951973,0.13501712507822372,-0.3346703631264649,-0.5854992417842033,-0.8939112211098386,0.4527313985725936,-0.6267746708521655,-0.8311231443298923,-0.6404899885908528,-0.47929543919740425,0.4025666433852537,0.041409025966750335,-0.6590753550796262,0.2335431395659313,-0.7145506082284605,0.1634142219126966,0.5852011637167815,-0.8277319373740952,-0.9360377151597237,-0.3838217655315921,-0.9393501893759759,-0.8265577249551872,0.8285441602483581,0.7716705610802297,-0.2841750691764471,0.4745250370191565,0.23720675812257142,0.009678285055606306,-0.3487015817363708,-0.5548130059219649,0.3808557470155547,0.7728114944130233,0.6493680785450557,-0.06540474758882242,-0.7410636850464836,-0.05187250606581717,-0.8899278141025166,-0.6691909916459737,0.34664030798855316,0.1478148289733361,-0.37035740969801667,-0.8369788167982688,-0.22326213545542206,-0.194522701097684,0.21372605410094508,-0.1050377474779433,-0.30144583947335896,0.7376217800452576,-0.39316184066070514,0.23340897282880357,-0.13464352508385025,0.7208364159674931,0.9828829026816797,-0.5835693112967677,0.744837141796026,0.7450154482260327,-0.250669083507967,-0.8923957975355079,-0.5595973454734211,-0.7107651227877607,0.9326652320529467,-0.38906324997058395,0.18140810910063054,-0.07711047375741797,0.14048843465723904,-0.9608009193815543,-0.7818767362275287,-0.18790139453466018,-0.036224139411585414,-0.6066906728991551,-0.7965618682204587,0.12996730578115034,0.5220416191428335,-0.7165915339007474,-0.29290395408468034,-0.20052950639905287,-0.2196677743996216,0.9381918820559876,-0.1714491634133979,-0.8295721668625786,0.2213296433809,0.9503720558277231,-0.110945322176907,0.9243992545359712,0.851197634336677,0.621367487819148,-0.28536283721065336,-0.7533323305463648,-0.6923402888494108,0.548032933796101,-0.42305283098944013,-0.4091950026195228,-0.6278027974951699,0.13256018206645187,0.4798885341205262,-0.485485921917461,-0.264222345228605,-0.40498109440124797,0.3432273939087631,0.8947750008065083,-0.4316363302052344,0.7266277600775696,-0.43975171567329924,-0.4198290541486142,0.2343680505900223,-0.062273950887578325,-0.2814334640393067,0.4745492572462595,0.15652676035572588,0.8400234716886765,0.4437528546788938,-0.2789672457627552,-0.39872846807757956,-0.6406535546568102,0.04688577415019557,-0.5650100416412327,0.5588416682371542,0.15785169201134197,-0.8374723269284372,-0.3851398239641295,-0.16923409248051424,0.24741494345341888,-0.9187221759634003,0.9594641796501169,-0.4280529381058441,-0.16810074409884246,0.3994201426439996,-0.9768769104424359,0.5609419801539365,-0.177264364392964,0.6846860656593111,0.24042652810774975,0.2817754611116205,0.9890446586299594,-0.11066725102036257,-0.3847992115879961,-0.0008226269345610326,-0.5010748010817094,0.677768564963745,-0.19594712871799214,0.8355542081099769,0.9472068332705721,-0.3441987574601577,0.8152080928768619,0.2570238150463875,0.04243521428553665,-0.04504099593652628,0.1401527913429481,-0.1793993089956255,-0.5388427953844647,-0.40487062268054097,-0.9479781609046796,-0.7782063169605203,0.4738836810631963,0.6360958154414433,-1.0180973197070189,-0.9518940942058861,-0.26187089525229473,-0.5694243847412488,0.7905006609981976,0.45178184907741986,0.1337043559411769,0.00034239019703052875,0.50776414297792,-0.2671862002847072,0.9348762920326097,0.1856713260177667,0.8349120941513557,0.5297072952408848,0.9069078894043576,0.23272482477006085,0.5115144585267424,-0.06407959677940012,-0.4066599347079123,-0.8436750777051546,0.7825409822134299,-0.36454260595093846,0.22836367776313057,-0.7800086371990704,-0.310226677032987,-0.6477649465743711,0.15881874535284435,0.4154955978394305,0.43456991105998666,0.515068217011216,0.061263401308032026,-0.28608717739979755,-0.6924693117026309,0.5074397111250799,0.9875475339098067,-0.33104350851560244,0.14270045382385765,-0.16068417974026916,-0.9835882109760767,-0.545863065953299,-0.7491981614045655,-0.08859099031561835,0.00441543695008173,-0.19143398875819484,-0.6725916356632822,-0.707694078096182,-0.8358545373408863,0.8235916976002801,-0.6020386543856915,0.6960388016111186,-1.817028263125004,-0.9301687599010513,-1.59600253065598,-2.8527318855859765,-1.301058066405826,-1.391824932615548,-2.0433900106584373,-0.03435016264896096,-0.9280738152539403,-0.9519845845188855,-0.9609850274816059,0.2241059497759571,0.17819967508680773,0.8014799830989302,-0.40001034491351284,0.31609422201523607,-0.314381123306811,0.011609178526962527,0.6974645376740289,-0.3840856686793055,0.7075079375009383,-0.38463954874462614,0.1917086465610192,0.215076925149245,0.7729281377207714,0.5118816437963954,-0.9340346751630262,-1.572649286678261,-2.7449049949227975,-1.7940482301732787,-1.101135257213304,-1.054881217432797,-1.907607277407113,-1.4196732948089452,-1.2833242409056755,-1.671131189740957,-2.470758905938773,-0.634263636278813,0.6741741801036639,0.753606529313667,-0.5886572295305229,-0.07108637958851996,0.6495583802856335,-0.09382222307884147,0.7946769621015077,0.8688341353362623,-0.27977674722059076,0.8767439111110895,-0.30812732306336743,-0.6775196151812648,0.9549001292750512,0.35047404024240325,-1.0802983836696685,-0.4125944333895789,-2.4173174706667186,-1.1641042995976165,-1.2721034521803865,-0.8013935039493882,-0.292725630181541,0.7919945701644978,0.7829843204615614,0.948161686319803,-0.3619709804685908,-1.1722441464847302,-1.0345079177460663,-0.3579259526659815,0.026571109873009542,-0.630502249119883,-0.733931501602444,-0.4543321749462957,-0.9601974160081626,-0.6057733128817069,0.5953287180238167,-0.04008957984993078,0.27456093716138064,-0.4831161176107823,0.2813599083833229,0.5453203582103221,0.28514914474960734,0.023618982776064775,-1.4433109268558992,-2.3737876096080894,-0.9628084924259224,-0.7148040791091679,0.5469266112805494,-0.706037892454469,-0.9034745428764213,0.5727309380513571,-0.9635201747696578,-0.38002980097085426,-0.6112827233157253,0.22499213027051268,0.06666187997450557,-1.0218041756026044,0.6163177653545514,-0.45721331843773977,0.02620411587061208,-0.21299211374796037,-0.7977566232826012,0.19124751907892623,0.10944192956870635,0.09389128187114526,-0.8186338315817898,0.7521599541680146,-0.39932048507814066,0.2725884174853306,0.22256557554845632,-0.6169335841084453,-1.0734190285615368,-2.0203067642938217,-1.619496075070571,-0.7279808437234585,0.7389615061394748,-0.6154958257214086,0.757420712193006,0.4152989064962737,0.5079746215995458,0.8275093833270618,-0.6352779849444563,0.07923292700842784,0.48317883629738173,0.753243639273393,0.7313466066102305,0.6623843582313128,-0.2267962167874278,0.12348699292759846,0.4681304849416738,0.9059581088894442,0.9352788309609745,0.5909072792155756,-0.20997799967580866,0.832377833925583,0.18632973390656504,0.23597593277231388,0.48293226991029403,-0.06016477916653207,0.4428683399033797,0.4946300881624209,-2.10982551393276,-2.3723142351231665,-2.1960448887169033,-1.5880958504169649,0.2698292054087835,0.6068079276655849,0.802226634060572,-0.3414246786536512,-0.230034062488286,-0.5181784030559969,0.16245912190345976,-0.9631992166345987,0.5399818027671184,-0.37810832609936845,-0.20442796992761605,0.12135207080308308,0.0834807475857721,-0.5576582567425667,-0.7020524838480768,0.5764919743269568,-0.6698251902686887,0.05959752452182299,-0.05489848291314203,0.06063934545100835,-0.9201526900670514,0.5746808773560241,0.31516168793847044,-0.3606063209896253,0.30478693787735356,-0.6865107069951142,-1.5783459787312717,-2.2063160832070303,-2.495686662250507,-1.8879489535371254,-0.673041190746032,-0.19020808652523588,0.20265004157211516,0.5712981295903576,0.6953113506581566,-0.9930624125338657,-0.9883919804928156,0.07268186790082962,0.6233917031759391,-0.8872216189012347,0.878285284323613,0.5520670117951822,0.6989841435508883,0.26811231489848986,0.9411981883081291,-0.6018645469700319,-0.15549294531039726,-0.4582354801468571,0.7616064358695889,0.22089219309146646,0.4847889018151075,0.29644882683239393,-0.6431312281953468,-0.3399486418656102,-0.6767533683918415,-1.4033518892293655,-1.2874173846208854,-1.3366614711803455,-1.1778567712348238,-1.2434417713434067,-2.7338741490311027,-1.958662822489477,-0.5562461797509417,-1.7067244840785345,-1.1600685240876645,-0.45449418324442264,0.7534958795542163,0.12471963542392152,-0.244585712324406,-0.9742922629211535,0.8776356472804405,0.8131518477925299,0.942617660763831,0.9720249388150357,0.8274162142041139,-0.41713014061453846,-0.37492905563881296,-0.4074279727614454,-0.28493485232786897,-0.8531236629107068,0.28747534541651326,0.15727319436104129,-0.989361840064272,-0.48300941231252326,-0.5748645977675658,-0.004306185492819162,-1.1651077939455652,0.26084278424707585,-0.517800647225827,-1.8841631641857772,-1.4870520336676054,-2.7081332984629682,-1.1521441210573602,-0.9327550441459851,-0.3261735383038718,0.18849433282557793,0.5284823171847138,-0.5918548167585347,0.3535540509337274,0.437709636147956,0.4058124794930702,-0.1991780690064111,0.459253554122236,0.3561559523716955,-0.9144151283376796,0.4347833934510601,0.6393035923758457,-0.48508076176134196,-0.8431555453251269,-0.6891563378447684,-0.8684920442071385,-0.0013168334893374632,-0.7440768264203131,0.1290017517331592,-0.017501238336143126,-0.5283379449325319,-0.6134483243997186,-0.050345491055475936,-0.6121139796129351,-1.6915594981492743,-2.8839229073390626,0.2119689846474932,-0.43137729636562955,0.9627741677779069,0.38296413994243167,0.7813139774264322,0.8369544211803577,-0.34850277648388683,0.39309828251092904,0.5148023665880368,-0.07312234842941878,0.7811240406393338,-0.43614842430488565,0.5494647973636142,0.7282432058245027,0.022317072145287664,0.9119529019696578,-0.19189829414771803,-0.8495873805666059,-0.6482762923439361,-0.28583067258815986,1.0007475378358819,-0.28344100031956515,0.24927269979069977,-0.5081465588801912,-0.500593695076054,-0.898089856800413,-2.2823366737951143,-2.678744585899341,-0.973219431265087,0.5574693248341629,0.9370731275486237,0.9570458576420168,0.9981930248835118,0.33344873486137727,0.8449913872000043,-0.3731684585259467,-0.9524685556384989,-0.6006423218476522,-0.33604230552219816,-0.6923136670630652,-0.35480678410007505,0.7540175089053558,0.9383545732547689,-0.07293709887215627,-0.5210856758169231,-0.08626361819979937,-0.29301864169006464,0.5809343852284136,0.9934036336172313,-0.3912119478778302,-0.8277616132464205,-0.5529945231180365,0.7296162414324838,0.16303708892066243,-2.0145082954979907,-2.382142722312521,-0.18064379265651484,0.21203931782538077,0.5001929851853737,-0.03981574842497876,-0.9905608211521262,0.8827084564280798,-0.6789483304899298,-0.41926834921706746,0.5830989871633738,0.15042497200386595,-0.9645045286203424,0.22749634046503076,-0.6199501982952751,-0.8973671270122296,0.2929836071594849,-0.09726741378744297,0.9965982629271083,0.009439736651017756,-0.32116301112015505,-0.35500104007562044,-0.5367698599786626,0.8150857460889147,0.8597947925858105,0.15031678079923125,0.7419836112496273,-0.38094490990700136,-1.229984218107465,-2.4006478582861863,0.7309370458298614,0.4305404278199354,0.41055675439115064,-0.582976289575674,-0.11359359794284174,-0.6265349636628494,0.6403398578842814,-0.36856701108605217,-0.6545598611451138,-0.861828272996104,0.9673421541383518,-0.37427033768452267,0.4705796486685072,-0.5626238079903776,-0.05662440969488536,0.1706248619054201,-0.43781549036272743,-0.048017337538669054,-0.8172113543182103,0.4044157505062727,-0.9431095230851438,0.5938175865486294,-0.7124453556876662,0.4339830420353312,-0.35237804618306784,-0.06685870673179255,-0.8620483869968216,-1.070060578007463,0.5332774224199145,-0.43509288214296604,0.8039092114517974,-0.2611853446950736,-0.9277018522699345,0.3283495872055382,-0.1630985021483795,0.43755862382307154,0.36835047967110723,-0.7252232561183822,0.8629205207013686,0.2799305672000618,0.40130448572108124,-0.39759200908266523,-0.46126241728193634,-0.929950345585613,-0.00002951827448467771,-0.939515270724085,-0.13230568585498692,-0.23511450668902278,-0.5962844057934071,0.5646610210521207,-0.12210333841573522,0.24739574268273143,-0.00498698147510848,-0.15919884240229065,-2.7980647086077672,-0.37394435004853466,0.37382868511418277,-0.8575977708038751,0.07970622670852379,0.89477717764741,-0.6453466323136676,-0.6935095923017003,-0.1947282338647609,0.4928467217082102,-0.6571009982896103,0.3852234523370006,-0.8784163404872016,0.04954176271425581,0.5129659786151683,-0.08367079828594862,-0.5905994204269874,-0.5250810799613793,0.9819979080315584,0.12829012109855534,0.6023111237167385,-0.896290557563561,-0.9265381492050816,0.9486305867379031,0.26789307185006106,-0.22329106077646335,-0.17358797662669467,-0.16367314738662642,-1.1683454786824696,-0.9525971014785959,0.04135273022387054,-0.2996182531884166,0.9729345183345202,-0.36375923172618974,-0.9077586641637603,0.12511058768900973,-0.8702624815069511,0.5831337818242557,0.9465262324502657,0.9358010658306197,0.7225361158624959,0.5654045073617691,-0.6184805273300911,0.23730764614640457,-0.23640868998449807,-0.32050513916478285,-0.38762030972646205,0.17161879973254443,0.7915192540486236,-0.9563651155315249,-0.5045452795404309,-0.9268158139443462,0.0708618410789899,0.5594801871618604,0.062353288715044156,0.29590244936023735,-1.580206466429267,-0.5492093142843388,-0.29724428635524713,-0.5553806618430976,-0.24507653967096443,0.8585729501886532,-0.005544383812461806,0.867824227230523,0.3997767838660993,0.39277044992422283,0.5191509385355331,0.3925106279827486,-0.12252270486246886,-0.3717242285477589,-0.7069449414016553,0.3128155491838519,-0.973655817222928,-0.49542691991270116,0.04343169323099039,0.856965149409814,-0.8202421658195319,-0.8091133446183958,0.04277534213541113,0.04859218806883392,0.25040772302997644,0.4438438445851886,0.1338257483511219,-0.24606368331717837,-1.8895688667718438,-1.0203126908252886,0.8356326213107255,-0.888497218030857,0.18411672606733953,-0.9125412660489811,0.11940071331902935,0.2497701307110436,0.8963541598630203,0.3815402108360919,0.7013777193280282,-0.5753378454228297,-0.16660131592475613,-0.748311473460809,0.39312434662255,0.39840558281464356,-0.598581277364099,0.43129924783883267,-0.4660299415729705,0.3081236847826654,0.6298450253024334,0.85560808474453,0.5007669174388336,0.6290072351780486,0.22315997212276298,-0.7876592161722149,-0.32839647759768553,-0.731355939919831,-2.73171987404783,-0.7357369140414922,0.8500799084328672,-0.18568638223488287,0.40457131649265676,0.26272554448511487,-0.8562211745559924,0.3713259095433594,-0.4289174756611378,-0.19792978527765737,0.5938687768612136,0.7911664254757467,-0.16903581162665393,-0.7243989446618335,0.12334708145187001,0.4479169163372787,0.3618754170159084,0.9223341898689825,0.6693962642393978,0.27231470579758366,0.7060904080718915,-0.3853403324174334,-0.2426917346483869,-0.2601618097148659,0.5763053717165704,-0.6542058592974231,0.30076629104478236,0.5931421518902886,-2.622283790081218,-0.4373514681650985,0.937538521660374,0.17425335903503925,-0.32571252512421944,0.429058536146969,-0.07444088097656998,0.12413074671900048,-0.2493845814116682,-0.7773032859391278],[-0.48133866992028906,0.7734596217324894,0.4262330334233764,-0.004049381138635955,-0.4635840600348602,0.5304343704051617,-0.5436721356594791,0.4983878773122381,-0.015137904299230343,0.8094327092943221,-0.7611643745625232,0.09049401206333973,-0.5982218184952068,0.5474146282834744,0.5429626007603225,-0.8065297976718835,-0.8903221577802034,-0.16138614297127019,-0.6507661257569874,0.3770270201931596,0.9955080808143562,0.0010561519634699756,-0.8850857183128364,-0.10251596603792867,0.7620996236616189,0.02713374796708079,0.0745616219698717,0.12433156847647497,0.4457207148828104,0.5609191330932397,-0.8971793652352673,-0.8335475113370365,0.9074766405016086,-0.13607542402230255,-0.11980844251003431,0.8221121147961776,-0.778255545492923,-0.28403260482771087,-0.15846218834544956,-0.5497242962319295,-0.721185370637278,-0.8269668650243691,0.7276575788563395,0.9745886188876813,-0.01949216023550715,0.5390458149387478,0.9908015051814378,-0.40902355155473424,-0.5655138630168239,0.8444578592495429,0.8311623852985837,-0.9271457110623618,0.04363552695632622,-0.26206585414032224,0.36849293691371265,0.5105444607559688,0.07194078837848306,-0.08165066058228199,0.16197118724023873,-0.6162910329079949,0.37809902508030113,0.6507281089834671,0.25917899076177076,-0.6958400292220519,-0.12998964509539634,0.3631859770844299,0.9108423533611338,0.5318676582555524,-0.9797722532581945,0.9501066930432578,0.5328260160916636,0.3568829608772459,-0.9151290315337022,0.9094849803772811,-0.8097920599390944,0.6311016570649244,0.8308232203723382,0.32706268301880215,0.39998294123258216,-0.22486505119541267,0.006896565231621299,-0.7101147272614474,-0.24477547628126795,0.6851238361118828,-0.7862564039408864,-0.8618866647897332,0.24834361193111265,0.4909710437577406,-0.6820149523665378,-0.3594737920757374,0.03124531985653567,-0.4068053147997497,-0.7889218217819796,-0.08847924633613413,-0.036296400538434526,0.26837976942461683,0.7631498027941137,-0.3539902760201419,-0.8611367649486317,-0.5689114538201379,-0.5648582390617976,-0.14197958849449321,-0.6984999348170731,-0.20685996733426393,0.983516156404503,-0.05128362914123885,0.20340802757621557,-0.15260619534042252,-0.7025927742355962,0.12405213165804385,-0.7819361043189064,0.5503662313003517,-0.3411111426237432,-0.9850214627294345,-0.9862788474880104,0.2729006712559512,-0.35309825519849225,0.9793553869605582,-0.16051680036503235,-0.42276174856393833,-0.8558035385491207,0.107928097776262,0.9582184580511321,0.661634574683978,-0.05624327591632117,0.23839044140401144,-0.9184959405363546,-0.9543060397050356,0.9648116686154943,1.1187970423562543,2.736343123437886,2.6640365487627946,2.2642489085798183,2.5790496973544434,-0.6950554669236837,0.6402200650433385,0.167595590673268,-0.6248210804442982,0.6853824072929422,-0.6210881411436229,-0.10632089216307739,0.418509612850146,0.7648791936813826,0.021573523231742442,-0.3676671191230194,0.23120160236348708,0.44852437621374097,-0.31646054718751104,0.17265867983538463,-0.1975943314843578,-0.2907534680395365,-0.4663118126005704,0.2888987667293102,-0.8808557820722239,-0.06219808728351433,1.4934658674172927,2.854953486117822,2.3330420859541263,3.4998921329245842,3.1150314009550937,2.4572069978443256,2.4648654667879892,0.5893298846934208,-0.9277762675846392,-0.12955552720274843,0.6655707237874244,-0.14347028779595883,0.47139361585253203,-0.21741892191828027,-0.31393639614037605,0.8666887234790108,0.5726871898562758,0.17452805539738314,0.6854758402459025,0.4613586889544954,0.9624439257211517,0.9425690842553389,-0.352001724844069,-0.5774613249893567,-0.6413725940528879,0.2041971475028216,-0.4527999156766726,1.872930631578341,1.8003370358918571,2.2973675846008246,3.2206692217218067,3.6949203964616855,3.851015639441103,2.048361410825346,3.901356825326001,0.37474881279471706,0.9284658689217802,0.7496091074651186,-0.594068734832929,0.7096720371818781,0.1669547087272849,0.2527533524661605,0.5257948014971605,0.7594060305369319,0.3303314878132224,-0.8807899480797081,0.593935806217091,0.05010520589922942,-0.04777408475864819,0.15750603026636636,-0.7850063874193708,0.520197397982014,-0.9236783896233113,-0.24583284833254562,1.0422101395527277,2.462410865357061,2.008521846737818,2.7249875639236762,3.90502463305996,3.8994429080269652,3.5231479958314225,3.109763611357371,2.9823217584537662,0.6599603357849805,0.3464259816810539,-0.9517479474032783,0.7667810639848268,0.9040429755862835,0.12984358238486404,0.38009512967309167,-0.636102245060719,0.8747898221188262,-0.5835627483539527,-0.11353917531769264,0.7867773423052751,0.061169392624521986,-0.4891598429159075,-0.5628055017525345,-0.4520289040027756,0.020169380734734135,0.9729242362500677,1.757109085937961,2.283608152021551,3.3795752926373144,2.3203530726548487,2.3572559161680826,2.9880340305778854,3.329726037276623,2.9634725696545057,2.3979952157682427,2.570028832034979,1.1206948678906485,0.4863994485199853,-0.35951446418564115,0.4933112264675289,0.021104072493646875,0.146751921027505,0.7640617045586935,-0.5881518513758102,-0.5244638747304946,0.4257003455147803,0.18426939941848852,0.601884102896221,-0.4131632254380069,-0.483614999375712,-0.0865759584096053,0.24086416241460118,0.9928575548386339,1.1981330206832301,2.903775146928284,3.906735250008557,3.812661587819382,3.624235954777845,2.0337515341125334,0.8041996838973502,0.1343302967612248,3.342883998521047,3.5749678220738987,2.216287960920944,1.6506825431767405,0.8281314214757515,0.7657237543635012,0.5249658745293169,-0.22133887053007717,-0.5902661276789125,-0.3827244080051764,0.9845422832592505,-0.864070977141659,-0.9203043227117176,0.20625098885832394,0.9862090192448432,0.6896466102213439,0.853004407537029,-0.41093126714402295,-0.8760175722761536,1.0234090075749924,3.277360723869993,2.3417151442291653,2.2193091104667246,3.1554451699410335,1.9866808146417951,0.8447069527568666,0.06283346455378329,-0.7412637350522058,1.8116754828662267,3.0556066978256458,2.1488197975406402,1.5540868503719079,-0.40574455877159804,-0.40965480939627463,0.6782366553964061,0.3877263944176299,0.9231085786188631,-0.7557664224828482,-0.6872260509074692,-0.481280220655111,0.06924237322004023,0.4968866024208465,-0.6255497881690735,-0.6523657692886937,0.0684114179731615,0.4402561128953969,1.2232165513698838,2.5786302524279603,3.1201103677214777,2.1786908622745114,3.2658591787368696,1.4594249848595768,0.5670943928076663,0.20615427254658625,-0.9748000361056296,0.9415793372123714,1.7603031168457706,2.1897551766901766,3.440602304419113,2.296300498402975,-0.6929018693876521,0.7565492400375802,0.38639593799146343,0.4407943751912473,-0.13710679747948973,-0.7631383936877572,-0.17791610152250392,0.9380191115368075,-0.4805187122237573,-0.07419147776906199,-0.40778968425013407,0.916629646111049,0.7906567843474536,1.1856469351383596,3.547603600889143,3.607951767934328,3.2183491991476707,3.173306459778163,0.8255146190471103,0.43965617762710235,-0.6882039565335037,-0.09545601602236824,-0.7465912094522591,-0.03954414943477932,-0.085062763231054,3.8500124712337707,3.4916864765392246,1.5533285026462549,-0.1000522679738971,-0.06277858977571693,-0.3461104499512757,0.21839958545122817,0.373019539555111,-0.2785100430798053,-0.7083655662982555,0.04330469414706073,0.3465561242378836,0.8919605983782493,0.11305444570469225,-0.24672096813750644,-0.09666112194624718,1.3751005237437577,3.9783375457850743,3.600765594426144,2.2091659904370275,1.1312805021795282,0.9687174681816353,-0.42455757616814754,-0.37103743258074784,0.23144268313483327,0.8187173560016224,0.4064287618234943,2.499390912580304,2.0969628546704873,3.585151989608346,2.0700891785721427,-0.07061390612747864,-0.12957276073945723,0.6085009958946577,0.7148557942292948,-0.4785502421751251,-0.5573212859266925,-0.13425623726307423,-0.12102228787877234,0.08535135869355592,-0.6712763201457026,0.533685378401791,0.4254090542010287,0.8601222805933298,2.5333957754587475,2.6846861997628517,2.4922771388062257,0.7008190909997367,0.3863449112207909,0.7669354400641322,0.9485296773689021,0.4641004956222089,-0.5669239803947976,-0.8559394480085413,0.1368623819791809,1.9180774338482551,3.134747096765295,2.3103917152014564,2.067654343853644,-0.8352727526951345,-0.008684710235098425,-0.8975103042790722,0.06031465968409533,0.8090581072506944,0.6576121596373223,0.7266208980994726,-0.6619674882614941,0.2832900528793263,0.2330585477273397,0.6757843222227207,0.31373884197877194,2.769226064223025,2.137249990593175,2.17022510769383,2.42281190265224,0.5566043812828492,0.6958117552676664,-0.7856592916247436,0.8552006842994376,0.1398892128457895,0.13500821019812964,-0.22914304102748445,-0.043306998693824136,1.7386395652503386,3.390082544982549,2.31987678783347,1.1011512811932351,-0.49802836934928285,-0.4983270844842589,-0.806581990354609,0.2552405085895262,-0.38627261383930067,0.5300464263429552,0.38697035266975766,0.9524619483524677,0.6967969686352116,-0.14938603014373397,-0.021126482452886286,1.7867849199755317,2.9048900335766854,2.88275643532901,2.082956769227881,0.6850666229485363,0.073125272208945,-0.5800314338808092,0.6193627963366882,0.7466829731304928,-0.3544811668392498,-0.6624084117698764,-0.27621333730712466,0.8581852741120592,3.3065472234497575,2.973261481103183,2.774183989445452,-0.15875377706853422,0.9543497700602663,0.8939962724490553,-0.17366088816604286,0.09107471558826852,-0.2193482508855249,0.12605268679960302,-0.6910383620581797,-0.411857210384841,-0.6480941294044715,-0.6685058466456981,1.0517051458307516,2.2257329494563023,3.6422653462037395,3.838161000358878,1.3087962371902753,-0.1786351412418982,0.9040769326207957,-0.9056417863729931,-0.38808854240797874,-0.6397273460559105,-0.41040661631096187,-0.576937637340168,0.6070509625077366,2.533020163175993,3.3420267946733007,3.3849858789054106,2.482836115620044,0.7829252562778954,-0.7020235350037822,-0.06824132519839887,-0.061789594489240596,-0.8478212141985675,0.4363646249825579,-0.8841660861837517,0.375477410621198,-0.45472247069066496,-0.9477957648904525,0.06780202153591652,-0.05644577019822894,3.956392699597205,2.4904225116259453,2.961090872690354,-0.7394448791834207,-0.8079758976257534,-0.07059959476773546,0.05493474830083598,-0.42949247785296785,-0.9934423440501793,0.7484295351949821,1.0679282700296069,1.7116502343227944,3.639862368208127,3.8818709470791015,2.7839942287159376,0.8757521992362587,-0.7307300516146658,-0.2031401594601272,0.126969201553079,0.033577889699312635,-0.5392597208512631,-0.5303763193342568,-0.3114859653470994,0.9058474803760599,-0.9682127321232361,0.8506744305823588,0.9218912175784726,1.0678937831014423,2.428695381248062,3.0397897337080426,0.7217365397961543,-0.13621167355537928,-0.32174037093812774,-0.42411808779706983,0.27074393649589,0.18098455820979117,0.5654043491636339,-0.48899738554720246,2.226264800150474,3.8104803603846427,2.6876478518279088,3.187261669905732,1.6004452017954829,0.5637436224837393,0.8249549591077305,0.9526511107188829,0.6532133227344823,-0.8033363245450307,-0.4829809719020117,-0.20990937360472595,-0.779491182876479,0.31588743384024776,-0.2914946249347179,0.5801016476901224,0.6108969154667725,1.5789922936947134,2.8868881707296947,3.3499891691793495,1.5132738741395022,0.04313263121242047,0.7125180685215682,-0.22555256489614395,1.4582497012209181,0.5144658159125194,1.7503928420772956,3.1530716759049637,2.9760291225341398,3.489853406450424,2.357031409025628,2.3400550261638484,-0.7207301796441281,0.031230745731082532,-0.22133206479823286,-0.05741722006922556,0.7183542905186422,-0.39716912783562197,-0.12727930388920283,-0.9882426011730892,0.9043265780391958,0.1448276940785478,0.2329132585674203,0.3167714172748677,-0.8131694969843135,1.059800307446341,2.2067148778937384,2.8082565199319465,3.321027704311175,2.6937586761054675,2.485913662208696,2.9954861443150556,2.2058514990301163,3.9594415265441634,4.005364724126709,2.8795576810540116,3.154540549457896,3.3176964400453657,0.062474646052430804,-0.1449343762043478,-0.25763201672516756,-0.02051103348440586,0.7530819891395168,0.2609520039243578,0.13441471319990184,0.17526393187401101,0.8569984251558722,-0.7974137407097199,-0.8646652496782656,0.8867125481317002,0.5911033321541135,0.8072452130676839,0.8920590544807299,-0.2669054570313447,0.2641447004831897,2.62641124045557,2.218807106144487,2.2119971688395257,2.2914157406513955,2.5870368872400866,2.4990113023688876,3.1847708294730377,2.7088103221659336,2.8516906227374688,1.00752881607915,0.04707287948520017,0.19446259776503055,-0.34205720078293655,0.49987101618178453,-0.5541549462966784,-0.2419448680051688,-0.9198837543523743,0.44007776550759603,-0.37361535534229606,-0.6931742262855711,0.7029709826039259,0.863433660898207,0.6653791042090118,-0.971279364643368,-0.7823500470357252,0.2142783425284729,-0.006396052930768275,0.9218931062830795,0.4402195425873622,2.780836590775642,3.803954261412462,2.105832230530136,2.7093990126141696,3.647323904083973,2.7462049937497395,0.40006762340034263,0.1083673302674101,0.11510775059188491,0.8922541234774047,-0.576031605639158,-0.060806688383495455,-0.6511406498873518,-0.8074139115184438,0.9812853221532696,-0.5694223421026039,0.8972186343189099,-0.2614049023629006,-0.9638927807825599,0.004070313590355923,-0.12829492857590852,0.4472182622689935,0.9190308629054966,-0.09197908916180086,0.01645729994536005,-0.4473727408861756,-0.4703565809503676,-0.709092787704597,-0.2972448415245483,0.11170441131927103,-0.12043384784794778,0.31227745229772147,0.9451309473448394,-0.9446186448708754,-0.7181240791492617,-0.030479242422581466,-0.24051631267083418,-0.5125470473604734,-0.3828528985965738,-0.2013851878639934,-0.47457139923562863,0.12161201736888705,0.543134070709562,0.7210158773317485,0.6390289634312216,-0.7449459665547646,0.8180638857280953,-0.6293455877383161,-0.05826027909746134,0.3108526742455888,0.8506750395672165,0.0109924681108593,0.06868077664372851,-0.1021753459640089,-0.427476970986978,0.8100385761874436,-0.6900720959388664,0.5395703673545333,-0.17462662624405337,0.9763237645959207,0.6075508074507501,-0.44298605402031754,0.7035378465512446,-0.9483112147156318,-0.42833996108194583,0.2808041878188541,-0.952042091443404,-0.4564554390582751,0.5032390356265535,-0.042634962498175444,-0.42912684206324325,0.05608840962927131,0.9878616908111213,0.8154629606811574,-0.9500262563116166,0.3578018096795734,0.21518232359356215,0.6134512148945905,-0.7716615556744317,-0.7875717301583576,-0.06420576364886887,0.28772932636766413,0.5567670989533915,0.11280896391678316,-0.5994051833301075,-0.047037237625160384,0.1411970592083585,-0.8763127519488484,-0.04560446808298746,0.27740996798557616,0.6119516774206186,0.039943312395219976,0.6076490641255448,0.8734971067244501,-0.7339444146219254,-0.56737994684753,-0.41750431638484775,0.5171191257128296,-0.7382598239782046,0.9304610297996478,0.8953355799042044,0.07212246921590326,-0.9150443750573554,0.1725320987949419,-0.9558376136988285,-0.499822814336242,0.1825893322826322,0.14318530745242164,-0.39522081138839704,-0.24036457879695705,0.19176947464354255,0.6799711296260362,0.7537010012487166,0.2480862464920377,0.13450048418554994,-0.4276904412825826,-0.820515722403063,-0.2770716400563864,-0.7259816250862721,-0.6221292839030026,-0.5415529766024361,-0.0004340477164470613,0.44142116969426937,-0.9364732063466081,0.42476759235841843,0.17735267936319277,0.7570354950078619,-0.668585570720654,0.7177314013435261,-0.7553690820894565,-0.03289359220919108,0.02250166813073884],[0.6925619100582963,-0.2443027900368393,0.02992010283127522,0.23827075231923311,-0.03841404434043172,-0.8126962832771065,-0.3785944965822674,-0.46971099170493424,0.9041333164168073,-0.16436571073167405,-0.6320390309259953,-0.1120975795049044,-0.593578592886848,-0.2138957045515193,-0.3747188728419659,0.04969341555333262,0.9293673658739228,0.2649080578525931,-0.7733663213435786,0.33727748493539345,0.05402898300415959,0.9528178236608178,-0.8372382234964468,0.11529529898481661,0.053465150550865204,-0.8794426695208308,-0.3394905739071796,-0.7122949080228076,-0.16193339549778596,0.770705792141336,0.04302831169389654,-0.8502873324800295,0.4903165583219633,-0.44702616637164105,0.23622297151402494,0.33687626355439537,0.24327935950543367,0.09588257447107784,0.42119672135177133,-0.3916825281945622,-0.14960255232446373,0.47950849113187344,0.8943914994169471,-0.48279974918445046,0.8066786513512718,0.5524201831842976,-0.04253235085497398,-0.4227046008250528,-0.6033252272293717,-0.5681778639829362,0.526483711488539,-0.2216344724231898,-0.6629170265079014,-0.7074633035555316,-0.48059827480512807,-0.30966775648872424,-0.6591169726976678,-0.3371797861442296,0.23660646185957646,0.9572651549714828,0.15471189364474203,0.25781134058307575,-0.6340321626987966,-0.4392343164447956,0.709718381159377,0.5620046354835675,-0.2545930247189645,0.02025936443293208,-0.17009001974689708,-0.7349975181035631,-0.5333660335023129,0.8505785900473342,-0.3333875331640588,0.41657634275282485,-0.32973838638384256,-0.678032038257296,0.8887522471529463,0.9324610676829939,-0.8898951955439944,-0.30963033724125877,-0.39088701926195935,-0.25395809214879606,-0.7689268714083419,0.7618608751076867,0.4158423031469045,0.07244404784309655,-0.6848231404614218,0.352575284775813,-0.1895057223020853,-0.2803898810179124,-0.8859460577531961,0.013493791652599896,0.6016177247231052,-0.5162768498965926,0.48835663280018826,-0.6198521079767456,0.7611407551411351,0.931290323942509,-0.11084882156716702,-0.3699054035423748,0.057075705818495415,0.7636113869792367,0.18317073399416728,-0.9215086788740274,0.8111401646351397,0.30492566601993465,-0.06325820458606035,0.023251875717672732,0.6404152408876125,-0.2360904683644951,-0.8668052011682277,0.7624021005759571,-0.2954607637397846,-0.8996809267235162,0.9781076332723604,0.9746181719501386,0.11874090022967643,-0.2042135472705615,-0.37762917105513827,-0.27447023715760377,0.1918214458948202,-1.778358685678891,-2.096950774905178,-2.091098168866456,-3.0564775540005087,-4.556527208277442,-3.8854542801152476,-5.569534104587094,-5.287047519597907,-6.065631043411843,-3.219507701015393,-1.7544071381534216,0.15710473590675622,-0.5420946444799429,-0.3323145157952903,-0.6570897240519918,0.9583645697302909,0.03882319887251251,-0.3282243763549113,-0.7922694023449313,0.5126245000157694,0.47469589903555187,0.7521256561583765,-0.352707845464042,-0.5909906005687002,-0.8582555805882981,0.03944643016632421,-0.8168453327625214,-0.6314723841048611,-5.443480738012227,-6.658284144146998,-5.405397172781987,-6.705453533492738,-4.938609203357723,-5.8505560074749985,-6.536182069655008,-6.876786082263461,-6.750659317962907,-5.958013398299545,-6.521547906271259,-1.1631458759867015,-0.4431944698250739,0.8417152462855879,0.21218504520350862,-0.43800862464753576,-0.1692221717103073,-0.4090470837131639,-0.9395392135546232,0.026439974240296316,-0.9035657738663985,0.11055040124912008,0.962030032822712,0.427168507311253,0.3891632553051103,-0.7074763982583501,0.8372200956131555,-0.12696863154523236,-3.1808251536145375,-2.8709576740697935,-4.4065462180755794,-3.430081610578591,-1.556975667889918,-1.7672006318031857,-1.0936633502947815,-3.300390287090683,-4.715960888227204,-6.110464850974888,-5.26336389674704,0.7852344028403924,0.5669982731151987,-0.0691478105022297,0.9006404474363336,-0.15130592295228187,0.42901963529423215,-0.120120426151753,0.6265781260502092,-0.642493299442453,0.5138502910146525,-0.9203020419369974,-0.3094208082355303,0.8615517948897655,-0.13419464518153967,-0.440869022184764,0.7647705127009575,-0.2686174562914411,0.23697643429898638,-0.6249195337390944,0.6064568454864137,-0.4913579075325985,-0.4232978040165308,-0.6113148970079053,0.9197125440893611,-2.3211144546402522,-6.23407595998561,-6.316164026673834,-6.053733445836005,-0.5084466949709918,-0.5831771829547794,0.9851836224090262,-0.17847271274012844,-0.1323878688767368,-0.6655919908635539,-0.017203989541095588,0.07658534553688057,-0.8065421470197633,0.549363904058414,-0.43411041625060687,-0.09396551692540767,0.04732266587505762,0.706278873323916,-0.7100720356719998,0.42078898840808343,0.19681678000761307,-0.22514179187375633,-0.1184455329686751,0.6574392008906241,-0.46790270139380735,-0.3864960592936397,-0.1904293037084894,-2.01699715312038,-5.825115812820068,-5.338525173117783,-5.919863087580898,-2.5423262623548397,-0.8058702377269374,0.7982479497222399,-0.040716659160422775,0.2109557215713626,-0.9684334067602736,0.32293766926328527,0.8935991304647981,-0.6606316270241059,-0.21511785498770664,-0.6821054727442064,0.010593830866354459,-0.9021615577755151,0.9962102247911493,0.0925062634945668,0.48710768098796975,-0.9375993353886231,0.6614770143392776,-0.2547907357494591,0.9182716748389633,0.7330152272330064,-0.47517072424393664,-0.6844281969558004,-3.153450265812145,-5.052578345069288,-6.565063553427058,-5.396457140540695,-2.664382740808088,0.7265532321460052,-0.07503398786200599,-0.12289196521235789,0.8054472097005162,0.14112725499838272,0.4790730568426951,-0.6893217633747106,-0.19432020924118154,-0.024135416802893772,-0.5799668169161518,-0.6626525650853918,0.6648294677099296,-0.3247502071285746,0.28014978724871487,-0.5810113428847011,0.22887349340036034,-0.5836346346592495,0.6860626278824429,0.8110272099041679,0.47669951960282514,-0.19367098329252463,-1.5535256721867032,-5.294147654743418,-5.442202235988449,-6.225606982318834,-4.52741629850279,-2.024973399006689,-0.22430000895503593,0.5218193539033263,0.48056386740990825,0.024064536632681967,-0.939297380168259,-0.029486233170771314,0.9929166935627882,-0.4668256647564415,0.91663832933494,0.9964575301989411,-0.452481797929424,0.6582289708871771,0.22712851821490432,-0.9969499487148177,-0.05448533691542412,0.9729536766610726,-0.340648225196097,-0.2816912634460706,-0.8495173361381709,0.8507680845710253,-1.529563081453598,-4.556699207966037,-5.131713135344116,-6.794789550709339,-5.039975375056143,-3.8364515973569793,-0.8898934355336743,0.6567989969872969,0.856779388221224,0.23841739571247678,0.30301701324483055,0.7546214740564466,0.8956812228402614,-0.7705632337756902,-0.8821289821945761,0.19050224801555338,0.9598771241089148,0.6013053841900851,-0.9505600554923701,-0.019361816598895576,-0.23254320916804216,-0.749622045135653,-0.7457478340411585,0.9444995620020485,-0.8961436163940419,-0.9944260086934575,0.06124881914804839,-3.8854593436609104,-6.656411776683155,-5.189598768452439,-6.364432630989127,-5.117544540629059,-5.682922230700164,-4.534358591452437,-1.1797302298734222,-0.029184420378064325,0.14503217011090297,-0.8036423031267769,0.6369201661958394,-0.9086940690737305,0.8732169911000724,-0.9453757133899147,0.819562477637799,0.5200375122799414,0.017529227728138252,-0.4399305528508717,0.7880856685870001,0.4980025522909508,-0.908990430906123,-0.9418715820025119,-0.7222883978084709,-0.8499581734429762,-0.26507390826235494,0.28739377731069027,-0.7112080848209705,-6.1705761004168265,-5.142338384621011,-5.017035141753245,-6.418628491849898,-5.397041629607557,-6.29525649547419,-6.807864433067901,-6.054366983043368,-3.2113148138847554,-0.3767448527287177,0.45374869419573516,0.45354239777957717,0.218664373660827,-0.9372634716909706,0.18425814028604454,-0.8589869707974245,0.43941670946579725,-0.3215490136973007,0.2049646275345669,-0.1867072216775063,-0.43624506263938034,-0.9224496124017807,0.9989916645781522,-0.9656493807511963,-0.3679045048725067,0.6912278461407729,-0.5431038641190807,-0.10850465720615056,-0.8682764573709079,-1.9512114994502068,-0.23229232195500882,-0.1471375892337565,-0.9902993161466351,-2.645702707055838,-4.303172169768305,-6.453891664756727,-6.332220872475047,-1.6538981544567688,0.11261592767739814,-0.7507216876748212,-0.34023605124503875,-0.43796535582411883,-0.327206697765682,0.5752083536803823,0.20206472435668976,0.8710948529584677,0.8146897119503014,-0.1706167645800969,0.526405511423675,0.36615256004724195,-0.6731732452688401,0.5726263058351444,-0.35896642087728536,0.3549868734787486,0.36361344964192055,-0.8841267031813174,-0.8057307717300778,0.7597342209947201,-0.8413825768412948,-0.7458522959362521,0.3610687046315444,0.9330664120334216,-0.5507176945802266,-4.818232102247952,-6.067905875389846,-6.008689367680979,-0.6486445735122283,-0.9573706831630617,-0.7787859251860964,0.8152911799878867,0.4384733204473874,0.9967921879341279,-0.04464582833919817,-0.72692217429787,-0.9298438124445405,-0.6521511725836024,0.011129705065548556,-0.8858720605007191,0.10399126953808269,0.1476552872787703,-0.055708372719688634,-0.2986699424465019,-0.4973274673977265,0.546842499098673,-0.7723252372233659,-0.17686041596692142,0.8700398799131809,0.07479664158135292,0.15758641199417056,0.08189674946721737,-0.6114124547472856,-3.876386195658887,-5.678185642617466,-5.231217724473596,0.8134659774150523,-0.06921011482342536,0.5034436758769368,0.41364326048452205,0.9813466274903462,-0.9151586875618443,-0.11419210109897282,0.4752587786515692,-0.31307171578891957,0.9293092079003662,0.31425071489836975,-0.6772175202283348,-0.3855301864606373,-0.5673610641034967,0.30480915112058293,-0.7527889936412809,0.9975637236247606,-0.4173800195138239,-0.16024737776957018,-0.5381214245932564,-0.36462369847196835,-0.9949098551646676,0.03587141085029157,0.04376474892660791,0.33966109738445494,-2.6560806008479108,-6.191251150577864,-6.587560828652501,0.25382408812095425,0.36165528997908186,0.49453854207226294,-0.27726931619205314,0.46142151782784807,-0.14857542860478973,-0.29164314682629877,0.9373762714597191,-0.177046714129526,0.18242290280086237,0.430282225549516,0.20865831151992165,0.8501477314249177,0.16902258596573116,0.9629555217207114,-0.19624633764105692,-0.2822693407666441,0.19070065842619807,-0.5828952895627494,-0.7413207668746149,0.5209727760900883,-0.8632144018629196,0.4474256048009272,-0.6178946372360962,-1.4650909559799863,-5.5465482463333995,-5.989375488887981,-6.346177446869375,0.45697936248833915,-0.8640321255207497,0.2521296262395729,-0.3754001246346251,0.1875098046847278,-0.2673743122552484,-0.6708634238818263,-0.7385570197351936,-0.9235387601837077,-0.6956759099884513,-0.7425420235226272,0.1915763930986385,-0.08369231477078065,-0.4979622097179592,-0.788713038874981,-4.66412315220594,-5.482993798542434,0.4153928747024023,-0.7024114200284484,-0.8183117837758879,-0.5758295509445973,-0.38269580230554645,0.822732891291779,-0.30814150998083645,-4.444809496515382,-6.119744138320014,-6.300510568735097,-5.269758868315369,0.7748608342793473,-0.4688949778754864,0.596220155108235,0.5567463084822332,-0.7927449026170849,-0.5194883886019429,-0.267908759661597,-0.8559925400376045,0.2536430313225577,-0.7298141275994721,0.5270357685661677,-0.6506063339492081,-0.16102691511527434,0.5397023743144699,-2.660525609107877,-5.577411577133901,-5.573765937587965,-1.4158655468545251,0.08985187013180208,0.342689491618157,-0.9577440974345776,-0.7470524559596282,0.20268855328840862,-3.873462858334657,-5.533762481458034,-5.95867931843042,-4.431189939911694,0.17001149820182154,-0.2204223891810706,0.11964294518965612,-0.2784691064660092,0.02046125224958084,-0.47972061538552824,0.42908466463425166,0.696412897581165,0.019754023734558146,0.6988442424390024,-0.9367225827035388,0.18738303490390873,-0.3588791466224843,0.36894751817299065,-0.029406328251776002,-1.0484597134786313,-5.775847246378853,-4.971724191413811,-6.56526263056001,-6.4041185695601595,-3.0062487247549763,-3.0835671084148837,-3.713811283252242,-5.625244806361327,-5.434744368544407,-5.795805146932354,-5.253309672625792,-1.1203101503401882,-0.4504910829374205,0.1897237427472085,-0.4446497115914325,0.39549541693958545,-0.9271799034413251,0.8252545732661054,-0.41364278451321024,0.9621058379256695,0.17802215783403152,-0.44617318477285783,0.42421121229996794,-0.5044494398590409,-0.21074458568087096,0.9986155899333569,0.08942788341681902,-0.4692166340010244,-1.9538586521898593,-6.070013097206855,-5.912092941219253,-5.834108164775175,-4.999731547329286,-4.976941715546497,-6.521724077633197,-6.112215504508923,-5.548989914665593,-5.093841531002817,-0.9000651772944583,0.892984782376482,0.857731885564204,-0.1479665174623559,0.4817351735455002,-0.8524592564677627,0.6868020294559067,0.9513004363481561,0.28473982877123927,-0.6603625996125193,0.7998770818712502,-0.41768057659299984,0.5343553127836516,-0.7703914909655105,0.31693445275725374,0.60105592283421,0.6707598436476574,-0.04863689762286897,0.8881344976152966,-0.6772859969346975,-3.3931837654490447,-4.13442496829879,-4.985681051555958,-6.0942121855175015,-6.828488863459286,-3.7036029710871836,-1.0110703545288962,0.3917091753492247,-0.4760709400503797,-0.47172461203261234,0.5858020123120471,-0.1431941925363036,0.6862374951258912,-0.5815033213945413,-0.8818498143047169,0.21016031296416804,0.7108735851080756,-0.6727311498454847,-0.22948264334376223,-0.8414308140871656,-0.5458151081050784,-0.498183579520028,-0.2552012979132292,-0.18559986999472544,-0.7670470293412048,-0.3999890341781614,0.09197607725029673,-0.7668601533582675,0.6669241439795766,-0.38836661859478105,-0.19697024056960172,-0.35119444268341016,-0.033575670801318784,0.8565635539185156,0.9511357860870662,0.1390130970174493,0.8184527669375616,-0.3466133648472022,0.7137895988844729,-0.7765856714414481,-0.45608093473740263,0.9978870327655716,0.32967736040497275,0.9546300605321449,-0.7018495044987403,-0.1401851769425937,0.2787246347283103,0.9939238993366106,-0.42846558250054523,-0.30554388876309124,0.9490747531168529,0.6424021306752223,-0.6093144634163848,-0.9812758252315475,0.6153607363306205,0.5158524785734288,0.5789120016588732,-0.9755127493248659,0.8937552639407897,0.6437900330959407,-0.441439779128876,0.20398684349752516,-0.5293994209904844,0.9943473702574446,-0.9453235370821731,0.646449368722458,0.6514880730752837,0.935622924045489,-0.6420541269464275,0.19216933352561716,-0.08183813477156177,0.11946445229444302,-0.9401635645178068,-0.5670785312483577,-0.3961909122810936,-0.36694901572204897,-0.8028859752300948,0.8491008624601801,-0.1133438064846839,-0.3264835313049863,0.47529550455448216,0.7366267361394697,-0.06426826717601017,-0.048509149169468156,-0.018921243121315268,0.6128740789789235,-0.8533816100868505,0.6217573934115896,0.7354878466581845,0.9359290467466543,-0.38244636178522917,-0.667426871933583,-0.03874055251679431,0.5760663604670047,-0.0229076893999971,-0.5756763163268985,-0.5061856956732877,-0.7332721788471921,0.3784159824306479,-0.8794130141953271,-0.3772158174382718,0.16304571737753504,0.0491527856611631,0.5251281723482646,-0.1095350278132683,-0.8243030700893224,-0.3209899865307535,-0.6343863830059329,0.0827687222945599,-0.005598331757926012,-0.17934285414896944,-0.7403325528000471,-0.5936764500297422,0.19438422698386493,0.05709865606708542,-0.9269187782792243,0.5567240174573196,-0.2819999571869358,-0.9619614022687912,-0.43775859091200076,-0.4421978005743723,-0.4420153460900731,-0.9345366893745006,-0.19197913295114466,0.09771744947923855,-0.34296698721607255,0.8745710038149572,0.9843358096122312,-0.34255128596816586,0.2284749105418089,-0.8695420549475279,-0.1681494290051857],[0.8078638280433577,0.12797501407862466,-0.31874544448554376,-0.6141601986558567,0.42175779000614133,0.06472611256350636,-0.46723019131062404,-0.9893979522669643,0.10817770798318183,0.6166601780180376,0.49127232685746325,-0.18700396665786778,0.054392542617288875,0.8953058907069567,-0.879369405281544,0.7051048928800494,-0.6432930445003948,-0.5708714473011272,0.41955551837506766,-0.35686947853122186,-0.9209946996537308,-0.5228184455576459,0.1879421548860587,0.04231310863215443,-0.36999306120677034,-0.8899542491473262,-0.30222918353372386,-0.6602713728797482,0.15760725816687504,0.9571958949412531,-0.6576096292142246,-0.04282990458367664,-0.3469021396272707,-0.3278285287378009,0.649855360340025,-0.5711707476387122,-0.3776610159488758,0.05651937416967545,0.8656428429427692,0.17389982540366766,0.47236374642280365,-0.838141882241568,-0.3316929267051778,-0.009108961972169372,0.4597106988472879,0.515264382325729,0.9996261543740403,-0.36053683830757866,0.2975402782147851,0.9802013366894449,-0.558957789633491,0.873446989877773,-0.7104090620202843,0.27372620213244936,-0.1731309149305189,0.9014196535360703,-0.043386474607332026,0.1457013951113435,0.22209824064548478,0.09886901569374285,0.6221673163237851,0.26693544027380023,0.26670979182453447,-0.548060113163833,0.44194277791659964,0.3350556844684638,-0.19890604379531762,-0.17030279596662323,-0.0225292049732726,0.6412308800914204,0.8852802164036091,0.9032995183814965,-0.39827077990842685,-0.3153512514736958,0.3159700904034177,-0.2015668558402024,-0.7278467658553573,0.689524133224348,0.662929802757303,-0.011904833911913215,-0.3216367594887175,0.8474929452885696,0.2679023789226056,-0.686006353282858,-0.37109466557877235,-0.27257986551303803,0.7146566325080927,0.07572171774101388,0.0405399012053147,-0.8826892745501964,-0.6359218717670823,0.8434125814306728,0.5680751844891208,0.5335858189890161,0.5056101628487819,0.37525552774346904,-0.39407238927908717,-0.7810174474493903,-0.3202403629147401,-0.6310854114524229,0.04124089437366463,-0.10523560557727718,0.07571116810259548,0.5171283282938686,-0.12765805842054556,0.5855819981270276,0.9195741637748669,-0.2379150903255507,-0.9939888231496954,-0.005826917597435255,0.9569705770642405,0.3933367216254764,0.09121419874099423,0.7811465389539878,-0.6009416278037669,-0.09020082878150237,0.2784196501638059,-0.9759056731754265,-0.01634838785654935,-0.9973257776671249,0.4746803711844443,-0.3441494788825139,-0.6840503716350071,0.3486407324864985,0.26587016081502357,-1.1349833945631937,-0.22395192905651956,-0.658519575489831,-0.5280368811408662,-0.19267635862792507,-0.5080054995077834,-0.3951172072628683,-0.3469540458183479,0.8644790691708187,0.6024173953861602,-0.10018097021352146,-0.5554658703195132,-0.2882728972768458,-0.2044408958792978,0.07786070937260314,0.4565888282242567,0.9173013365026379,0.35380043170081965,-0.2923023397791251,0.001635457169552712,-0.8051197331747733,0.7686366532729894,-0.4679013473424174,0.841929771502989,-0.9049481286630701,-0.7317384795217048,-0.4640692200218518,-0.3631212150367454,-0.7785304033578718,-1.098395522787107,-0.9222528212963144,-0.9869076781887313,0.6844727956346818,-0.6242122488050396,-0.28728592886601445,-0.49414481067196586,0.7521185675701357,-0.13408733971615172,-0.5834056495805169,-0.5472919012615369,0.8494109879645064,0.0013266135045708616,-0.8442555628576205,-0.0452113188091503,0.04253026779133151,0.20161403581974424,-0.8351743261785858,0.9549831114079721,0.6527066114435538,-0.5776743161859816,-0.26431443222839274,-0.031992571951810544,-0.27201566828858115,-1.2671696863779327,0.020467012909407445,-0.24513934229083983,0.5923990744281922,0.5391792499513431,-0.604568114681267,-1.4626959538868298,-0.4640890371314521,0.23970016408591843,-0.85788258084557,-0.5830593146788563,0.027083238067011257,0.37028136208018125,0.5918453645704838,-0.2307927092915687,0.48224193809532023,-0.12868501360413198,0.15714362036201335,0.8452910864257936,-0.5393223488056829,-0.3892943898073913,0.8890867515347929,-0.9335627872637334,0.2812243416569599,-0.38625549635786,-0.8522996695023657,-0.008585170174175066,-0.29975363506512454,-0.534439389942862,0.15663807871442298,0.2828498280947649,-0.13901175895918916,-0.07332428936164731,-0.21450348595304974,0.15203342562429578,-0.603139169525306,-0.07014864344262445,-0.5915964240734245,0.10174780647933183,0.0660810498144307,-0.3888228362081895,-0.9631718984331838,-0.5888575319934771,0.210737961608221,-0.5778332320228978,0.8612954763608314,-0.832772824287431,-0.03980104250538119,-0.8960673401372747,-0.8750273195245781,-0.49678033547061823,-0.6690762004306052,0.9383845271658602,-1.0252555495718423,-0.10630025142070962,-1.1158057381330384,-0.20180007079690296,-0.9804398630350233,-0.4331575585859876,0.4290853927490267,-0.44990695162946365,-0.16856396529643167,0.5772187861896592,-1.1765638702352024,-1.195785692371915,-0.950057530567467,-1.0783186352411032,-1.0702412499903646,0.08792763902365677,0.5232703037204615,-0.7960617384837558,-0.2949357081671451,0.8810177018326564,0.01823900296853287,-0.16982456909108423,0.737357329072414,-0.3802715335258,-0.6175358876199106,0.570612934533779,0.4914210138628625,-0.569199872172825,-0.17383770924049785,-1.0337860168288768,-1.0290845479312334,-1.0581035086611545,0.23912283903713014,0.5540691110359245,0.08731396303654304,0.5649065096570304,0.7270921182849243,0.6896546871673414,0.026009096423501694,-0.9059377117042213,-0.5746734678958525,0.19622567015451647,-0.9365677540370321,-0.41355951153135184,-0.412173859498378,0.819619668940071,0.11552168572220992,-0.4708548494988567,-0.027656366518938658,0.8028040731203387,-0.3870608717490467,0.7725327980837231,-0.4638938156158132,0.32013194696892283,0.8275414709713085,-0.7010421625204164,0.44172385416230936,-1.2364847787093771,-0.7787178393303937,0.053426880605893276,0.9284476382453917,-0.9114674922229328,0.36476284160640543,-0.3079579205068895,-0.3775040874619377,-0.9927638484009159,0.137170332616536,-0.681500592566402,-1.3694258083101523,0.07323811141880499,0.24776271542300027,0.06880320131118099,0.6388282654267659,0.9729715830684674,0.9265962206702701,0.5936463355753593,-0.9183952299118125,-0.6404687946969392,0.6228493976886416,-0.6887875526657679,0.5129416996309435,0.6299329482913505,-0.9229376323329976,-0.7247196749095791,-1.1691355519838584,-1.2019220238408608,-0.8737337782928944,-0.33861836114049837,0.1771167100117024,-0.0842525145981748,0.7820807533144557,-0.5229722991089367,-0.8884518839329635,-0.8614789413038765,0.9744000458782832,-0.052448128800261715,-0.6047310300018964,-1.015425103769793,-0.20660538901771586,-0.6007381806213519,-0.7984062762481067,0.14227538043725763,0.7316061157717901,0.48147030150787673,-0.8237394590315614,0.3561895606723957,0.5519880276999309,-0.982872590609364,-0.03986173946431837,0.33119530522802476,-0.9782698636823366,-0.8460660990109942,-0.1480436983757455,-0.03825267897781709,-0.04851465754328119,0.7590122997034732,0.5404130169926845,0.0075690469574234715,-0.31901945537922605,0.33568869153883574,0.07629304094904547,-0.1024100583723261,-0.34508445809307253,-0.5445896888751516,-0.7423791496171972,-0.3127653088348245,-0.1508736121560328,0.13793763139183457,-0.15794101606533087,0.5722727558155377,-0.6257097008028478,0.11067613213111027,-0.5390765330994305,0.22108481319813267,0.8732375046307896,-0.41996505155846364,0.6326697327552107,-0.5789772472107737,0.6864655956809187,-1.0342265250804883,0.5588641651987996,-1.1666205928467415,-0.45426129217827704,0.5560422838935176,0.24238778006831063,-0.9743895955798269,0.7622125073272187,-0.32130013769011206,-0.6552875119552481,-0.01869331242136255,0.37314816931848566,-0.13024373924438193,-0.154112412299616,0.006818838335094335,0.0036429876030462105,0.34182820992463014,-0.022729117375857394,0.035169630126321474,0.8636756139483155,-0.06826184992650663,0.6970149728064832,0.869857726548704,0.18813910967812042,-0.5228690542694863,0.6641562728959753,0.8127114284032788,0.2914145370038219,0.467774871016559,-0.25545428045918417,0.5820408661731562,-0.6041074775741504,0.2858280445984402,-0.2653576178751161,0.5351051920214738,0.6868995128858593,0.05050760278870794,-0.10162313442844866,0.44869494912304775,0.40853909741860717,0.1142911361698194,0.06862977176457598,-0.8609508994891398,-0.6100816977167203,-0.50592042328429,-0.6237592491955306,-0.916652644543308,-0.1566468881449672,-0.3111786906657623,-0.43484607567504563,-0.4711016869957225,0.16241845784105902,-0.2869673193875988,0.14637822449921645,0.7004481823958195,-0.5111296275028756,0.6853294703048055,-0.23485143868623345,0.02810624727204647,-0.04287334645265029,-0.7689422391236592,-1.0257585221669427,-0.5999132386877634,-0.43229727566670484,-0.32574191358803695,-0.6489607359416287,-0.920558866005102,-0.9325080848412348,0.7891588270294112,-0.9138603788505193,0.27176143394120134,0.5260500343859901,-0.4631530158976942,-0.6921088607173198,-0.1967430804496775,0.9315475867582279,0.5339862640123747,0.1291528298225284,0.5569331586272712,0.6459881904436955,-0.7187825847442082,-0.8723967664486301,-0.6141080294142811,-0.8018961127717346,-0.1812984924449777,0.10662369088049428,-0.5224436517961077,-1.0076894416883841,-0.6530007641095238,-0.9769169166105636,0.7687670335219309,0.7979550723614854,0.5989235263793597,-0.8536058837792645,0.5355067606502528,0.1393942106287826,-0.7033081415601875,-0.9171777157458787,-0.9206775145855837,-1.447959506662759,-0.2348863626162328,0.7350085948580494,0.3973854552440418,0.39781714030691084,0.8395593266468477,0.8826013266421135,-0.018549317624246164,-0.807586803603181,-0.873075410488978,0.5299415820928548,-0.06432921022474902,0.7805274311705527,-0.1974381204357028,-0.10854439747468231,-0.6240431058730269,0.5328980982837961,-0.00036241220426533327,0.016835872917380652,-0.656017969542751,0.8867384016077451,0.7867000311788521,-0.9155846104440762,-0.92682581341958,-0.47690223666364195,0.784185377269562,0.42560115819735644,-0.9407727975475091,-1.3133413339086841,0.20569750202009274,0.7257872145265611,-0.7992279555472857,0.12097682755457262,-0.8294648231442681,0.9105835723904643,-0.695227223337124,-0.8766210371383072,-0.7571969542644452,-0.4872497128438611,-0.41136030005941393,-0.40359197727529944,-0.19113797276015987,0.1020037988629473,-1.4182027196292812,-0.7190849167440085,-0.7468259827655541,-1.05748847405065,-0.35476744199252425,-0.30933075474480476,-0.1521542019101247,-0.6895895082023485,-0.26882791012313156,0.3257421063895502,-0.01601074194641704,0.14100645608201628,0.2725266322047303,0.4190706570832986,-0.9944025693322268,-0.05487686687049236,-0.5660276135704556,-0.27781024171785385,0.3090835863788297,0.46736730984424923,0.9094530648209131,0.9387453187778774,0.2927311366891199,0.9833011825524326,0.14994162310667278,-0.22872747524493248,0.17462992560474583,0.27080839636211546,-0.7552302930095005,0.08898438190314006,-0.1487440795043648,-0.7560828147206711,0.4411922678665283,-0.6095815632105293,0.9722905918180474,-0.1385422840677495,0.030559293117116002,-0.6271132559036346,0.9489366599984136,0.4242969855028904,-1.30610749694964,-0.1943243286517818,0.16029057035914135,0.04588997159435578,-0.35949620800954973,-0.3232413573857822,-0.6056706509475545,0.8122038424501876,-0.9432443178527383,0.5954268369026341,0.7568648123714969,0.19046694008449272,-0.5557058745092938,0.6247399894490385,0.24818621103809174,0.32158103928438214,-0.2328809040357216,-0.5533991470681469,0.4852510848557872,-0.8222114003293821,0.4528869331396761,-0.8155642866451073,0.7371447594340452,-0.5475761786500954,0.057837449380996955,-1.0615538077070645,-0.188238916833689,-0.011514921590634275,-0.09995376840261011,0.3955498264064178,-0.677226321170524,0.19754116697458557,-0.10840142545472586,0.8187884599291668,-0.2901050127772664,0.8767286565458803,-0.9309543534006628,-0.3170450357781136,0.7585280981501157,-0.33365948274805174,0.5985812551252414,-0.3393886013747783,-0.35250985008508995,-0.5105229422774297,-0.7578635038981143,-0.8611212923619229,0.460378217291624,-0.25378644192170047,0.8291585381837369,-0.38727299780641405,-0.8315465601626444,-0.29636539237110804,-0.9227313878848373,0.3195640384492426,-0.34569972911207225,-0.6559385911658195,-0.4426066744198461,-0.9116613984666401,-0.36509358096577377,-0.5533929132807147,-0.10733215955139919,0.1149171696575042,0.35690761721752207,0.035193718115645645,0.04144842602405241,-0.8841078534545233,0.6047051513407311,0.25242770380929813,-0.38626456879419224,0.12048027737186656,-0.7407242597061153,0.7784524050473712,0.3257639911990354,-1.3953082388299505,0.48237747675944875,-0.6239038338673542,0.49907904404824815,0.26984239830543477,-1.0922827737681124,0.0651274604414594,0.10326097970509984,0.10042043001363721,0.21467492176967656,0.4710066565823921,-0.9119544988520946,0.6155766427379987,0.7033783279395034,-0.40196388394837035,0.15733733459057442,-0.2557143635124812,0.09368998359313041,-0.25808648265434364,-0.4478176936402867,-0.5997774058713587,0.6864290679500424,0.8755565642162586,0.41737023123464567,-0.35143885922297313,-0.6669240992655965,-0.03352258013146093,0.27662209548445227,-0.03767083576573366,-0.9417557556570864,0.4924903305942917,-0.9033379477453183,-1.325050255454328,-0.7266469686547417,0.3382460144258904,-0.6455948483367508,-0.4610896738881547,0.20324790911213836,-0.9214333176737111,-0.6054518689920982,-0.29944963678449943,0.6489756562050442,-0.02436804417470828,-0.5427144890484028,-0.2276735505856693,-0.7340683855003927,-0.28599604580887306,-0.6324518108338029,-0.9852158588289459,-0.6178618357043488,-0.982196841847252,0.6681850046562765,-0.7498997291888219,-0.004661506943310115,-0.11641457403004461,0.6720901839799507,0.9057847595451192,0.6365799117053275,0.10279987470507608,-0.0364729758812877,0.17070468542751502,0.8823344334727838,-0.7564217478743194,-0.38661500632530954,-0.23594804031890293,-0.5213393999208384,-0.3741450141254501,-0.3562621432310187,0.5858959800349011,0.4495676145214569,0.029472310618916975,0.11923926658321315,0.2739926938223971,0.929639120929393,-0.8002833718579137,0.14975888716018382,0.2000276759319326,-0.46875410820005126,0.6973045618515994,0.6781441528602841,-0.5364206427736211,0.7773036348314739,0.6406584674555881,0.6535375147412239,-0.6524206871739651,-0.527629474461937,-0.7583334585813828,0.8271276301744379,-0.20885529987447848,0.8883427326285019,-0.003895032445270008,-0.09375403447224251,-0.7165918502608757,0.9590120818191354,-0.13478897333811535,-0.14674165296028718,-0.840070237345854,-0.22899836230426018,-0.7340987370937517,-0.3238312024314727,-0.9210392017314182,-0.9751070315323638,0.08163367524803045,-0.4438809693922048,0.20930292788024119,0.768754107046226,-0.7830331584948795,-0.33820911489376915,0.33831103542500873,-0.39384150852796607,0.6401373004030617,-0.9412623669784717,-0.7597985226926491,0.37378273377357907,0.10048294261387047,0.0009976298198899336,-0.09774672946676954,-0.9232459249588674,0.591011096118573,-0.7265411913097788,0.30633507708079266,-0.7012651826927057,-0.21625998299810067,-0.13620332787395517,-0.5990934588043437,-0.21882894369324468,-0.25772718719307086,-0.7086351760471428,0.4066562261654565,0.42693977976739506,0.21530591832043156,0.4763769848366337,0.25639069134852477,0.36974232284653796,0.6117371926256068,-0.7740080001776657,0.8691001881886469,-0.7159181099008141,0.07243211311663034,0.433101554317572,0.7388522201963936,0.5422670003418686,0.8127601204697812,0.31829060041969903,-0.3974960602614468,-0.8969915502258976,0.9702718183660228,0.6661515450961453,-0.10126409196868869,-0.012153600247049923,-0.4798887292730978,-0.9060210629152547,-0.6158252867633243,0.007123063340774394,-0.8746709168869664,0.19632413342976118,-0.3774802054513109,0.5644037274123153,-0.781041767896451],[0.6722387158474303,-0.1463490308760198,-0.2030084039358937,0.7479250789132466,-0.16808889361608692,-0.6879352019937253,-0.6376276489604074,0.7492254450941851,-0.4017988168870077,0.9769765237000314,0.2073204752918567,-0.957208769389363,0.8774157714850621,-0.0007420615736877245,-0.6687206222335393,-0.23678094659939175,0.11970934924760002,-0.16444986956096397,-0.9381680813061828,0.4115538220125128,-0.308343729859033,-0.03764695981840216,-0.8853554475290726,-0.06048179045791624,0.9318491091292418,-0.6664845286125667,-0.3133637535108904,0.40008721877245756,-0.21561815353113545,0.36896133571223544,-0.015750937018035316,-0.9523084672652007,-0.2100610978222779,0.891126475326836,-0.9605745163450514,-0.25905404905320806,-0.6875000773403168,0.698665361680384,0.5230509725915313,-0.9674778277410714,0.8140939053189973,-0.5549233137506016,-0.34567213030914834,0.9127623561724598,0.24622676732722804,-0.8567010402834843,-0.31751373247735204,0.4882973654383824,0.9154869490095678,-0.9589552128494083,0.7879596223903862,-0.8630168388150214,0.6280148873467533,-0.9997455533704342,-0.17066365541464856,-0.4827360751062799,0.7134933515179274,0.7834218565117137,-0.08462868824635628,0.7098633784668853,0.6775063400113304,-0.25584020675019614,0.3170490565179396,0.6315244833852689,-0.4041559483832655,0.9275675742830587,0.303840876170713,0.7733333897238959,0.9121430598776543,-0.8991436592529496,-0.8490290740287807,0.528458173082019,0.2700274400388114,0.19416396809124117,-0.44615641948382095,0.7278157931496161,0.8025675838794486,0.7849454531178508,-0.6211701486993468,0.5307222402572886,0.4954624904961422,-0.5810686851895714,0.052176466018281076,0.916934051340593,-0.5248176654503198,-0.6707505986043278,0.8935995299296904,0.8412215488353691,-0.3818272523298947,0.983131026155232,0.4709536924699078,-0.4126287725030018,-0.22300228713339232,-0.33223813477352104,0.6270348624167967,-0.8925517676021029,-0.6108646461577885,-0.9800477862054482,-0.1882964629993391,0.038013732503306134,0.8595963646397426,-0.7023922406029847,0.464455485281911,-0.03269430152434272,-0.4185634771057189,0.2947909070328145,0.8975074598115254,-0.33879972424619487,-0.4791974104185899,-0.8308729155298411,0.10371938067894115,-0.18611115251746257,0.7754475832158199,-0.24206236621811428,-0.3509180671878993,0.8494451125517952,-0.8649312370548663,-0.6022716536073753,0.8846270028499359,-0.9109140466152073,-0.35009126862769513,0.520463589566242,-0.9978992058872616,-0.7017340294553895,0.7055738441717713,0.5758152229515587,0.8546025667979247,-0.22767238823366742,-0.9500697038137663,0.6972081600156259,0.01589267213193708,0.10197999072878897,-0.8668196285036229,-0.4567393633524355,0.48480497379134846,0.16254219362265232,-0.2125292560362535,-0.5053392199692572,-0.9097475308556175,-0.3554796261957547,-0.36408187169835804,0.5560240034175803,0.6066172339912499,0.41579477837527845,-0.2056626084843165,0.21661524295143142,-0.6641483242925754,-0.8273259188586279,-0.7665970105962634,-0.5238667042842253,0.774685080736071,0.013281138227862602,-0.388661575056863,-0.10471183877867148,0.8869044987933699,0.18761394640443343,-0.245652349871628,-0.0376424841778331,0.07656349145997518,0.3135832741717208,0.006469871968526945,-0.9603803655963867,0.1686403577239557,0.06850217710580564,0.1148496578728353,-0.8454590269523985,-0.5042187923014216,0.26177657980699065,-0.6507086893547993,0.6662753151122858,-0.5940190494961723,-0.46483860751191264,-0.654528318152622,0.1072246738211673,-0.14739202613696412,-0.8875875092574881,-0.8399432706224008,0.2824242779767811,-0.5108163162147794,-0.6561430579133254,0.6396531693524046,-0.4349146172163074,-0.46836663525322253,0.3317076217001004,0.558004748020878,-0.45152569812761945,0.7727775953898983,-0.406543299306587,-0.7842112415921186,0.5945539445568804,-0.5995825879139565,-0.31789860921030444,0.5641945694768893,-0.14994478185513094,-0.6170042519423218,0.3710300786426486,0.8809574673291594,-0.6190719711820325,-0.4611587415997702,0.9281340050495785,-0.9589648583685095,-0.38066774581453533,-0.890097924811108,-0.7772181917465169,0.5573611901920343,-0.753512274663158,0.38072249879813524,-0.3748840673905418,-0.6611691559558139,-0.8638645750773504,0.48660609121089915,0.5138033788085656,0.21667720434440355,-0.5547303162271368,-0.16665573331197117,-0.21993495016113515,0.9499547510685875,-0.7677620556143823,-0.27335239420127655,-0.008817853129801101,-0.7798395102845257,-0.1966166046545137,-0.19095561292018726,0.7387542404008274,0.8143011431110878,0.781153043942985,-0.35894682127223687,0.8762012740651053,0.5556443000955102,0.7026326709697601,-0.6806825479846024,1.6585426929985672,3.5363660517532187,3.490975568153677,2.0773374723791616,2.4901633471204505,3.61348445538937,1.8415388014587493,3.373224840021841,3.3564298491500733,2.594801585842838,3.5554332392081096,2.7075464699691003,2.5233235660177797,2.136356039102123,-0.18728787607973962,-0.020404119425589423,-0.17150645090347405,-0.5618391527703124,-0.842152681649535,0.9840047669221734,-0.861052548530723,0.2584698955897271,0.7392836086773298,-0.8409611741478229,0.2626822995364191,-0.45019023854338336,0.4633026297183269,-0.2785009826214413,1.1278724875344706,0.8225418814362402,0.6822961440792539,1.1965008308455929,2.761357005698234,2.0362840715421293,2.545659720719527,2.0259509483888847,1.713947838714504,2.5537421430842735,3.451380347626662,2.006462524390508,2.4220668575701336,2.0231140823693843,-0.16882422135091552,-0.5433478156392706,0.5481998737776546,0.4815471864320777,-0.09783420742481708,-0.682219401287012,0.18174192085346608,0.7418297344674412,0.09749739675184355,0.7720247919522611,-0.6360857832932427,0.02740547774806057,-0.5444724337974081,0.1173851148263463,0.3235938122849311,-0.10477915865702724,-0.4575561288689065,-0.3053692799152967,-0.5412873778447844,0.26119491940774825,0.5611153813225426,-0.8137120989425609,0.03100794164424957,1.406637645030918,2.7637961624491307,2.8113730396415186,1.7150788062696516,0.06630511267664362,0.5798890027521717,-0.3020262772594792,0.8304603956431924,0.46152047392046436,-0.021885111564247328,-0.8267973244001974,-0.7799245068883387,-0.3243719457538501,0.9212837747575375,0.42787880531384115,0.15117003304355192,-0.810429982757789,0.09479165966098968,0.008964254377190095,0.46722820733517123,0.619559618785873,0.84033585531736,-0.11901072121362283,0.4946863723329721,0.8165505095154534,0.5580662992249079,-0.9002064617100982,-0.49819468371569997,2.125582434632059,2.6622608948939575,1.5780908538944862,0.06183913374741358,0.5053877517303011,-0.3038088431231628,-0.16082371275245047,0.661319555952165,0.7503071979637146,-0.4720219916724613,0.020467965809759292,0.4378329643929062,-0.1377915504550704,-0.6686500229633654,0.797638234145349,0.49923635694602986,-0.266235835870388,0.45471623958687607,0.47966614567903626,0.12708328705326455,0.055732885880942135,-0.1239081722492107,-0.7461535542551608,0.34884221498501333,-0.6451490742580609,0.45210953619777583,-0.48551307369775676,0.3896076642090798,2.037884335288678,1.5060998443650997,-0.36961573627074923,0.15822973146244096,-0.48326465723328815,0.23035933459717803,0.3959441341164335,-0.754270695078889,-0.5807364669974864,0.3224827202349694,0.47088222191576046,0.1684948174022054,0.8275794183504486,-0.9703859268697386,-0.4863267345712239,0.870067786542672,-0.17963018150306542,0.2887800474605651,0.33797968860743216,-0.9597032059128852,-0.7381184605667772,0.48070994538069384,0.25112486719997945,-0.8766932304427284,0.9001334895595512,0.8233725739982373,0.6808653771586929,1.32498201121598,2.4895734570665886,0.29131987091384953,0.4453528690899777,-0.7458253243531351,-0.6100382893571961,-0.9126551076735359,-0.7562441237278833,0.1529105902665342,0.15030477516365526,0.3861902801790764,0.2589250789984754,0.3766483663387814,0.5881895443793015,-0.1012841641081419,0.4000654067372107,0.3419832136873562,0.7779674983963143,-0.06566101665264908,0.07014535781381596,-0.39637356828061177,-0.1052067983786542,0.14919342502393357,-0.18405356215805205,0.8009771928825568,-0.787421369909029,0.914613911826797,1.7297090064431484,2.496169751210209,2.020177648294923,0.32190362362517216,-0.9352703426167134,0.34699495106162487,-0.6506015449125445,-0.6944654678513847,-0.6753995009834292,0.6229525975007802,-0.6527877797095196,-0.11464598381402791,0.9370501757931735,-0.9390818093163142,-0.8106095429745617,0.435412535779268,0.6653214030649064,-0.11995296124430421,-0.7751678223069334,0.6620554158523937,-0.7949444922853701,-0.005574051845220813,-0.4817230290788254,-0.8644809264296598,0.5078015209193918,0.8850436818296081,-0.42540004427400835,0.01140527521005471,1.8579237017803016,1.7890522510241884,0.28756334587351706,-0.9592991397611467,0.6820988337152322,-0.7134879071084349,-0.4325418171845234,0.21159377543509342,0.6230081349899338,0.8228899592636395,0.21342051150235847,0.1689217323725627,-0.0664566757510534,0.08534772515759492,-0.9615695589115778,-0.85396447095984,-0.9059593650484521,0.8491382510117531,-0.6998148883615949,0.9856738579239053,-0.09116568984577778,0.8143616784907917,0.26717318718848776,-0.2006908511305317,0.8086966629977186,0.2886230146887856,0.9682331696157973,0.9585153050077548,2.676040908639077,2.8788475746656896,-0.639384259392813,-0.7346717502060409,-0.8550231033204883,0.8607032318326903,0.6395475657960246,-0.96240183477757,-0.421158320759135,0.410557877802562,-0.17116665752939528,0.24763707214244413,0.24014367368680878,0.4030396402047196,-0.188597634116904,0.7762554162732545,0.6226163912399021,-0.3751291312117755,-0.949544313871824,0.5352287149509498,0.3421842108181706,-0.06720878978133453,0.6888985790114533,-0.7426474624975948,0.7363709044092451,0.23924370769501924,-0.09777431407453374,0.6948784055522741,2.4998029983119032,1.1443604477149867,0.7853884644361481,-0.9598955339340773,-0.6913573597505547,-0.9117415150622641,-0.07383630597983429,-0.281254037222194,0.3311522594447273,0.2318668758634125,0.16860779478753055,0.04452191679171724,-0.47674281746307656,0.4643848069587557,-0.7954131660062314,-0.5581567724179055,0.06862509881208956,0.6593600583517638,-0.20396599850736008,0.7381640280294254,-0.23067836477998954,-0.9710165296563188,-0.8275004390609713,0.005817995731035116,-0.8863798782946164,0.5627600301903917,0.7604163351356638,2.449746037503275,3.4523821938803527,0.07661286895220021,0.9064458085165871,-0.08244763652721339,-0.6915220900574266,0.04388253376533685,0.6632317353520825,0.05828408108421059,0.16460135259673994,0.8269155810652674,0.946203387111909,0.36220804091644876,-0.4771732161973192,0.19583057717757502,-0.19829414181220173,0.2851583822264052,-0.1896743080313339,0.35698989473199383,-0.17497506394852902,0.47345856713601275,-0.4243428664546284,0.46455530925879923,-0.5660970856373762,0.8784312247665216,-0.8835047073435988,-0.12958137011462392,-0.5622152919425797,1.8104009092790938,1.9261258938570847,0.5516142155539719,0.43806040418779973,0.523412426165184,0.6390997714980887,-0.30937901727813677,0.5582340364474682,0.21656850269297517,0.513959598940913,-0.3895486955820961,0.42768507603968803,0.8636530730602074,-0.912683444550185,0.4099778318830922,0.9990681930536671,-0.604767294829148,-0.5070106776528109,-0.11434803116440895,-0.21967132757704544,0.8506579372461296,0.6995956435458888,-0.34339251232828094,0.019218895698954686,0.18247764425936427,0.1632882663726874,-0.25043081641487286,0.30529450473896136,2.1644925487261286,3.027495547079667,0.5841407950120955,-0.8535417317923116,-0.5919931022246789,-0.4763713124204543,0.04007473060692439,0.21013754498697593,-0.09446110689815919,-0.6840437449377588,0.5745757414553293,0.1242773398581698,0.6150748962933053,0.9436920397225332,-0.37038710081171367,-0.5778011994129084,-0.2264813184201202,0.21854765486686833,-0.18505142649850193,-0.6340509963585603,0.2843584721754584,0.8544618018207191,-0.6119910966455224,-0.9033439253353357,-0.24557935500340683,-0.5049860547215493,-0.5712045923795372,0.9332318589465646,1.708099490081545,2.5937351054015605,0.8501146619440388,0.22528926267480778,0.35292935526390407,-0.41584945307396387,0.8085525710010678,0.3420336335696858,0.1521354192494835,-0.5075024309364682,0.19060769166396563,-0.07233294550238423,-0.7205496385646106,0.16139910228891585,0.5039912642885138,-0.9709351882016235,0.2535966914034291,-0.6576363581567581,-0.7044314031126699,-0.7481366891410355,-0.045987248238638756,0.5340341677055247,-0.8165587899735286,-0.8930855136382825,-0.526657251901255,0.046438412566506805,0.20812245436675744,0.8096437267583042,3.102417751698114,0.619075433041756,-0.007520283400116925,0.014138659391034142,-0.3106273034436775,-0.40094269234729124,-0.6263144252721742,-0.568249515652017,0.777167887776175,0.11503097417274954,0.005597414729065164,0.6804292412938824,-0.13243178108287346,0.4537382439543429,0.5990337169134956,0.9144564583418107,-0.45993544835826716,0.2476784423950522,-0.22871757369814683,-0.6564757100744689,-0.934122260539274,-0.24333869778994854,0.3399575728200155,-0.05328656085221496,-0.1810111015691479,0.6474673830251048,0.9644636055507673,0.17915241122968406,3.6047659140579853,0.6654022726213227,0.3043778961267405,0.028484418749561074,-0.9193112360312291,-0.39158395601093815,-0.9066305514556963,0.3232242924208535,0.6127663089731552,0.7387422990706969,0.4038767411589754,-0.6627334279256005,-0.2914701602675809,0.4570997731774429,-0.21546196323919808,-0.3639395589465324,0.6030728526575455,0.5716455529697182,0.6268509844641046,0.21977144736394472,0.25132588627723296,-0.9596171402089957,0.1804325073322497,-0.15068939969305775,-0.768684933798413,-0.014764799909010804,0.002440186125115401,1.4052879567957706,1.9537866173359526,1.4441150598006562,-0.7488097746474214,0.039288229226067894,0.30063766715829443,0.9090201796524244,-0.7453793710034553,-0.2402877069287528,-0.6116764354361566,0.08687276513201603,-0.6916702252501334,-0.9720766276172954,0.8919718025520642,-0.22230564656565877,-0.5854595278192369,-0.7752654082557098,0.11938443289310996,0.02733392886047703,-0.14517009760690858,0.44969566186824084,0.9426562457931174,-0.6026377724312195,0.9337610631038067,0.024622760493820728,-0.054498184586588394,0.4043834754061293,0.7184502128877739,0.48446166124161305,2.210199887650989,1.6376756582293364,0.9307896137034435,-0.6154505812766238,-0.15100853653436763,-0.9884495510427733,0.20288754474416137,-0.9875482052417444,-0.8685337710822831,-0.5736105193507179,0.6365539215830833,-0.14026980849004644,0.7666281984802477,-0.9174660193737356,0.639667120811112,-0.0483920726309508,0.3263955141350743,0.4325381210183399,0.5443543698802529,-0.6320703371037015,0.411145752088768,0.6063064565734457,0.35781253487791975,-0.9953741166874983,0.3454207471312407,0.9269362037934519,0.2849191071238173,1.8951786924222742,2.2759888117084177,0.600759838339042,-0.02093240203678759,0.16743272844900492,0.6264690726648063,-0.11795290088260302,0.19981525224317265,0.25861894134071095,-0.4998033566326776,-0.32594399888384995,-0.8406350618203415,0.37873719525925864,0.4940462954331375,-0.8091832555817904,0.9016655926410087,0.5257484973117128,-0.9436709401907128,-0.43562865069119683,0.5493129546709188,-0.6562596806371057,-0.7717935528239237,0.3383305653825781,0.3737377867683169,0.215706922964078,-0.8339596181367113,-0.5576490744181899,-0.05709788956048767,1.6150298063959116,2.0450051105014566,1.6503388762486193,-0.7287541327023268,0.004729255465998783,0.12143988423061325,0.8602683786712748,0.2735640361610292,-0.6066964871709941,-0.49540926564064725,-0.19670709802989572,0.6102798605694137,0.16579167760014757,0.4722607372354912,0.5449034857411701,0.3671528817174723],[-0.3767520498989221,0.18922142548827914,0.056798404711140726,-0.3399272728763929,0.3805210350472934,-0.6639355258090953,0.3958044545566004,-0.22792287799786504,-0.29459011911579447,-0.9653649922290319,0.43957662911740014,-0.9914681212793006,0.37380256010977186,-0.8427191691047335,-0.8481651069057423,0.5009631571513391,-0.7570422729427619,-0.8065246854734354,0.22384516793691578,0.38643427135984787,0.20161784408765904,0.7875325720429083,-0.6020154891332075,-0.5278448663541826,-0.6032098813630355,0.6798348095508184,0.31410908512868563,-0.3989247473738957,-0.2975472600631326,-0.8608248275882673,-0.9394782059015165,0.8460000061740152,0.1748072328389938,0.11554745673407973,-0.7175121425056075,-0.006290220881910891,-0.5555753421883924,0.6870476909016885,-0.14467458577613623,-0.1535406020815171,0.5092609523493037,-0.5635869259792412,0.4544094215587511,0.4914122133867447,-0.09925566848548284,-0.8579049981442108,-0.5256317505369532,0.528875816860713,0.4237886198003684,0.6682085108423004,0.91033358573354,0.10790549084294376,0.4112999682191316,-0.08188591077481222,0.08596017390596922,-0.28173464502093415,-0.7824417591135293,0.2421047374922809,-0.8831347307376287,0.4519480692324698,0.8863409211210844,-0.7311472379569457,0.21767868837057858,0.5900156311132894,-0.46284960238674966,-0.20913193034519395,-0.6072070144326518,0.6131460626782967,-0.32325273480655436,-0.6513558275589122,0.7132580649299447,0.6319330026409227,-0.9001981541930331,-0.9054781968271435,-0.5977128020621927,0.7872639315305014,0.35802006017458465,-0.8204701401781853,0.8992935543597902,0.3540487975304565,0.6871774463862934,-0.9207086837978324,0.29215322481986306,-0.37691049830724177,0.08684757265788168,0.48453366656957586,0.40142571408554684,-0.6297279957930466,-0.24908471932510956,0.24949557673690936,0.7667407079382027,0.2752416987712376,-0.7972757491958538,0.20209881705281907,0.26134273596726487,0.9094969813120501,-0.06798794704126854,0.9294880518620539,0.7165197450025738,0.27451390539291287,-0.024232575055571637,0.9168431407589952,-0.284991945962247,-0.6173634640861696,0.4205469158108901,0.5604987650340973,-0.07504257500833145,-0.3444317291322996,0.16900417472939155,-0.8420807587783132,0.40530417890008064,-0.7006739471426968,-0.19519202495029253,-0.9904211128445439,0.009286192375066005,-0.7443343693499069,-0.7792276188904754,0.771983467203702,0.5842016132526036,-0.39154521203216097,0.2619779471336492,0.6131981658743215,0.8686143800031312,0.9404865264860953,-0.017189262842604892,0.16329701169190985,-0.44608341452883615,0.30167072410784757,-0.7807395623183379,-0.22415995884685508,-0.44349257196852265,-0.8115849960696555,-0.7948879989321128,0.4245571372907453,-0.2003722977621598,-0.4100302835751127,-0.32650555275703885,-0.0299583536312924,0.9493248941709944,0.0073292378531997215,0.36613961931325356,0.10061225259643747,0.4166512842306904,-0.9792872139395841,0.10988324886827083,-0.818954603989047,-0.9609636143357951,-0.49699098906139216,-0.812649696817104,-0.5879382231078782,-0.37207347555257586,-0.35660820008709143,0.3024782261509851,-0.8843080592794915,0.17584174282162646,0.3845514432655541,0.31134929898646174,-0.18516054346922678,-3.510263939763418,-5.038471104031066,-8.788308951616093,-4.649973407916971,-0.9759205570543492,0.7763036326063241,0.2413580196970388,-0.45303137658465076,-2.352889052609103,0.9718166548983334,0.5050790358368502,-0.8216943320554719,0.4556797559524006,0.24816859900167776,-0.6834135719460495,-0.21026840796090607,0.339406806291207,0.9085915337455882,0.7936043271120109,0.05485702951489638,0.009851018097070306,0.7232467256744812,-0.21290320327798087,-0.5980467291296323,0.878589141303301,-0.2891181006898369,-0.3380138536633079,-3.7886536935182886,-7.418538910908941,-8.899906109320018,-7.71027644565548,-6.3123690989285475,-0.5964839496201426,0.6927141252174677,-0.6404201312417537,-0.6224932344695646,0.39645076984316985,-0.18217275016583212,-0.576064460943948,0.3281396939907779,0.8372000201273839,0.8006163435915599,0.9949109887823897,-0.4609214877210095,-0.36199264427407163,-0.5509249958329975,0.808400363403099,0.09905296798085324,-0.6285365917643155,0.674844339207555,0.17713206616917487,-0.005607514122790537,0.0027152308998102657,0.982291630218691,-1.123246924936463,-6.866023921777385,-7.769692519442696,-9.224057521335583,-8.950844505874388,-6.698389662182568,0.464930738183431,0.5227773494673795,0.8286513419163937,0.7669638959641824,0.2592686677286785,0.9672184730357696,0.5080436840739857,0.74971422904866,0.00888559114226739,0.7393242721791116,0.7598377459814052,-0.5952953801441532,0.6936908894086931,0.30688211851650843,-0.4683266088165227,-0.9458875556716897,-0.9356452499790137,-0.3544364952271468,0.7918436621922929,0.749421004533862,0.152246305069511,-1.0268300622657018,-7.790886800295323,-8.53431638564034,-9.40546423927466,-7.683206811173198,-9.277321992029876,-4.3396888432561225,-0.500867680989878,-0.08881077905830785,-0.9490419945839839,-0.3088380248925769,0.35068059777132565,-0.7609763515517907,0.35696178902271525,0.2522883469763655,-0.46651978516197445,-0.7646425944096755,0.04376222370220491,0.3468092191116729,-0.8015847425618827,-0.49248577945620897,0.8515719321104767,0.5386147751065224,0.262911969347852,-0.5625509630255379,-0.11840577361196232,-0.4021812177420627,-0.0603897629045095,-1.6212151770913739,-8.570222063921909,-8.465771142339989,-7.8652820954022795,-7.504457106237633,-1.652966846709465,-0.24935918647920172,0.005293692610965412,-0.8702256646542524,-0.9228299789580455,0.6576672383139184,-0.059766664362287614,0.1779081729655667,0.7588561218958296,0.6908286690636585,0.9208257196922514,0.7502198823023174,0.3535144957761202,0.5640446795415426,0.1481936764807281,0.929084497333815,0.011172320647630851,0.23684928447681916,-0.8734651975921169,0.24008011046924152,-0.8811808431878091,-0.5076811886071101,-3.065085399819505,-8.438857077114148,-7.861132819445557,-7.777304256392782,-8.146537045328854,-0.7239303758454922,0.8194816752524342,0.3357621167817097,-0.9385258534294914,0.712313767705547,-0.9112314709290978,-0.318952646627531,0.6317642660522247,0.8741083888746393,-0.9410698572493308,0.8973574873253689,0.7193625418759924,0.12061204959221294,0.010216778489638081,-0.9421508216426946,0.7317979802455341,0.33292800762030555,0.5908708612353829,-0.11302672424688068,0.3379286650560802,-0.44653351712947564,0.11417669722150334,-1.7807143242914556,-6.884859224828473,-9.194912554976897,-8.84282462729226,-6.716338336096014,-0.5080920140888482,0.15564824820152212,0.8839987287459284,0.4249042637272399,0.3477348448027391,0.5968549042089443,0.11792449930440178,0.2165270172602476,0.7359784073703337,0.8057271434707483,-0.33324636510355443,-0.34219148948770695,0.06552447090973557,-0.06954604542184617,-0.7225649784087009,-0.7728965114887877,0.9732076816521276,0.001112619214119375,-0.4180484298336103,0.04006419546908084,-0.1673138921341337,-0.2999926864555756,0.3045686744049777,-5.734045771095839,-9.272306363398412,-8.285061641353877,-8.989009706363353,-0.9713074889456137,0.7829435975339732,0.40513186238759197,0.6413123619484776,0.146321420317169,0.3523144516313241,0.20698106175531678,-0.026993225860675357,-0.051986595703493066,-0.8642671471958865,0.7330469432349966,-0.5887886678629308,0.5312851528526825,-0.865616672667409,-0.49447371854834765,-0.057756848968242736,0.47793433323950585,